<?xml version="1.0"?>
<opencv_storage>
<my_nn type_id="opencv-ml-ann-mlp">
  <layer_sizes type_id="opencv-matrix">
    <rows>1</rows>
    <cols>3</cols>
    <dt>i</dt>
    <data>
      24 128 7</data></layer_sizes>
  <activation_function>SIGMOID_SYM</activation_function>
  <f_param1>1.</f_param1>
  <f_param2>1.</f_param2>
  <min_val>-9.4999999999999996e-01</min_val>
  <max_val>9.4999999999999996e-01</max_val>
  <min_val1>-9.7999999999999998e-01</min_val1>
  <max_val1>9.7999999999999998e-01</max_val1>
  <training_params>
    <train_method>RPROP</train_method>
    <dw0>1.0000000000000001e-01</dw0>
    <dw_plus>1.2000000000000000e+00</dw_plus>
    <dw_minus>5.0000000000000000e-01</dw_minus>
    <dw_min>1.1920928955078125e-07</dw_min>
    <dw_max>50.</dw_max>
    <term_criteria><epsilon>9.9999997764825821e-03</epsilon>
      <iterations>1000</iterations></term_criteria></training_params>
  <input_scale>
    1.8662343601170281e-05 -6.8689273609109751e+00
    6.2556262969096602e-07 -7.2385870140934614e+00
    5.7665244798436896e-07 -6.4387628049662995e+00
    1.4462468533271611e-08 -6.4716209086990499e+00
    1.9179609451772505e-08 -6.7475890029713517e+00
    1.3223016072021543e-08 -5.9698713725026575e+00
    2.9120469422089137e-10 -5.6212080712974775e+00
    4.3811070635263638e-10 -5.9975276359228387e+00
    4.3789368489650213e-10 -6.2232933570087265e+00
    2.7112769969256459e-10 -5.5981239016965478e+00
    4.3548968977714174e-08 -3.6375539409254887e+00
    4.0918071449694619e-07 -3.1826654478645200e-01
    5.2472042457558789e-08 -5.8888607458255038e+00
    2.0365259667490137e-08 2.6047733460082684e-01 9.0279415328310990e-09
    -5.6790702028175133e-01 4.0906770069486232e-08
    1.0681178559485442e+00 1.0067533466034917e-08
    -1.1248531149125336e+00 1.4547319185986864e+04
    -8.8626880543052575e+00 5.7254080126355460e+04
    -3.5305782366253474e-01 8.3457437412385734e+03
    -7.0335089952134933e+00 1.4910654671021975e+06
    3.2579258231979341e-01 6.5099143130398018e+05
    -3.8233735126043245e-01 2.8902412289889571e+06
    1.0154077745726644e+00 7.8760497361916490e+05
    -1.1666058312717977e+00</input_scale>
  <output_scale>
    5.2631578947368418e-01 4.9999999999999994e-01 5.2631578947368418e-01
    4.9999999999999994e-01 5.2631578947368418e-01 4.9999999999999994e-01
    5.2631578947368418e-01 4.9999999999999994e-01 5.2631578947368418e-01
    4.9999999999999994e-01 5.2631578947368418e-01 4.9999999999999994e-01
    5.2631578947368418e-01 4.9999999999999994e-01</output_scale>
  <inv_output_scale>
    1.8999999999999999e+00 -9.4999999999999996e-01
    1.8999999999999999e+00 -9.4999999999999996e-01
    1.8999999999999999e+00 -9.4999999999999996e-01
    1.8999999999999999e+00 -9.4999999999999996e-01
    1.8999999999999999e+00 -9.4999999999999996e-01
    1.8999999999999999e+00 -9.4999999999999996e-01
    1.8999999999999999e+00 -9.4999999999999996e-01</inv_output_scale>
  <weights>
    <_>
      5.3855974772449730e-02 6.6770669155069101e-02
      -7.8721227201818345e-02 -6.1188996740498911e-03
      6.1914149618718481e-02 1.4006840124107039e-01
      -8.7849321261417063e-02 1.2757916018828036e-01
      -3.4639725299042620e-02 4.1417654100115553e-02
      -2.1832229605953532e-01 -1.0044814888724218e-01
      2.9016240566310643e-02 1.1428156150361493e-01
      1.1266759861912520e-01 7.4608922388820553e-02
      -2.1294750401014595e-01 2.0247656270395448e-03
      1.7392616429849544e-01 -4.3148865902611681e-02
      -1.3096362952498261e-02 -5.3875994095656327e-02
      1.0468599210694404e-01 -1.0271674847810093e-01
      -1.7375260239132467e-01 5.6780596579899020e-02
      -2.5641101153405052e-02 -3.4974969565613828e-02
      -8.5361062796535742e-02 -1.1186885975423405e-01
      3.5709518733203119e-02 -1.3712974311271905e-01
      7.7923819642411685e-02 3.1365748898759643e-01
      -6.9114504400336063e-02 -2.4044206351157334e-03
      3.5342234693577987e-02 3.4339610172232088e-01
      1.2196973659347843e-01 -1.6624203959894901e-01
      1.4200374485130782e-01 1.1065786994060767e-01
      -6.4956630454104353e-02 8.6808328820364267e-02
      1.6486927803781468e-01 -1.8796807278867828e-01
      2.7942369770338199e-01 -3.7181036551766682e-02
      -2.3226827027240108e-02 -1.0354800573801721e+00
      -7.1149736317758561e-02 -9.2974739573543925e-03
      -8.9234989081227484e-02 -3.5000315155701112e-01
      6.9001747249137754e-02 1.8104937951303746e-01
      1.6270271260916941e-01 -9.5711124543521292e-02
      1.6672606636310650e-02 8.0191986057855699e-02
      2.1132063235605453e-01 3.0697426875165879e-01
      2.0090180327095833e-01 1.3451589519645005e-01
      1.0801553954889320e-01 -2.7374827447190292e-01
      -8.8928475785407749e-03 1.1103501499462383e-01
      -1.2579617319385325e-01 1.4858444141995314e-01
      -7.0993429341347034e-03 6.8281789974876661e-02
      4.6507118848130323e-02 -7.5649224524145298e-02
      2.6448460201577727e-02 4.5296179182032764e-01
      8.4846141181767087e-02 -1.5717264599391315e-01
      -8.6151696931653365e-02 -1.2414959703214188e-02
      -6.1595979838179701e-02 9.2830551355945687e-02
      -1.6978927071227509e-01 -4.9044398434867409e-02
      -2.6683088177696879e-02 -3.6645776269685383e-03
      4.6421796317463546e-03 -3.2073296070651319e-02
      2.4068337981832733e-01 2.7954738897256121e-01
      -3.1366302805709095e-02 5.0426644527115719e-02
      -8.0089994714812818e-02 6.9679173953249365e-03
      1.8016488807235446e-02 -8.7509356128713051e-02
      4.5121523756722695e-02 3.6626002896174903e-01
      -1.3574137218764434e-02 -1.3947482477664386e-01
      -1.8149840711485724e-01 -9.8199234962719983e-02
      5.2126541611410577e-03 1.0587078947248221e-01
      -1.8768780114990591e-01 2.0137475059430018e-02
      -1.7370175163160592e-01 7.2710025980553386e-02
      -1.0720635227538242e-01 1.8934101182333066e-01
      -4.7979011156060403e-02 -4.0988526851915827e-02
      4.3128040797057718e-02 -1.5432788531326658e-01
      3.2667230356317994e-02 9.8218540413225752e-02
      1.0596760675380865e-01 1.8895550739896400e-01
      -1.6330533608200057e-01 4.8824868614594931e-02
      -1.0835548304336864e-01 -8.0402236460101584e-02
      -1.8027362313830905e-01 -7.6433683354643900e-02
      -2.3433981274140807e-02 6.5341654436191901e-02
      -5.1974353536590606e-02 -1.4374276327510493e-01
      1.9861743840686338e-01 -4.2527818899263589e-02
      -9.7334382149782100e-02 2.3661474647378181e-02
      1.3879692740244959e-01 7.1090864956210503e-02
      -2.7162708787961620e-02 2.0268742305530796e-01
      2.2890559579421842e-02 1.4489544583811798e-01
      1.0107811658919165e-01 -1.1972193976602799e-01
      1.0932277950197941e-01 2.8360617765715773e-01
      4.5979265909552175e-04 1.8859525475601988e-01
      -1.1438985337147078e-01 -1.7567291012147135e-01
      -4.5059741808468931e-02 7.3023913042420716e-02
      -2.3049365372451065e-02 -5.1157372760133324e-02
      1.7823955581044479e-01 -1.7667412004094049e-01
      -1.2645329622941259e-01 5.2694370427445972e-02
      4.1181178295709872e-02 -1.4643830197747712e-01
      -1.0183914916312824e-01 6.4341851872976821e-02
      1.0638321734400241e-01 -6.7365198602231752e-02
      1.7725206496153023e-01 2.8268499888962095e-01
      4.1870102796358069e-02 -4.4746019908175741e-02
      -4.2010938248996474e-02 3.7027998831142611e-01
      2.0333262659358517e-02 -5.8205595496947003e-02
      2.0635243064632217e-01 1.0095901083826814e-01
      1.6819201419433341e-02 2.6322261625409647e-02
      1.8967069372372500e-01 -1.1465355877978767e-01
      4.4877781433114699e-03 -5.0505032549613353e-02
      -3.9327662000768780e-02 -7.4195454873110311e-01
      -5.9072698510907497e-02 -9.5191812741710180e-02
      -1.0031102569237042e-01 -3.2680382091167476e-01
      -5.5466354267855685e-02 9.3972316045749293e-02
      -3.1494812915316042e-02 -9.1286994706204314e-02
      1.5983906580206812e-02 -7.9253218998928017e-03
      1.6987615360418157e-01 1.8069582612198143e-01
      2.3939875064951632e-01 1.2228096551038414e-01
      1.2037815546587674e-01 -1.1369756187381490e-01
      -8.8156580676387611e-02 5.4423940358251884e-02
      -1.4419470129471651e-01 1.8253535929718925e-01
      1.0679036492830224e-02 1.8071539030079704e-02
      3.3642328878900903e-02 -3.7561668368639611e-02
      1.7415857438825129e-02 2.3352399000172080e-01
      2.0602802714096095e-02 -1.2710481665135562e-01
      -6.5439322831400026e-02 -3.5319597513268734e-02
      -3.0640317479751245e-01 8.4398415894434087e-02
      -1.6742105495221729e-01 -1.7611475983412916e-01
      -6.2281233939097999e-02 1.2698242476633045e-01
      1.2670349435738476e-01 9.3054016201142675e-02
      9.2590560825062229e-02 -2.7121613747048638e-02
      -4.8720156614219669e-02 -6.8347658417342340e-03
      -8.9235874017399124e-03 3.9003068753448666e-02
      9.4752607714985268e-02 -1.4278936472801734e-01
      4.5256518343102983e-03 2.5737153204083807e-01
      -8.8983675603473589e-02 -1.8218374864252201e-01
      1.2612083915607344e-01 -1.7518310650706295e-01
      -2.1279812747160914e-01 1.0851205067416404e-01
      -1.6026336127149174e-01 -1.2477035358136070e-02
      1.1252798138689839e-02 4.3854938882620237e-03
      -2.7748341774388474e-01 4.2877397118442379e-02
      -9.5453438828097537e-02 -3.4144615617757001e-02
      3.1708980772853120e-02 -2.2075746347663522e-01
      8.0124369342368627e-03 1.1678455571525800e-01
      -9.2805339646758016e-03 -1.2966103581052596e-01
      -4.4865000831873919e-02 7.2009988155641316e-02
      -5.5998865682167734e-02 6.7293641243564184e-02
      -2.2726183784493245e-02 9.5181687513697030e-03
      6.2122615025755029e-02 -2.2259281268259528e-02
      8.7757339079698703e-03 -3.2542235444274475e-01
      2.0461445027830114e-01 9.4141055313111219e-02
      -7.6427507703659248e-02 6.2935440270854723e-02
      1.2502540191503778e-01 1.4065211607107986e-01
      4.6279293426823333e-02 1.4221589882207858e-01
      1.9112157184388384e-02 5.4441726628285739e-02
      1.6360323753879633e-01 -1.6375642804737378e-01
      5.3478015427589551e-02 6.8894581690801357e-02
      1.6348014141653536e-01 1.5802603208496732e-01
      1.0525750253663409e-01 -7.1302608378517512e-02
      5.2365305779867061e-02 5.8499701778356894e-02
      -6.7163951719387688e-03 1.7746974195900753e-02
      1.0101988169397577e-01 1.6766732716231064e-02
      1.6750623334221997e-02 6.8378040255998571e-02
      -1.7258992309163022e-02 1.4574327505659018e-01
      4.0890137582375745e-02 3.4560327122914229e-02
      4.4656816678491716e-02 -1.6088661278874292e-01
      2.1718129873898323e-01 2.4462814687107653e-01
      2.4184373609969292e-01 1.4883341593791319e-03
      -3.9049118356037207e-02 3.1025485907992723e-01
      1.4183073884889508e-01 -7.6840522030459130e-02
      -3.0369841503541523e-02 1.8298975438800533e-01
      1.3401428165410939e-01 -6.8213231994789875e-02
      2.2578695967798743e-02 -2.1185573149481179e-01
      2.4785416749620165e-01 -3.8687677953541326e-02
      1.9880807251452619e-02 -2.5116515328884914e-01
      -1.3296608455963171e-01 1.7436987459768305e-01
      -8.8523627584101844e-03 -2.3005512688708074e-01
      -4.9334786247881915e-02 1.3283332115206176e-01
      7.8837506526975437e-02 -7.7848583867366677e-02
      -2.9937284352250983e-02 -8.9120765465210250e-02
      2.8965610873842546e-01 2.1438750364211673e-01
      2.5748688853850860e-01 2.2353846873582453e-01
      1.2821390833820331e-01 -2.7068795952919744e-01
      -1.0336778000259378e-01 1.1538863295683212e-01
      -1.7910944345288632e-01 2.2796068228517430e-01
      1.5095230763669906e-02 6.6263999994706682e-02
      7.4216189333205168e-03 -1.0616856150428923e-01
      -2.5182471144149166e-01 8.6951905648709332e-02
      1.4446983958727544e-01 -1.9770461431969089e-01
      -1.0034014132139554e-02 2.3298053829813842e-01
      -6.9054039814981275e-02 3.3704957709835510e-02
      -6.4059513096008810e-02 -7.2570512729906167e-02
      7.7678896032533001e-02 1.1960278854344891e-01
      4.7744081254857886e-02 3.9407626683532003e-02
      2.6668807776535064e-01 9.3969403405436455e-02
      -9.8947132685560713e-02 9.8425347160168680e-02
      -3.7746240737486531e-02 1.4195740675226426e-01
      1.8957689118247172e-02 -1.7127634063934488e-01
      8.2337222042995428e-02 2.0239096899234685e-02
      1.0234326296682009e-01 -1.8894941317722130e-03
      -1.7127039130741101e-01 -1.3128140008888680e-02
      -6.1116271834688887e-02 1.4560718162859876e-01
      5.5115915127579233e-02 7.7166695268544375e-02
      -1.9457692330138501e-01 1.1822510994476679e-01
      -1.0101941819057830e-01 9.2769500260387910e-02
      -1.3633158377481830e-01 3.4688438696757626e-02
      2.7396882258908663e-02 3.9216067204512720e-02
      2.5441571961956772e-01 -7.6236386183811157e-04
      1.0617070810565551e-01 7.1310952781957149e-02
      -1.0542796107955416e-01 1.8868979799691835e-02
      -1.2509802920285512e-01 2.1733540190845828e-02
      -4.7372992249558932e-02 -9.4429885445780556e-03
      -4.8655598225725655e-02 1.9339065974398109e-01
      8.1894474341570406e-02 -9.3076014006525015e-02
      9.4223738708696908e-02 8.3823624864904508e-02
      -1.2527929994731418e-01 1.0805487317878068e-01
      -6.9722295632635573e-02 8.5873265344261263e-02
      -4.4224058918650881e-02 1.0569453949058492e-01
      1.2382011102244665e-01 -1.5483963949704210e-01
      -3.2124698350494296e-01 -1.6243294616752249e-01
      2.3025513118711605e-01 4.0970479787378056e-02
      1.1171263222972397e-01 1.9061659923524973e-01
      -1.2540512250476665e-01 -1.7610192051935392e-01
      4.1751119388501616e-02 1.9353591141921797e-02
      -1.0354836063807601e-01 2.6514175000299500e-01
      1.4416220083704709e-01 2.5971025440835752e-02
      2.2057239514561358e-03 3.8376925151945525e-02
      1.7123072321033717e-01 -7.6444964956027733e-02
      -2.5721754361549873e-02 -2.8277485456715008e-02
      -6.3038960770279900e-02 1.1590496443438954e-01
      6.8903597705947117e-02 4.3122065179317812e-02
      -1.5606657742992408e-01 -1.2802567354550698e-01
      6.1486409143462595e-02 2.3681361561229328e-01
      -6.2004717979034611e-03 -7.6403427725874357e-02
      9.8088467442347407e-02 -1.4408890247048411e-01
      1.0814592449040705e-01 -1.7304486404410604e-01
      1.3252146661100073e-01 -1.4180466691521526e-01
      -3.9391446699262908e-02 2.2417611132234810e-03
      -3.0455227169587453e-02 -2.2614964830889639e-01
      -2.3337577592086400e-01 -5.0298507451878929e-02
      5.5265328356528760e-02 -1.0382874782958086e-01
      -3.2227610082917676e-02 1.1985571123656077e-01
      6.0191073047727361e-02 1.4776682174673159e-02
      -8.8488871323750690e-02 3.2071814765832762e-05
      8.8899796496330508e-02 6.6521208578824417e-02
      3.2908644232787038e-01 1.1991520284815007e-02
      -1.5515986342291010e-01 -1.1161640511186179e-01
      -1.4206617928621210e-01 -9.2789260969068421e-02
      -1.6183421573104229e-01 2.6313475952664567e-01
      -3.9921825987315751e-02 1.2886643213920077e-01
      -8.3993347525979811e-02 -6.5263608255621386e-02
      3.1298399135759811e-02 3.1249209830633617e-01
      -4.9390007383190729e-02 -1.9167380803451059e-01
      -6.2122697384198469e-02 2.4136990898544144e-01
      -2.6251288295975511e-01 8.2515572669032075e-02
      -1.8078786450921105e-01 8.5334463033871544e-02
      -3.9997695329256255e-01 1.0307440587069708e-01
      9.8225056147622961e-02 1.8638539196110766e-02
      1.2627039029876788e-01 -6.7544320749741121e-02
      -9.6159237127685981e-02 -3.1777235539693964e-02
      -8.1766078649941953e-02 -4.2642779295771172e-01
      1.5610880978612149e-01 -2.0878446779724569e-01
      6.6334442525503259e-02 1.1101093851790100e-01
      -7.4901553591160783e-02 5.9111927750414295e-02
      -6.0123634794877048e-02 3.0167533328107232e-02
      1.9655409032222692e-02 4.5362433433174719e-02
      1.6520905238066153e-02 6.2490570919900342e-03
      9.8778852942106629e-02 2.1075808292610479e-01
      -1.6732307289336845e-01 1.4429320161259090e-01
      -7.3240019335822637e-03 6.1370602441077157e-02
      -2.7326086885765620e-02 -2.0753064738513755e-01
      1.6822751106061379e-01 -2.8102851318319279e-02
      4.7563401022974929e-03 -1.6714428876201623e-01
      -8.4498464458607120e-02 1.9572249985262044e-01
      -6.1612039620491686e-02 -7.6070733070001922e-02
      -2.3225891060987172e-02 -1.1657564293427576e-01
      -7.5991909713186215e-03 -1.9099490676160213e-01
      -9.6978042593705766e-02 -1.4227475198470615e-02
      1.8311269048023465e-01 1.0655530588538582e-01
      -9.6008926948995044e-02 -8.8129542143483165e-03
      3.7140243931138746e-02 1.0996718202222674e-01
      -1.5882592909101042e-02 2.9204555999612447e-01
      -7.2265913308403262e-02 1.4965569612443702e-01
      1.7054843655588772e-01 -7.0522561115082399e-02
      1.9848887864311360e-01 9.1841667829345913e-02
      2.0409358243397180e-01 2.9383120699246323e-01
      -1.1821432986699260e-01 -1.5189407630342750e-02
      7.1398237980789453e-02 7.2050684822522734e-02
      7.4139668749830218e-02 -6.0986880713856995e-02
      4.8549831217300415e-02 8.0915825653827794e-02
      1.2404212056419998e-02 1.2515933258230488e-01
      1.2632219919700460e-01 -8.4216809670633663e-02
      -1.1393075796497990e-01 1.1266756145593758e-01
      -4.8685708246894957e-02 -4.5745356366587345e-02
      3.2679465821959186e-02 1.9532526333790801e-01
      1.5013387518752622e-01 -6.0852464704231564e-02
      -5.1608161538186620e-02 3.1491303419278971e-01
      1.1787894873727717e-01 -5.5374855977300373e-02
      2.1640309034951824e-01 8.5882934285057333e-02
      8.6983359109173458e-02 2.9596083613959094e-02
      4.8271871690391925e-02 -5.2674435063562543e-02
      1.5901777759452926e-01 8.7288049619173275e-02
      -2.8052861055654441e-02 -8.3079043052148116e-01
      -1.6319228314589124e-01 1.1561108541314388e-01
      2.0841481701971538e-03 -3.6287903549467160e-01
      -4.7444951338914146e-02 8.9333709585005722e-02
      1.0291995407422574e-01 9.2518029179121473e-03
      -5.0064469211852806e-02 -8.1853318201095926e-02
      2.5757447755713397e-01 7.4939989518001474e-02
      2.1334508392277596e-01 1.1001267701627940e-01
      7.4917475093469479e-02 -8.8460456014161012e-02
      -9.3932634706058532e-02 -5.9670515433220293e-02
      -2.2507917824482798e-01 2.5510101109422312e-01
      -6.5560994933049968e-02 6.5339206094051153e-02
      9.0374880330214319e-02 -1.5136577209934918e-01
      -1.8200781296332746e-01 3.0462288553025796e-01
      3.7470634989665276e-02 -1.7994439288525771e-01
      5.5583373845115400e-02 2.4810516427289409e-01
      -5.3809751778919368e-01 2.0464677696310961e-02
      -2.1546619438611803e-01 9.3771739522432521e-03
      3.1549200582853404e-02 1.1537320709021159e-01
      1.9875853338659541e-01 2.4761465498337153e-04
      1.6135516883566378e-01 8.4258309812774948e-02
      -7.8122910192542638e-02 5.1569133642742106e-02
      -3.2711380775782575e-02 1.8039586379158673e-03
      2.2333959246038870e-02 -1.5645018894828872e-01
      6.3832104882969101e-02 1.0564112561162134e-01
      1.7237951257416778e-01 1.1003276945694349e-02
      -1.1290307821395835e-01 3.6738837705376493e-01
      -5.2126614508189617e-02 2.9385307785695780e-01
      -1.2854767703110170e-02 6.4433718245127253e-02
      -2.0564457543250533e-01 -2.5051030935401800e-02
      4.1319224224587184e-02 1.0967493992151642e-01
      7.1369316203037502e-03 1.2382491590822362e-02
      -5.6658301059735617e-03 -1.9316277261431769e-01
      2.0151589639356332e-01 2.5898562712079500e-02
      4.8045266106435100e-02 -9.6809046791771058e-03
      -2.1852894390708383e-02 1.3724858879621613e-01
      -1.1365969693671202e-01 -1.7210181152989681e-02
      -6.6544493379100345e-02 -1.2057699773315229e-01
      -9.3266698900057281e-03 1.4468332494700786e-01
      -1.0853885496243495e-02 -1.8547088669527340e-01
      2.1148269595528008e-01 8.7571530601273054e-02
      -8.1343849617884767e-02 -9.9123779018256714e-03
      -2.3610065402138773e-02 9.4621380204852473e-02
      -9.4335190527987861e-02 2.2090744120735473e-01
      3.1167090811832516e-02 2.8445263715075223e-02
      1.6210716348301910e-01 -6.6160463577011303e-02
      1.3225211310588647e-01 -1.8168027073289086e-02
      8.9993616676509999e-02 3.3926235380161307e-01
      8.6556796662506805e-02 -8.9228126216396086e-02
      6.0942057241916911e-02 5.0101495095579061e-04
      -1.9890614993600189e-02 5.4538006556109325e-02
      1.7500988567000961e-01 6.8852139643022683e-02
      -2.9980194636365171e-02 3.4903433166492331e-02
      3.5257660864255858e-01 1.0018539748653631e-01
      -6.7476231715964285e-02 -1.0732550723466090e-02
      3.9626234423172724e-03 -1.0647860696679486e-01
      1.9059844425930572e-01 7.5395714630150726e-02
      2.0977565601731471e-01 -4.4649703783283069e-02
      -3.8015955457715869e-02 3.6450252887693768e-02
      1.1188085977142732e-02 2.1552523928353468e-02
      7.7125495058875795e-02 1.0331039467293779e-01
      5.7764833142384578e-02 1.9996975742843641e-02
      1.2428581776794165e-01 -3.1126600574425928e-01
      1.9486217167286365e-01 3.4936364396931541e-02
      4.0708643966225015e-04 -2.2432498632271472e-01
      -1.7243989702369988e-01 1.0791643635608947e-01
      3.0096502916994113e-02 -1.9966856303054392e-01
      -1.2955177482125563e-01 -1.7855710290447885e-01
      4.4128722681115728e-02 2.5606711353691049e-03
      -1.7456661644594446e-02 -3.9562062830910405e-02
      1.7159182210478921e-03 1.0283171067968896e-01
      3.6526557282607042e-01 2.1432765283565638e-01
      -1.2530521315800328e-01 -1.3538108773016780e-01
      -1.1945374554525941e-01 -6.0357029426042257e-02
      -1.5725058242573509e-01 3.4921551368562020e-01
      -3.6498793688039807e-02 8.0184486073567415e-02
      -5.3748768461920372e-02 -1.9465563322167055e-02
      -6.2593705865476967e-02 1.4813436193471780e-01
      -3.2919615047802664e-02 -1.9692350165543876e-01
      -1.3284733903491351e-03 8.7722087535877541e-02
      -6.4539330049260546e-01 1.6098514172007419e-01
      -8.8744375793633465e-02 5.5463021142105925e-02
      5.0305051931120656e-02 2.1448605989863948e-01
      2.1411744569803468e-02 1.0707044770027423e-02
      2.7133177771294992e-01 5.2294470746374430e-02
      -1.0256977799800002e-01 -2.4557130177221609e-02
      -1.4619210979738129e-01 7.1713007676485863e-02
      -5.6286918876082712e-02 -1.5388329016198538e-01
      4.2475039794933458e-02 4.1646950773406737e-02
      2.4008279372229943e-01 3.1745165619308680e-02
      1.4725246220439603e-01 -1.1090016035561162e-01
      -1.0272853603442156e-02 3.0685176475662640e-01
      6.1977146425077963e-02 3.7688462512966044e-02
      -7.9940890195658115e-02 8.4041529628186395e-02
      -1.2135418633304579e-01 1.2298530330308189e-02
      -5.7963111045483649e-02 4.6859323221284138e-02
      6.9832111292290361e-02 1.0161778192577431e-01
      2.0242316324967397e-01 -2.4399087319872264e-02
      -1.1746104540879192e-02 1.9734278239527118e-02
      -1.5529220241149103e-01 -4.9268441152218075e-03
      -2.1342728727352350e-01 6.5720327497155078e-03
      -5.2375846412951288e-02 -2.1807176346360355e-02
      -5.8434527068604220e-02 1.8159536967297821e-01
      -2.3453571277987147e-02 -7.8725709257617849e-02
      1.4621458927642894e-01 -8.5993363966153820e-03
      -1.9639382967884575e-02 2.5252162265132563e-02
      -5.3325525450104466e-02 1.5320691827515892e-01
      5.3219207978535202e-02 -4.0118771720848691e-02
      1.8957706116081485e-01 -3.8166506884982916e-02
      -1.4988640114530555e-01 -1.8010073033194271e-01
      2.0123648764257546e-01 7.1908871373154465e-02
      1.3930276074735193e-01 1.6279964954269191e-01
      8.9994481431831634e-03 2.0846016722856367e-02
      1.5802253773885253e-01 7.3700413599162955e-03
      4.8394967365661103e-02 3.5802936650906242e-01
      1.2613782603074172e-01 5.2138875105826897e-02
      -4.0813559217107262e-02 4.1518979375806196e-02
      1.4740815934393170e-01 1.6126008842017248e-01
      -2.2570354944263502e-02 -1.1609126248821713e-01
      2.0986703062353649e-02 1.6445367288228219e-01
      6.7296907959224633e-02 5.0604136226199539e-02
      -2.5423089416785516e-01 1.3090317112329720e-03
      -3.6175898652738236e-02 5.8216254479562819e-03
      6.4251107707686446e-03 -1.9620891999762036e-01
      -6.8315953358226725e-02 -7.8734503616963936e-02
      3.0756940526548010e-02 -1.7445542348938350e-01
      2.7014862453140498e-01 -1.2134403677986166e-01
      -5.6612047606707766e-02 1.6040159348375671e-01
      -4.5133021535567258e-03 -2.0558237213550623e-01
      -2.3357635602731852e-01 1.4070349381120895e-01
      -7.1767697673923742e-02 -1.5033206680484254e-01
      9.7254794039078774e-02 1.5216720772664616e-02
      1.2437041554517263e-01 -1.2178958127643034e-01
      -4.2584391533507585e-03 -3.1152638024642076e-02
      1.1136739856434807e-01 -4.6535151691698827e-02
      3.1457151185635462e-01 3.2705314665795837e-01
      -2.2719839374662065e-01 -1.9193326788893204e-02
      -1.1554076450671123e-01 -1.3361636685441991e-01
      -2.3411547266842858e-01 3.3138853266112406e-01
      3.7781702755231773e-02 -2.9112607114233933e-02
      -4.0495138548518127e-02 -5.2662686770251821e-02
      -1.4117033366035014e-01 3.0719930773896320e-01
      -1.8159085058211077e-02 -1.7401010007500428e-01
      -7.4525719915415817e-02 1.3618366915955357e-01
      -2.9638078251185035e-01 1.1708998505911770e-01
      -4.1966178571468399e-01 1.6131337764696073e-02
      -3.8665092355917052e-01 8.3673729312261219e-02
      4.1016708234247905e-02 5.8563483332903871e-02
      1.9027818798902435e-01 9.5184460842254234e-03
      -2.3528260757138975e-01 -5.2629568417542745e-02
      -1.4546690481201197e-01 -4.4379063504729721e-01
      9.1035871761276338e-02 -1.2794945427796772e-01
      1.0406266165938409e-01 -6.6918428269997249e-02
      -1.4055049717034884e-01 9.2038428479600115e-03
      -6.2853266664734356e-02 3.1373263761857928e-01
      -7.7240963556022280e-02 6.3865767570514154e-02
      -3.0902867965247192e-02 1.1226817182877200e-01
      8.5342964773197180e-02 2.9388630448506481e-01
      -9.0318569379984181e-03 -5.2020478453672400e-02
      -8.1944155557294562e-02 3.7680829115392972e-02
      5.1314021579955446e-02 -1.1540805849008334e-01
      2.2803852931261975e-01 3.0207739772807208e-02
      1.8665568469962892e-03 -1.3581991514526903e-01
      -9.9824092854521457e-02 2.3451042616158671e-01
      -1.1309388469378504e-01 6.9535480288515805e-02
      2.8611923515042791e-02 -5.4907620352836001e-02
      2.6566755135653663e-04 -4.4825058557295620e-02
      -5.0891606619931251e-02 1.6369564662199975e-02
      1.5911185171502856e-01 7.5045761486633826e-03
      -1.8107596853262362e-01 7.3525658799180077e-02
      9.7893936225805028e-02 1.0638907158138677e-01
      -5.5974683172843674e-02 5.6834698043732347e-02
      1.8949154308688737e-01 -5.5905712141782457e-02
      6.6284544680126387e-02 -1.4290836493100836e-01
      9.1700228453313881e-02 8.3368479163564047e-02
      7.5540834445388283e-02 2.1280996437465072e-01
      -2.3740837978441903e-01 2.3343460015067777e-02
      1.4991654014260106e-01 -4.3062611332820543e-02
      2.9483056146394487e-03 1.7281636669437353e-01
      3.9515989243079308e-02 1.0679307490832728e-01
      -1.1554752196541521e-01 5.3731802264178848e-02
      2.3365090268622928e-02 1.5042695845130585e-01
      -7.4893499809661992e-02 -4.7549437414822024e-02
      -6.9675322948744192e-02 5.2257952078381298e-02
      3.9987271907604316e-02 1.9370895117328247e-02
      -1.4778188708423556e-01 -1.0196862312385337e-01
      -6.2159209636691137e-02 1.8032419980793407e-01
      1.2654128900652128e-01 -9.9736301428715785e-02
      -3.9584637703051671e-02 5.3052183336684933e-02
      8.3109632444912596e-02 -1.5017811429790415e-01
      3.6304311260118634e-02 -6.9225517560981858e-02
      1.1275389703999408e-01 3.3494381896249356e-02
      -2.7514011040175413e-02 -3.1274316253081430e-01
      -2.7204589113917432e-01 2.4580791963349324e-01
      -4.8404452498470238e-03 -4.1297175561966587e-01
      1.1123937012227296e-01 1.4027335746376715e-01
      4.7900985111472671e-02 -7.3439331628440255e-02
      -1.0107743261000023e-01 -2.4391033139656237e-02
      1.8454432323730570e-02 6.9356367907540517e-02
      2.4498753979722715e-01 2.3166745646514550e-01
      -1.8751392339436657e-01 -1.3401723151381226e-01
      -1.5468715757751625e-01 -7.9258950501968767e-02
      -1.8672136815548979e-01 2.6237859385137996e-01
      2.4229918498962857e-02 9.5663573005837513e-02
      1.5093116536028245e-01 8.6304915650198336e-03
      -1.5530768378517712e-01 2.5856412284461439e-01
      -1.2029243916084947e-01 -2.8000043585643469e-01
      6.2075520194074987e-02 1.1956854154177896e-01
      -3.0663245051268684e-01 1.6663965405186112e-01
      1.8409394580100474e-02 -1.0101618966343227e-02
      -4.9013319327152791e-02 1.2405280116974574e-01
      1.1939678816301082e-01 1.0306655542481727e-01
      1.5884802075128393e-01 -9.3373559549724844e-02
      -7.4924494303232891e-02 9.9406136029020140e-02
      -1.4161843716155209e-01 -5.4080537959636091e-02
      -4.3550644235611218e-02 -1.6294483744551336e-01
      -9.5459850615027715e-04 1.0050036110533628e-01
      4.0099462186343568e-02 -3.5760260151693653e-03
      1.6714348272583296e-01 2.5799574141860060e-01
      -8.3919671804734280e-02 4.3002493652786117e-01
      -3.9920627108052387e-03 7.1570352919964247e-02
      1.0493626597828583e-01 1.1048967648435895e-01
      -5.0369522560616539e-02 1.3481504378725535e-03
      3.9689062149396742e-02 3.9538437371093055e-02
      -6.0660553111468618e-02 -2.0938251433275529e-01
      3.0599247819416786e-01 2.2625587470629680e-02
      6.9543173820951404e-02 3.1836135288204448e-02
      -1.1181173873765649e-01 3.5883206711010335e-01
      -1.7151239946251140e-01 4.3710200886669021e-02
      5.1051267765014979e-02 -1.2306193209732315e-01
      -5.8549859537082832e-02 -2.1979104633455970e-01
      -1.2117083751431945e-01 1.7922340429356462e-02
      -9.0148477403396238e-02 9.7732620643429149e-02
      -5.0058297702317456e-02 4.9032486865974188e-02
      1.4968424898320670e-01 1.8556869533840570e-01
      7.2385195452178377e-02 2.7456949520432788e-01
      -8.5013069715942191e-02 3.2893012163377255e-02
      9.3003382817401836e-02 6.3905964991186212e-02
      1.7813125234893834e-01 4.0951884501348665e-02
      5.6642319929339290e-02 3.1490859076939781e-01
      -6.5383688271951679e-02 7.2974921644973932e-03
      -3.5304490101313894e-03 -2.1741292954877391e-02
      5.4678564108166711e-02 -2.9575088778015374e-03
      4.4238287480613897e-02 7.3330024627143234e-02
      1.6084535248880247e-03 1.3589552343256026e-01
      2.7249932730282822e-01 -8.7144426675261205e-02
      -1.0493310537210890e-01 -5.6408567578344726e-02
      -5.0822372625127038e-02 3.2278474849917367e-02
      1.1193149878288408e-01 6.5177630956954119e-03
      -2.9952486251619122e-02 -1.2611362474568485e-01
      5.6295022729711292e-02 3.2504701409868786e-01
      4.0630420390243435e-02 -1.1331955362904386e-01
      1.8774986448537376e-01 1.8702865370190461e-02
      1.0779838895360100e-01 -3.7769707507722149e-02
      1.2037485476676756e-01 -2.2728920507668879e-01
      9.1352466459216269e-02 1.5694431046045433e-02
      8.7263038111885325e-03 -2.9508490325296222e-01
      -2.7842141241686661e-02 7.9628012657168457e-02
      6.8417100613326176e-02 -2.8599508147708214e-01
      7.7311907869839033e-02 -1.5766011130146790e-01
      1.2575689583634886e-01 -1.4563727002825979e-02
      -8.4937725711065004e-02 -1.3637332266149604e-02
      3.9819808407735614e-02 5.9960904269691168e-02
      3.2134706069819696e-01 3.0507285685563040e-01
      -1.8881773409859887e-01 -1.2174264418604537e-01
      -1.4005529589191637e-01 -1.9398012089427513e-01
      -2.7449422142101254e-01 2.6320194360534971e-01
      -9.1622423966058575e-02 6.0685354655572635e-02
      1.1514521473270703e-01 -9.3532949964960879e-02
      -1.7108433877353879e-01 1.0933204175477218e-01
      5.3225190181737721e-02 -1.6546737679818851e-01
      -7.6845619015506877e-02 2.8214681655099594e-01
      -6.2085990358362964e-01 1.4018988171212884e-01
      -8.6982986075969146e-02 -1.0574953812722575e-02
      1.5244465173180038e-02 1.8291043891977854e-01
      1.1581775589776110e-01 5.2705792461768604e-02
      1.6331564509177415e-01 -3.3091058952130874e-03
      -5.0851935463299781e-02 3.1775863649087760e-03
      -7.6503482404260165e-02 8.4947318453918230e-02
      5.8951718230005945e-02 -4.6001504967340942e-02
      5.8200161653166216e-02 -2.3740231853082813e-02
      -1.5373455903525575e-03 1.4306223993797103e-02
      -1.6635870501883054e-01 -6.1579664120201390e-02
      -9.4308334565825297e-02 1.7843823742904219e-01
      -2.6520095557784149e-02 -3.0646245248084979e-02
      -1.2207498973918206e-01 8.7451300500075935e-02
      3.0927864153731902e-02 1.5284006087998808e-01
      -2.7120385144842885e-02 -2.4258575383191809e-02
      6.3915118084843375e-02 -1.1526665313030060e-01
      2.0457129462930651e-01 7.4820847299595955e-02
      -1.3291094924690088e-02 8.3286295835505564e-02
      -1.2745145812438732e-01 7.5992282553129342e-02
      -1.3535127721529716e-01 2.3711854958275665e-02
      1.8094879868693478e-03 -7.2795185082356467e-02
      -9.7925539460954440e-03 1.4319213680781495e-01
      -1.6213083395322145e-01 -1.9878160838699371e-01
      -4.9575183919679175e-02 2.4956466357666768e-01
      -1.2469699045177550e-01 -1.9879919105110902e-02
      8.0123982847169178e-02 7.0579707576956557e-02
      -1.1302387038973502e-01 3.2734993071764265e-02
      -8.7254818831773745e-02 1.1432138912200933e-01
      1.4765596044693632e-01 -5.6494197036391872e-02
      1.8512864126175838e-01 1.1000197537981990e-01
      9.0106652875884805e-02 1.8483802187703730e-01
      -3.6022950789194916e-02 -2.7369911322354626e-02
      7.0765106901094388e-02 4.2522352263124265e-02
      -1.1411377012917154e-02 4.1473105745026856e-02
      1.5405954321810114e-01 -1.2213473474917197e-02
      -7.6663648693030911e-02 1.5167553831271999e-01
      2.6124418968897956e-01 1.2772809465359666e-01
      -6.6940605038407083e-02 -8.4549066200565355e-03
      5.6900759666800603e-02 7.8907769792918650e-02
      1.6913906293148978e-01 -4.0481624011922280e-03
      4.3381688525049845e-02 -8.8312872832961298e-02
      -2.6362317916437769e-02 1.0589357067528582e-01
      1.1137635761795811e-01 -5.4447188308342769e-02
      5.3925997500831747e-02 1.4676024610955929e-01
      8.3157102635876168e-02 -6.7608850220447325e-02
      2.0168000603683477e-02 -2.1149728873931053e-01
      1.5056888373365793e-01 -2.9614092246086421e-01
      -5.0235297979991820e-03 -3.1017519159736168e-01
      -1.1344560936318358e-01 2.1618506341342864e-01
      5.8123315011660286e-02 -2.6140953411240236e-01
      2.0994714257287054e-02 -2.2534434054415020e-01
      1.1482982920711404e-01 -3.8328415730440039e-02
      2.5468817837567478e-03 -1.5322901932913449e-01
      9.8192216730164900e-02 6.9726184732399027e-02
      2.7191436374100797e-01 1.9590079337511915e-01
      -7.9257119325546382e-02 -4.1584387856457419e-02
      -1.4839664519338017e-01 -9.3242359753434020e-02
      -2.1792643161772579e-01 3.5748224972985509e-01
      7.2257607348642488e-03 2.0062334389475349e-02
      -8.0216515968907609e-02 -8.8224811467256595e-02
      -3.7822034468606512e-02 5.9889085645857744e-02
      3.0755162236438056e-02 -1.0387391618989239e-01
      -4.1298938695533194e-02 1.8055274713850256e-01
      -6.5745107367492450e-01 9.4870378390536372e-02
      -1.9810572903419540e-01 6.8021302965883546e-02
      1.5285063931982643e-01 1.3720758780274608e-01
      3.2423072374189899e-02 7.4579503947909936e-02
      1.8904013823780702e-01 9.2062990915119505e-02
      -1.7894780073824007e-01 4.6548243499717180e-02
      -8.3420109492320343e-02 1.3243715297881167e-01
      6.2110782640135483e-02 -5.9520732311663639e-02
      6.2213148904846312e-02 1.3513781323845422e-01
      2.1693624179571752e-01 7.8564836948188249e-03
      1.1890438446875171e-01 -1.2408410271557323e-01
      6.6098117171348994e-04 4.1664632243021765e-01
      9.5610394266953114e-02 -1.1636972580738311e-02
      -7.0193304105581611e-02 1.1720202215117589e-01
      -2.5388545033116755e-01 7.1391241421531179e-02
      -2.9575595882740644e-02 1.1600974088606950e-01
      -5.5910373247373496e-02 -2.0564646947513981e-01
      3.1116399510428427e-01 8.6848974558051378e-02
      1.0132470634384974e-01 1.5632996550636703e-02
      -3.1891008508828304e-02 1.0880215019439250e-01
      -8.1989453121390832e-02 -2.2514456128487143e-02
      6.7052220006154933e-02 -8.8454131742848413e-02
      -1.2233022162839076e-01 9.4903016901279821e-02
      -4.6977047316884527e-02 -1.1285638593507655e-01
      1.5260472929873931e-01 1.7329003607456692e-02
      -1.0249467185926556e-01 5.1099324587247225e-02
      3.9366075362689101e-02 1.4289565296285606e-01
      -4.4313972521719668e-02 7.2342190560647848e-02
      1.4538013893733703e-01 -3.9864518831054060e-02
      -1.8842228204311878e-01 -1.9711209956702469e-01
      7.5090605234165358e-02 1.0771682957051215e-01
      -5.6870640775946453e-02 8.0016723640326498e-02
      -6.5881192201445005e-02 -1.0773561826221845e-01
      5.6352234287088659e-02 1.0979756700057258e-01
      1.1231243436627608e-01 6.2364846847356048e-02
      1.6804845826600495e-01 -6.7197392116051011e-02
      9.6495751297680440e-02 1.5816744040544323e-01
      3.5688478897010112e-01 4.7541983217307265e-02
      -3.5806853493429741e-02 -6.9190027913645091e-02
      3.1540504618402264e-02 1.7014258799049561e-01
      1.1471935819483210e-01 8.3510928455646130e-02
      -1.9384335520975121e-01 -1.7968661043056576e-02
      1.3883349062275899e-01 -1.0367071597173298e-01
      1.2421612604949439e-01 1.9611023278217932e-01
      7.3378453867008432e-03 -1.3961410811537933e-01
      3.1042714823100916e-02 -2.6845245358216435e-01
      2.4766092917645549e-01 -1.4845895941178483e-01
      6.0273265500182110e-02 -2.9120743892282475e-01
      -9.5844080585362035e-02 -2.2853181940606843e-01
      -1.6988259067606912e-01 1.1238236338008664e-01
      -1.5062702186942128e-01 -4.7703303998023402e-02
      6.4816142397303197e-02 1.7624075945756351e-01
      1.5721467307079601e-01 -7.5258381995725765e-02
      -9.5750145057230986e-03 -2.3377526746328953e-02
      -9.8791415751175921e-02 -2.3075925171075800e-02
      2.2931384569024571e-01 1.7625498900953532e-01
      -1.0699949674330955e-01 -4.0372188601911614e-02
      -2.0040151153119103e-02 -9.1762535681337812e-02
      -1.3875162938333727e-01 1.4342803284117905e-01
      -9.7186181672121286e-02 3.7001172736236862e-02
      -4.0730631541853017e-02 -8.9702622534532431e-04
      -2.9263819532364321e-01 2.9761765440340093e-01
      -2.6535691261246230e-02 -2.0827940572687870e-01
      -1.2755075493700763e-01 5.5829495761544856e-01
      -1.0457578090117309e-01 -1.5860573602591305e-01
      -9.8345489361054930e-02 -2.8977351608297619e-02
      -1.3044265024687546e-01 8.2189730460636462e-02
      -2.8259098541972325e-02 1.1375071565292487e-02
      1.9507850568815210e-01 -1.1905924400500763e-02
      -3.5085660377491661e-02 -5.4847385083769858e-02
      -7.0839772263059875e-02 -1.9571272334639156e-01
      2.7299855762661246e-01 -6.7672551340784481e-02
      6.7058765554356442e-02 5.4069018260683756e-02
      -4.0404839480938032e-03 5.5208074676647123e-02
      4.9046490062531131e-02 1.0353250936509913e-01
      -4.5363856735146695e-02 1.5462627455562736e-01
      8.6101341282735333e-02 -5.9260953990014797e-02
      2.0409106908625343e-01 3.4523299924439194e-01
      -1.2317335621843853e-01 -1.4937081324158208e-01
      7.0587316136605738e-02 1.2384289268216347e-01
      1.1595186389729734e-01 5.7685734233414970e-02
      3.2310552162764417e-01 3.9993479407892437e-03
      1.1057725515885797e-01 6.9069669260279187e-02
      -8.4019427975014715e-02 3.0558976697397261e-01
      -1.4725419997456365e-01 -4.7104280262468219e-02
      -4.8982076983891537e-02 3.8137267672399855e-01
      -1.7528344041322981e-02 -2.8282599088680374e-02
      -4.4435797792777329e-02 6.1911686567666629e-02
      -1.6185821128399494e-01 -2.4619989215513539e-02
      -4.0397480966222234e-02 -2.7184022163910521e-01
      -5.0530934332037605e-02 2.7742976390600421e-01
      1.3824579594257000e-01 -1.4210836066438454e-01
      2.8615958568625612e-02 6.1743543288943638e-02
      8.7465680403095977e-02 -2.9907772733301485e-01
      -2.4433546243675820e-03 -3.3724655989334534e-01
      3.2045766777206119e-01 2.8041614151987963e-02
      5.1944523789248728e-03 -3.3637752860777947e-01
      -9.2911462870121225e-03 -1.3452572670836629e-01
      -1.6228993057146597e-02 3.3908991700584687e-02
      1.4699291420012731e-01 2.7931679985651009e-01
      -2.8530405844988427e-01 1.1609019393874400e-02
      6.2998219107395281e-02 1.1208294564897539e-01
      -7.2489901573973600e-02 -2.5514229648419318e-02
      1.7504688580122205e-01 -1.6535651905090199e-02
      -3.7328975820479266e-03 1.6997676066795728e-01
      -2.4030069630469986e-01 2.4533432601275107e-01
      9.0245948967570128e-03 8.0196610941473803e-02
      -5.2880429776021462e-02 3.4074290821208653e-01
      -6.3503055754902629e-02 6.5759983425438456e-02
      -1.6173892180826960e-01 5.2989885791758429e-01
      -3.3908436419959131e-01 1.6430689941313428e-01
      -4.6965763791642849e-02 1.3167474733597323e-01
      3.2140972631004733e-01 2.3009091121221045e-01
      -3.3097127601072619e-02 9.7620901326402354e-01
      2.0635003605410943e-01 -6.4697604396846731e-01
      1.6892888410631551e-02 2.5425938700624134e-01
      -1.7487022564775426e-01 -1.4541729764694128e-01
      1.1705803913335630e-01 1.5838670295883098e-01
      -4.7052544261206214e-01 3.0728484134764095e-01
      6.6222950432737723e-02 2.3653437923042575e-01
      2.1200285421864812e-01 -1.6125898499628116e-01
      -1.7222784101295126e-03 2.5929870308881475e-01
      -2.5204686151193825e-02 -1.1291154903980581e-01
      -2.0350133878532645e-01 4.2114017312034369e-01
      -4.4404747321842264e-01 3.9173727817472290e-02
      -2.1351506638431030e-02 -2.1561212695253254e-01
      4.6604770028926365e-02 -7.5215213184753757e-02
      1.2555471373781577e-01 4.9202350827634256e-01
      5.2206042777859854e-02 1.1554010545187129e-01
      1.9583957646469638e-01 -2.9284827483006142e-03
      -9.5530090658707045e-02 -2.1801187968674221e-01
      -2.5226443600934813e-02 -2.2996110467081443e-02
      1.6786198032049099e-01 -1.5279190916408079e-02
      -4.0897773225206902e-01 -5.6231609702567999e-02
      -2.3101122945544122e-01 2.0406053914426528e-01
      7.4801324197920155e-02 -2.6077916961496778e-01
      -2.5222273254483622e-02 -1.4107247294765157e-01
      9.1642162476214650e-02 9.3168811923809075e-02
      -3.6818493554884715e-02 1.7014076627848650e-03
      -2.5310348135110902e-02 9.7279598626559008e-02
      3.9796043008997112e-02 -4.2366310841676164e-02
      6.5132501838774448e-02 -7.4951448570271362e-02
      -2.5541768515393926e-01 5.0235896775103955e-02
      1.9533270901878674e-02 -6.6486154553073197e-03
      -5.4434652966963350e-02 2.7088482489073185e-01
      -7.7028225811220610e-02 -1.0857588452441573e-01
      1.8007882692643890e-02 1.2384349694348397e-01
      -3.4982837881019004e-02 -6.0722065963574912e-01
      -1.5378761677791142e-01 -1.6643739856383910e-01
      6.1984774796607835e-02 -2.4854905745487438e-01
      -3.0440316078039653e-01 -3.0931810866682188e-02
      4.5706842080098870e-02 5.7289351900257530e-02
      1.5837518443966847e-01 -1.3158323996655374e-01
      -3.6218197990359330e-02 -1.3295597619877858e-01
      7.6361415514918804e-02 7.7732271116521978e-02
      6.5921741749115623e-02 1.2315073648442125e-01
      1.0534900148328843e-01 2.7532174433768073e-02
      -2.9380282338194608e-01 -3.7857252439358682e-02
      7.6709094257146823e-02 -1.6522738820469804e-01
      -6.1179497683067907e-02 -2.4044114707514688e-01
      -9.1837915828017480e-02 -1.0310009946852169e-01
      3.4307925906643284e-02 5.4252829334896245e-02
      2.4067486520346272e-02 -1.0062804050357191e-01
      2.1259899364580453e-01 -6.9068531962432275e-02
      3.0822934881842304e-02 -3.2993850864940708e-02
      1.6803609878393039e-01 -1.3984380673979274e-01
      1.4812346304324159e-01 5.2197147879631894e-02
      5.3003062449123277e-03 7.8386671676212827e-02
      -6.9962276851757238e-02 -3.3191536682203177e-02
      -1.4367236411280665e-01 -1.2962894938727654e-01
      -1.7199391908696601e-01 5.3106653426762712e-02
      8.9822241764253130e-02 7.0735789259488674e-02
      1.4703008606574577e-01 -1.2045656371516850e-01
      -2.1640961295556316e-02 -1.8362965546918386e-01
      2.4419582645982404e-01 2.1731555654545318e-01
      -7.9013898242939230e-03 7.5570262593049581e-02
      -1.5790218993545133e-02 -4.7764380418462676e-01
      4.4933378688317593e-02 1.5644393829313141e-01
      5.5258109991374836e-02 -4.3922579083904195e-01
      8.4254814963230534e-02 1.2952918533400334e-01
      2.2800095343378367e-02 -1.9547292118034198e-02
      -2.4194727924373324e-02 7.0713455714887935e-02
      -4.5677073161869766e-02 3.1512888220148638e-01
      1.8121268524126533e-01 -2.1398705872450166e-01
      3.3785442918938507e-02 -3.0182839875865355e-02
      -1.8477719032331724e-02 -7.8640735595258374e-02
      -2.2108677950873254e-01 2.3177238832818731e-01
      -1.0993970817742277e-01 1.3716825417170916e-01
      -1.2170078964642254e-01 -2.8353241977484458e-03
      -8.9506040868703424e-02 -1.8324380003846677e-01
      4.3926757826444042e-02 -6.3856878939452424e-02
      -1.0105940086299328e-01 -9.3721117755337952e-02
      -3.3269515825191831e-01 4.6903747125465682e-02
      -1.2858165130603791e-01 -8.6002180658216437e-02
      4.3640231618503167e-02 -2.1417906700204322e-02
      -1.3091083232039486e-02 1.7971524216363662e-02
      1.5155423351301636e-01 2.7301809691533752e-01
      -5.9300676371938879e-02 6.4110843209625817e-02
      -1.2004635528192258e-01 -2.8436900271215376e-01
      -2.2436763411763375e-02 -6.4490231532481956e-02
      4.5786887776388310e-03 1.4905472413190768e-01
      -1.2446355222646630e-01 6.1614092251324984e-02
      1.6100067666498774e-01 -7.6610238074557191e-02
      -2.6767780031778501e-02 4.2834897162507893e-02
      -1.0440702736593757e-01 1.1513766464974349e-02
      -4.0228999692105832e-02 8.4445356268549321e-03
      -1.4303655421268391e-01 8.8031875138128768e-02
      1.0843676130568396e-02 2.9368183332097154e-02
      2.5628139973126673e-01 -2.2372514137179911e-01
      1.9136577176096270e-01 2.0931586195317507e-02
      4.5849436404324130e-02 1.6146072159923314e-01
      -6.6221907050410117e-02 8.0243000459246136e-02
      -2.1750544432501417e-01 -2.3140123384630056e-02
      -7.9845415101952200e-02 3.6631973529263701e-02
      1.6289485137804771e-01 -2.1318360809121098e-02
      -9.4435664602788211e-02 -2.2932085593334867e-01
      -9.6896048953434177e-02 -2.1204084081265812e-01
      2.1430679179713494e-01 1.2602235888686109e-01
      1.6421513649438191e-01 4.8847471122106612e-01
      -4.1696200486854823e-02 4.5017989664491262e-02
      9.1279511607884646e-03 -5.6159000046619570e-02
      -1.3200189223725332e+00 4.2179956262461647e-02
      6.0645719469093765e-02 -8.2820885297525837e-01
      1.1122848750924509e-01 -1.1186939232801946e-01
      1.4110565001656727e-01 3.9676499641933916e-01
      5.0077943869044317e-01 -3.9783096875972696e-01
      -8.6330107797768854e-02 -2.2461822268933673e-01
      -3.1569970824782062e-01 -1.5556240075904296e-01
      -4.3533860804805313e-01 3.5044029717186953e-02
      -5.6572396181278399e-02 -2.4738230233071842e-01
      1.1490263187002241e-01 1.0496155642266627e-01
      4.5680035296009308e-02 -1.8288324295484376e-01
      -5.2561668431890107e-01 -9.4846235206009599e-02
      -3.8120050624250013e-01 -2.7456326010159282e-01
      -5.2585618142425983e-01 3.2360854325134233e-02
      1.4853762538699633e-01 8.0273178005224788e-01
      5.2575893099095872e-01 2.3321593105800377e-02
      -5.7865084715154634e-02 1.6669210055467937e-01
      1.3756052857174764e-01 2.2743040689185806e-01
      -3.2554016791419334e-03 1.2831154613922102e-01
      2.1412116646286744e-01 -5.4862310707446127e-02
      2.4710184550828224e-01 2.2936744143971094e-01
      1.2843194523889503e-01 -3.7311242153216667e-01
      -3.3071388253551118e-02 -2.4319153684149364e-01
      -2.3978349892800921e-01 1.6808316819537661e-01
      -7.0982836142587130e-02 5.7162760423898040e-01
      -5.3189631571357698e-01 1.2383603545480037e-01
      -5.2875307460211955e-02 -1.3305286439111694e-01
      7.1891387711509824e-02 2.6179724059038584e-01
      1.2271080350192618e-02 1.2875818867110461e-01
      1.8766454645399035e-02 -1.0795482415234653e-01
      -2.0799405689973674e-01 -2.3228573977381803e-01
      -1.6033292320329973e-01 -2.3455158952282083e-02
      -9.4878747743466163e-01 -1.4536895649438897e-01
      1.9594421616833502e-02 1.1097668682759092e-01
      -3.2294005591115316e-01 2.0833299235377198e-01
      3.4858474853858490e-01 4.5252240766936264e-01
      -2.2259599113701525e-01 3.0267622894344515e-01
      1.8082661315231330e-01 -2.3025723261841885e-01
      3.0963887906115293e-02 1.5191821822741711e-01
      -5.9275500094255495e-01 2.3104473833941869e-01
      -1.0044916892031676e-01 1.5842461779711275e-01
      2.3285545155513163e-01 -2.9370770745033442e-01
      5.4199480495165275e-01 1.4035694951649436e-01
      1.0445848030195706e-01 5.2661407954504025e-02
      -8.7534011056633110e-02 -1.3547044835912785e-02
      1.0051169962167733e-01 1.9648745995044742e-01
      -5.2742524267790281e-01 6.2678409569055252e-02
      -5.4731987093371481e-01 -1.1997861993775144e-01
      -6.1061934495651830e-02 6.0794067721548425e-02
      -2.5192867687452519e-01 9.0502966924649084e-02
      -1.0003411999388372e-01 2.2251426101970569e-02
      3.5579156054706115e-02 4.6964718054471971e-02
      -1.1933927867642764e-01 -4.7187400556429782e-02
      5.7096939376194485e-02 1.2209085462237512e+00
      -1.8758698131554713e-01 -1.7510815754430170e-01
      -1.3051887710544108e-01 -1.1523716278602718e-01
      3.1580601631986821e-01 1.8518610397035140e-01
      3.3004591918058979e-01 1.8103016879757135e-02
      2.4027306212451874e-02 -1.8358627212588671e-02
      2.4404267804557983e-02 2.7339516498809467e-02
      -1.7719749350123604e-01 -4.8376724434370723e-02
      -9.1985617519498575e-02 3.3894288515107074e-01
      7.7340491351731197e-02 2.0409981970373327e-02
      1.7443802029154151e-01 -1.5549618247606556e-01
      2.4802679254737971e-02 -3.4913191036114893e-01
      -7.1842319917060291e-02 8.6937017265944216e-03
      8.1110230202467489e-03 6.0306538459740888e-01
      6.3929335664232318e-04 -5.9043561250941679e-02
      5.2214321726782364e-02 -1.1929695929558259e-01
      9.0007023754711438e-02 1.9563048467037825e-03
      3.6473032853140791e-01 -2.0183699316457662e-01
      -2.4599173273888697e-01 1.7033175114377511e-01
      -1.6605228637739522e-01 6.9825317320537775e-02
      3.7863385488851577e-02 -1.6656151159342086e-01
      -8.9182046579212221e-02 -1.2100066819608975e-01
      6.2410547406115575e-03 -4.2061471117565849e-02
      1.3090524601383308e-01 -4.9077712424500958e-02
      -8.6184910679475438e-02 -4.0180317749488097e-02
      -1.2632850550041688e-01 1.5866033079907943e-01
      -4.7099952259107639e-02 7.7569846721454797e-02
      -2.9909286443582254e-02 9.2235874055117240e-02
      -8.4309095616760130e-02 -1.3875289900487708e-02
      3.1223719328474309e-01 -6.0565096508067029e-01
      -1.4371675217035831e-01 -2.2991812172017156e-01
      1.7436304444280998e-01 7.0627912240394464e-01
      -2.5436008375865550e-02 -2.7174293791809490e-01
      1.0027995030053477e-01 -3.0192357387027552e-02
      -2.0046911984853485e-01 2.0930023538453238e-01
      -2.3396202931444576e-01 -2.9824637753305579e-03
      -6.3911754795216436e-01 -5.0402504510005428e-02
      3.5788688842271638e-01 2.3811642711081736e-02
      -2.0783365388353275e-01 -1.4453506675760122e-01
      1.4963590277094352e-01 1.2035558265752247e-02
      -2.6070640224884223e-01 -1.9743268459283306e-01
      1.6428736693638443e-01 -1.5570697181422097e-01
      8.1085474897231169e-03 -3.6587897955992327e-01
      -1.6116449630829077e-01 1.0897075579081341e+00
      -8.4841825164389970e-02 -4.2201633764807001e-01
      -1.5552304661483735e-01 4.3111989857328503e-01
      2.3126772704734030e-01 -2.3393767611912232e-02
      -1.3994821474493244e-02 -4.7572664269818841e-02
      4.8910850198906959e-02 7.1976984322933812e-02
      3.4996115298906873e-02 6.9283837879004301e-02
      1.9565720959223448e-01 3.2320909813306065e-01
      -8.8264592394034919e-02 -1.5521962970791545e-01
      1.3500474681256733e-01 -1.1348505250085446e-01
      1.5803429322956558e-01 5.4478693426640734e-01
      -2.5763412807068453e-02 -1.6412269520544168e-01
      4.8592920606686754e-02 5.7035594675430359e-02
      -8.3694487494218872e-02 1.2048063523959476e-01
      4.0900936133178585e-02 1.0059117503864243e-01
      1.8222873170522735e-01 -7.8644542430124711e-04
      -2.4432318732867400e-01 1.3660504238342672e+00
      -2.2102928614282993e-01 -9.6528785981066678e-02
      6.2109643088951928e-02 1.0630088172412247e-01
      5.3623933687487679e-01 1.6216637236703829e-01
      -2.1374252063542459e-02 -8.0112577497582060e-03
      6.2191310323187449e-02 3.6741652555709031e-01
      1.1048435787759582e-01 -1.6908822503382656e-01
      5.5845283778317129e-02 -9.1163813395955057e-02
      -2.2857886412794642e-01 1.6585893642455898e-01
      5.8418224597288244e-02 -1.8767595188642255e-01
      -1.2859926160739971e-01 -8.5315696727190457e-02
      1.2206936873609722e-01 1.5976141611862496e-01
      -2.3170185464991645e-02 -9.8364149069238460e-02
      3.7079079336886492e-02 -3.8757308200432428e-01
      4.2212196624173866e-03 -3.8059690804699814e-01
      3.5555786294293255e-02 1.5137549999035341e-01
      -1.4241353822151401e-01 2.1179392100198233e-01
      1.1965692919654197e-01 2.0356816573018727e-01
      -2.9443703147124489e-01 -2.9419236582759023e-02
      -1.1278056944489204e-01 -4.2871301313810867e-02
      -4.8088542880982854e-01 -2.6545905294567462e-01
      3.2318243674156109e-02 -1.4413289279938643e-01
      -2.2788896153289023e-01 3.2990309357187225e-01
      9.1568290646492079e-02 7.6216578145585273e-02
      7.4612109524636969e-02 -1.9149694050619037e-01
      1.3152624611666254e-02 4.8883537486956626e-02
      3.3728114231311911e-02 -1.6585540397115489e-01
      -2.2462060183058651e-02 -3.1030437173409453e-01
      -2.6698926782826471e-01 -1.6293091079339772e-01
      5.3624882520096229e-02 1.9302253740989254e-02
      3.2820420563329455e-02 1.1033486895762720e-01
      1.1230933073038993e-01 -2.2548313887601756e-02
      6.9514357789253634e-02 -2.1425774403608636e-01
      4.6901937082714751e-01 2.1531856279634795e-01
      -2.0463812723745176e-01 -2.6480994746500297e-01
      -6.8507785080617456e-01 -2.4425812019321763e-01
      1.2157318534915899e-01 -1.4473675208208797e-01
      -5.2628096511313831e-02 6.5777404595246530e-02
      2.2763171868235604e-02 -1.1536594930939670e-01
      -1.5379226573144095e-01 -5.9508654679652620e-02
      2.0419804931916355e-01 4.8780397699295430e-01
      5.5441222903191467e-01 -1.6318749063688964e-01
      1.4595833293613681e-02 3.0819138934173962e-01
      -3.9343104731924476e-02 3.2201913963192563e-01
      4.3726991793986369e-02 1.5617241563486865e-02
      -4.4354158890073270e-02 -1.9904162813571552e-01
      -1.5074085431860013e-01 -2.4193724618426418e-01
      -2.8219912932901509e-01 1.4612832662350123e-01
      -8.0280376652424670e-02 -3.9797506903209279e-01
      -5.7227409826504629e-02 -4.1281917810593753e-02
      2.5257560948186203e-01 -2.5675527770198135e-02
      1.9419738742168280e-01 4.3531792971544858e-01
      -1.5307721234096291e-01 -1.7468332643682971e-01
      1.5799661278598764e-01 -2.7743791480083757e-01
      7.3774608550700560e-02 -3.1342134417759215e-01
      -3.3916619619467636e-01 3.0217188030159647e-01
      2.6677116642675758e-01 2.7437012362951790e-03
      1.1447243139121770e-01 2.9791152175127361e-01
      2.7849439069426568e-01 8.4120896547911789e-03
      7.1887259857425001e-02 -1.7898989481780991e-01
      6.0676176491366911e-02 6.4493771608867489e-02
      2.1835236276300882e-01 -1.4997118368569333e-02
      -2.2624656544420457e-01 -4.6706107206437197e-01
      -4.1957638405689346e-01 -2.9637925156449706e-02
      1.0732211635125496e-01 -4.9428079503466638e-01
      2.0028188437836209e-01 3.6590787814541298e-01
      -1.1393327392084745e-02 7.4024147080435171e-02
      -8.3615793910098754e-02 -1.1926790622127623e-01
      6.5188313905050824e-02 1.0302001484651227e-01
      2.5652680576806735e-02 2.6286944922221403e-02
      -1.6639540749203663e-01 7.6878185841455104e-01
      -1.7778499358956901e-01 1.7616582767556671e-01
      4.7022815954357278e-01 1.5204920581249396e-02
      3.9639635047570498e-01 1.0526398901899225e-01
      4.1641005002799318e-02 -1.2970845827782270e-02
      -3.2196931740803028e-02 2.3389862386058835e-02
      -1.1463533512884175e-01 6.4169280352835215e-02
      1.6393644537022761e-01 1.8174752981896047e-01
      4.5783227184696872e-02 2.1021150906074543e-01
      3.4451029967097258e-02 7.6372352657947645e-02
      3.1315292628233569e-03 -2.4307245515980773e-04
      3.2049347593762922e-01 -1.8448539606696299e-01
      -4.3278770608957864e-02 1.9494284758715269e-01
      2.7128583669760042e-01 3.2216914407265995e-01
      1.3746304865809489e-01 -1.6875721909502978e-01
      9.6189477740858162e-02 -3.1182028192898961e-02
      4.9953356454833411e-02 -1.5772832189895125e-01
      2.3054501645018474e-02 3.7149536660469218e-02
      -4.7604549315338543e-02 -4.0163394462394163e-02
      1.7394362461754292e-01 2.2732674977666623e-02
      8.3135186037941844e-02 -1.2325854356269500e-01
      1.7454422611712200e-01 3.6257638472443865e-01
      2.5456828268574444e-01 1.8287328272011685e-01
      -7.9019931296647777e-02 1.5835945248926633e-01
      -1.2150848311494808e-02 5.3581469178994412e-01
      2.3646065089533891e-01 3.1934963145619855e-01
      -4.7750135944843286e-02 1.6122049600713290e-01
      1.9638186893727615e-02 -8.8151101602515269e-02
      1.6334924613170021e-01 8.8467574544238217e-02
      5.4895521802593404e-02 -2.4804634408083595e-01
      1.7136202938576023e-01 -3.9920641903704368e-02
      -7.3067130170184402e-02 -6.4297691713463903e-03
      -1.4846484368415513e-01 1.2619380259187629e-01
      -1.2123138403712537e-01 -7.6419972445607998e-02
      -7.0366640632907013e-02 3.3370970733310557e-01
      -9.6017326295962435e-02 3.8590581400877330e-02
      2.3951968781725414e-02 -4.3483433162747143e-01
      1.4410687653520166e-01 -4.7405418072457184e-01
      1.3738470547435896e-01 4.1221920695598724e-01
      8.9565062691247310e-02 2.5825791307128043e-01
      -1.9648950325138942e-02 3.3861855271980790e-01
      -4.6178107771362442e-02 -4.1104294276744374e-01
      1.1146919561822548e-01 -8.8770448422609449e-02
      3.8025929121435001e-02 7.8900283408192717e-02
      -1.7650740481485357e-02 1.1558938693202687e-02
      -2.2416663464434794e-01 1.5221341370478680e-01
      -1.0948567765598934e-01 -2.0377072740431976e-01
      1.8988885462991525e-01 2.9504347611932413e-01
      1.9397027099841091e-02 -1.3062349679463087e-01
      -2.5784501069529409e-01 3.1327801154737195e-01
      -2.8425798644362066e-01 8.6979547704106638e-02
      2.3378947010478119e-02 -8.7191551014548799e-02
      -1.6877907748236012e-02 -5.1092189109229058e-01
      3.0441546340975961e-01 2.0796602961667002e-01
      3.3258469931653101e-02 -1.0657770837346253e-01
      3.8117799572436240e-01 3.6105604676133649e-02
      -3.2632810194305545e-01 8.0290428584811779e-02
      1.0475334517197349e-01 1.0920071349668624e-01
      -2.3055865627207811e-01 5.2469252175722833e-02
      -3.8520056465565805e-02 -2.8832375552813240e-02
      -2.8398384936670318e-01 -2.0952191500275247e-01
      6.2019092866183699e-03 -2.9290604386239927e-01
      -8.7235065986063731e-02 -5.4187236483550956e-02
      2.9285099395256897e-01 -1.5732735996262820e-01
      1.0175343643026387e-01 -1.0328730944682644e-01
      -4.5016424595538895e-01 -4.6396910346982806e-01
      -1.8957258720900363e-01 1.0694819942922874e-01
      -2.7516768508370243e-01 -1.5297071562872081e-02
      -1.1281983998717056e-02 2.2852117932615337e-01
      4.3713593342769197e-02 1.4830920035041129e-01
      -3.2766835101460290e-01 -2.9039872668286906e-02
      -2.7692714673534113e-01 -2.6822711495162369e-02
      3.6887973317721512e-01 1.5866904407151469e-01
      1.1799197844200518e-01 -2.9245582504615381e-01
      3.9032467316543223e-01 -1.8704773958172459e-02
      1.7790973709693625e-02 -1.2874004077660131e-01
      6.1299832433816946e-02 -2.4748524262978147e-02
      -4.5870276056312442e-01 4.8291086667557478e-02
      1.0615718399618047e-01 -1.0292183776855170e-01
      1.2543360937903780e-01 -6.6691948411551957e-03
      -9.1525818636992634e-02 -4.1147722486239012e-02
      1.2090515520203150e-01 1.3816452363860124e-01
      6.4509286240172339e-02 -9.5708365014934155e-03
      2.5653131201044361e-02 -7.4007740159410285e-01
      -6.9260438283758663e-02 6.4132354518170365e-01
      -1.0607201866949575e-01 2.1253252572136804e-03
      -8.8581879195301361e-02 -1.2650774747234766e-01
      4.3512603475497363e-01 -1.1960402465575976e-01
      2.5153439803226330e-01 8.2763680872135689e-03
      2.2961906621044514e-01 -5.4533744101169390e-01
      2.5340360306813614e-01 -2.1221017578752020e-02
      4.0445420911574242e-02 -3.1258164561427965e-02
      5.7304490331883768e-03 -1.4549310430680523e-01
      -3.7683976817556059e-01 -2.8397325461722869e-02
      4.0560176493306390e-03 -3.7321648611580582e-01
      3.3684624164157057e-01 1.8600134988373435e-01
      2.0407089924547900e-01 -2.8390424544891307e-02
      1.3466102843665709e-01 -1.1675271779693874e-01
      -5.5537922482717154e-02 -2.6395201131966993e-02
      1.0457776517703224e-01 2.6667185958999529e-01
      -2.0975385775104635e-01 -2.7496481305286574e-01
      -3.6469950587731759e-01 3.1746054718854486e-02
      -4.7176194844276292e-01 -2.9453145478426557e-01
      4.7295593694487592e-01 -5.7808923833503401e-01
      -3.5319657434551432e-01 -1.4999348702909207e-01
      1.4796503643724523e-01 1.2067780487496078e-01
      2.1926975366527535e-01 4.2565528938414234e-02
      -1.4783567580840593e-01 9.6567001138017902e-02
      2.0199727038144807e-02 -2.0793401211934096e-01
      3.6523968469476614e-02 -8.8544786193417768e-02
      -7.7408344542154561e-02 -3.9460675910154737e-03
      -1.3498621359262836e-01 -4.5661068570531743e-01
      -1.3695399275902403e-01 1.0026133738471851e-01
      -1.0901181285454709e-01 -2.9321383729268502e-01
      -2.1731625802163915e-01 4.0870996659522457e-01
      -2.7606533603040090e-01 -1.7941819210473492e-01
      1.2097530863227682e-01 2.5819819550195071e-02
      -5.2780121484412379e-01 -1.0863199758070702e-01
      1.9537777354346053e-01 7.3119429921739665e-01
      -1.1452593223929797e-01 -8.5110776685402345e-02
      1.8054899981090508e-01 -4.6233691301261745e-02
      2.2210003266770240e-01 1.7908809881128328e-02
      2.7222300991341497e-01 2.3953445689128225e-01
      5.2310327105892701e-02 -5.6198666401976305e-01
      7.4977697470532487e-03 3.3880366623868263e-01
      -8.0416271645922882e-02 -8.3346633580733097e-03
      1.5222532845584585e-02 8.0611723824620896e-01
      2.2508216896446093e-01 -7.8357731293235422e-02
      -2.9028871455239941e-01 9.2945987732024477e-02
      -4.9871119999673100e-02 1.1548491428047146e-01
      6.9553848963607390e-02 -2.8404827642778813e-01
      1.4351819388539172e-01 -4.9768468896499947e-02
      -2.0991630776006270e-01 4.6651316872261386e-02
      2.0027878461676918e-01 -3.0872828214489046e-02
      -2.2018938225131148e-02 4.2073073322794460e-02
      2.2552874617373611e-02 3.9824638098018877e-01
      1.2062320641097080e-01 -2.2091184267942302e-01
      4.8454210529150230e-03 -9.9494948831492819e-02
      2.2632199362814492e-01 -1.0107058349154466e-01
      -3.9205413186103773e-02 2.8258549059031485e-02
      4.5683424627381142e-01 -1.1078759977077655e-02
      -5.9483489035563636e-02 -2.5629004377361775e-01
      -1.0892799729184476e-01 -1.0362313152648206e-01
      8.8393231219395935e-03 1.4857538263809095e-01
      -1.9410080553461870e-01 2.9395580959299505e-01
      -1.0287425524469304e-02 -5.9769587028803806e-02
      3.2009964667189188e-02 1.4246297807939570e-01
      -4.7751623365841371e-02 8.7977713095133983e-02
      -1.2256691591687197e-01 2.4837824372283918e-01
      1.1340365143601403e-02 1.9448817477458524e-01
      -1.1226014719629993e-01 -8.4414951446792452e-02
      5.3600988133061953e-02 6.5506152256918776e-02
      1.2608920094349868e-01 -2.0698139191177561e-02
      -8.3074518611832751e-02 5.7418297935033530e-02
      -1.7526526767089486e-03 2.2138559585376319e-01
      -2.7658003537686676e-01 -8.1132432388367814e-02
      -2.7387453789123167e-01 2.3449425060595719e-01
      4.5794192744881812e-01 1.8890579870191501e-01
      -2.9188414832669102e-01 2.2533283307091606e-01
      -1.4590816932231812e-01 -2.1491101082012579e-01
      1.1633368504390354e-02 -2.2251457837289802e-02
      -6.6683050928053128e-02 -3.4983076498538274e-01
      2.0215523956543264e-02 -8.0992409006322347e-02
      -6.4137204692119965e-01 3.5419714418697824e-02
      -1.8875540034502848e-02 2.7225403361529060e-01
      2.6347861277361345e-01 3.7515095127174458e-01
      -3.6568617221012734e-01 -3.4033634577862487e-01
      1.2906106777898832e-01 -3.9968834448401880e-02
      -6.7897550559526079e-02 3.8085248865955457e-01
      9.9551190527702824e-02 2.2276929439243506e-01
      -5.3228443469596654e-02 1.0141480500742153e-01
      -4.5299137320898653e-01 6.2043625571216530e-02
      4.0465892333080428e-01 5.3121825925267563e-01
      2.8206703110959238e-02 8.7212699401606253e-02
      7.4206346454447958e-02 1.4735829608855989e-02
      -2.1505027389251971e-01 -1.1926392987995829e-01
      -1.0023220198632669e-01 1.7778385228237253e-01
      -1.3772534453506285e-01 -6.8816476601840565e-02
      -4.0355071468400211e-01 3.1505141412135722e-02
      -2.5698746016821994e-01 2.9759457085113294e-01
      7.1860044618564128e-02 -1.0019309343860330e-01
      -6.4278990810491043e-02 -2.0820310804324629e-01
      1.0190398479334745e-02 9.2076219189222458e-02
      -3.7724418619679692e-02 -1.4976785178296557e-02
      3.7506890537995712e-02 -1.0500018504787233e-01
      -7.6106369233825688e-02 -1.0802265662664695e-01
      1.1377265107892895e-01 6.9159743697515624e-02
      2.2238637125465385e-01 -4.1700614707105156e-02
      -2.9021444961024190e-01 1.5609189878993558e-02
      -3.8845209791640835e-02 2.9662956271005025e-01
      -1.1401095890994270e-01 3.9141576511393950e-01
      -1.1502816148268144e-01 -1.7545393418079716e-01
      -5.2191299192595186e-02 -2.6867128994972561e-01
      -4.2909936641612578e-02 1.4864473231961828e-01
      8.2928595765067257e-03 -3.0868893362555333e-01
      -2.1257543682393670e-01 -1.3053868440803215e-01
      3.6608544250534714e-03 -8.1621488363528588e-02
      -1.8989804274662504e-02 7.9598311944566388e-02
      -1.0452664623253348e-01 -5.1033763847291858e-02
      -1.0343655126042764e-01 -6.4322801050012895e-02
      1.0934473596026508e+00 -2.3422658350525127e-01
      2.6707838707649093e-02 -6.9938595116355184e-01
      -1.6604673078536533e-01 2.0139001617998770e-01
      1.6835327256104424e-01 -1.9834349294244963e-02
      -6.9707336793028762e-01 2.3139716339437611e-02
      -4.9435970195300952e-02 -3.4244759722387039e-02
      -1.3059074741124374e-01 -5.1033945083888876e-01
      1.9982310073180798e-02 1.2471032642717812e-01
      -2.1743593014765655e-01 4.7384434017285709e-01
      3.1455529844413306e-02 -1.1046782684144323e-01
      9.0237295873251896e-03 -8.1965166472162954e-03
      1.7404811103370449e-01 -1.3935845329049312e-01
      -4.9376260868777500e-01 2.8718776885275382e-01
      -9.5327104899192466e-02 -2.0708543591881617e-01
      -3.4919750797524785e-01 -4.9362371588323226e-02
      -4.1351745308858559e-02 -4.2017957128544098e-01
      2.1703432775231513e-01 1.2641252680036424e-01
      7.3023313041970059e-02 -3.8303512276268664e-01
      4.0805729672336483e-01 9.5878507912432978e-02
      -2.2412730309173032e-01 3.0898237324330585e-01
      -2.0853390720224785e-01 3.8834393538181751e-02
      1.0377424411951791e-01 6.3948757947171375e-01
      1.5065914326134511e-01 1.9961932783394268e-02
      1.1632425228957199e-01 2.3370051235266701e-02
      6.8697353262417105e-02 -1.2335701619267518e-01
      -1.0132636072182441e-01 -1.5769055749268668e-01
      2.8325526817427626e-01 6.7956027845829436e-02
      -7.7247884879125928e-02 -2.0661342324789594e-01
      -1.6372229178541262e-01 -5.6254272768070809e-02
      -1.2171954034485119e-01 3.6228613808930982e-01
      -2.9220195376022629e-01 -4.1031553620333970e-02
      1.9500710813132663e-01 -1.3846108836810483e-01
      1.1932691152223662e-01 -2.6934330379299670e-01
      -2.3829521455431119e-01 1.0610525664241402e-02
      -5.7918794144774494e-02 -3.9481937614422780e-01
      -5.9613727860945531e-01 1.6800417993089206e-01
      2.3368393270490193e-01 -1.3289530532973781e+00
      -2.3781353805514524e-01 4.3358667601012275e-03
      2.1723671980121692e-02 8.4772562302501242e-02
      -1.3072975052864017e-01 -2.9229530818768978e-01
      -6.1193313636491498e-02 7.3321750765730026e-02
      5.2124320888840239e-02 -2.4630799095191930e-01
      3.1399466903151534e-02 1.5057936101061092e-01
      1.4408727884325323e-01 -7.9418951564415002e-02
      -5.0243229788276800e-01 -7.8395037992825906e-02
      3.8308164880186055e-02 -8.4155644907786453e-01
      1.5311849734966912e-01 5.7239264785904098e-01
      -4.2694187858514338e-02 -1.3353568486907641e-01
      1.1915428194258501e-01 -1.2427535721071732e-01
      -7.0493021430786590e-02 5.1680624818921217e-01
      2.9806586159533327e-01 -3.6964396689325330e-01
      4.8826715350042169e-02 -5.7553235338684047e-02
      8.7033472855046978e-02 4.1019646039520868e-01
      -2.1617593564608593e-02 -5.6676855756102960e-03
      -8.7222962091229095e-02 1.9808051747772076e-01
      1.0822732621829392e-01 2.1266752578814627e-01
      1.8355754348732931e-01 2.3028815755285623e-02
      -2.8778149538325366e-02 1.7015737464325609e-02
      -7.5531947527598037e-02 1.1384948896914264e-01
      3.2608463747838892e-03 -2.6229403088236969e-01
      -3.8707710636415404e-01 2.2406336798401716e-01
      6.0331136012756703e-01 -2.4853040898064210e-01
      -2.1754737135486171e-02 1.0774610617236342e-02
      7.9440810442228130e-02 4.5785299384560985e-01
      -1.2350231452309508e-01 5.1714810025048352e-04
      -7.5116607571154501e-02 1.0503279727250230e-01
      -4.8400823613596955e-01 1.4197898323393923e-01
      6.7759430582197189e-02 -1.7236729934043937e-01
      4.6925257793915709e-01 -1.8824908110993177e-01
      -3.0166863196583842e-02 4.1401421149203482e-01
      4.5283315182859724e-01 -1.1482947289874999e-01
      -2.6740093442504474e-02 -6.5023927053350111e-02
      -7.5852334674119282e-02 -4.6922724858057641e-01
      -4.5345488973900477e-01 1.8995908706041378e-01
      -1.2284183990347269e-01 4.2695787647238095e-02
      4.7233431283241095e-01 4.5161034191591909e-01
      3.8497723806184381e-01 -2.6695390559838433e-01
      -5.9484905960902268e-01 8.5233904309072447e-02
      -8.3190237715804360e-02 -1.8121332648245841e-01
      -5.1756693240863649e-01 6.6588237277955653e-02
      1.9290978466928971e-01 2.3472447612844577e-01
      1.5649803669480897e-01 -2.6412793190155780e-02
      -1.5116434758632574e-01 -8.6429406638755854e-02
      1.9572837712094920e-01 3.8921384263703296e-01
      1.4425050198260153e-01 -1.0277195933699711e-02
      4.2025230132899813e-02 2.2671514138288909e-01
      -1.1554108079077312e-01 2.3914773827431346e-01
      2.1689230178613370e-01 -3.2841692935106920e-01
      -1.1544744817983378e-01 -2.1058656836187600e-01
      -6.0746162750392951e-01 7.8372207691009832e-02
      -5.4837410038964751e-02 4.1857049862343021e-01
      -1.3648447037185596e-01 1.1999085632869946e-01
      -4.6441241642094615e-02 -8.7284460776270115e-03
      1.7323258362037450e-01 -1.3167045625920237e-01
      2.3521514621657183e-01 5.4331153504173967e-02
      -6.0377520469223275e-02 -9.7700405090445475e-02
      -1.8710053172937061e-01 -3.3571766092640065e-01
      -1.0042074963527935e-01 1.2952610614084667e-01
      -8.9432010261622497e-01 -1.3683843931352874e-01
      7.7555351824401958e-02 1.3844207962473853e-02
      -2.9191607804610320e-01 2.0147765609337562e-01
      2.2333917990223198e-01 9.7076560823335344e-03
      -1.6616077045235639e-01 -4.2605630898566671e-02
      1.4216670116610572e-01 -1.7292937553238030e-01
      2.6407502977991187e-02 -1.4128590018037510e-01
      -3.4332958456380552e-01 3.1318728903731308e-01
      -1.2318220839968896e-01 1.3011096749672885e-01
      2.7785780676027499e-01 -5.2952702242440830e-01
      6.5321870624245304e-01 -8.6694667038646187e-02
      5.8754924818944720e-01 1.5932576256387951e-01
      -1.6112264323403841e-01 -4.4182713531511658e-01
      2.2774844467913197e-01 2.5104364633993392e-01
      -3.8260671628996906e-01 -4.9341945586260580e-02
      -5.1988692579873286e-01 -4.8857747001034221e-02
      -4.7213109791231958e-02 8.9618787616755324e-01
      -9.9083413365188250e-02 5.6300813061355558e-02
      2.9709099630661429e-02 -3.7504604928698157e-02
      1.3716375822988871e-02 9.8935178783716993e-02
      -8.1897598988876802e-02 -3.3877971229873416e-01
      -5.1470874966135594e-01 2.0593534088459782e+00
      -1.1067327815543687e-01 -1.1353090521217886e-01
      -1.0336241233812722e-02 -1.5566699330593778e-01
      2.7968560041163015e-01 4.8857316825626257e-01
      1.3683068679587501e-01 5.2866435282017642e-02
      2.1932396240033919e-01 -4.2612920602575086e-02
      -7.6776090069470296e-02 -2.8311560284689818e-01
      -1.2482794279874523e-01 5.8773609494309605e-02
      -8.0598910234151749e-02 4.2326012121148671e-01
      -1.6083950348264608e-01 2.6609124729205319e-01
      2.0212895732273914e-01 -9.2149804197949492e-02
      5.3699687797395546e-01 -9.8453253861035012e-02
      -5.1721143994143258e-02 -4.6029592775406393e-02
      1.5379582003288977e-01 3.8280177931506032e-01
      4.0077614832046732e-01 -3.5255730162279494e-02
      1.2511413886369241e-01 -1.5797244296815530e-01
      3.0252712177435837e-01 3.4212865789603780e-02
      3.5933367293626417e-01 -2.8949876350734899e-01
      -2.0226234338393745e-01 8.5988807417269705e-02
      -3.1768525427342920e-01 4.1771292118761030e-02
      3.3310916359531340e-01 1.2970082504994546e-01
      3.7161404815595829e-02 -1.5226679245028057e-01
      2.7369243293755136e-01 3.5965082689396854e-01
      5.6129059213979704e-02 6.1677764833180403e-02
      4.3635282072729098e-02 5.1380921117757584e-02
      -9.6640540938708094e-02 2.5661559695720099e-01
      -2.6923366097092510e-01 -4.2516544963295946e-02
      -1.9647116068010961e-01 1.7339916288222521e-01
      7.1324744762112681e-03 7.8248784565353335e-02
      3.8244683691039377e-01 -1.8762529084006156e-02
      -1.0337057726788823e-01 -2.2184549694456823e-01
      2.5641726095963213e-01 3.0722153607083691e-02
      9.7852731223871364e-02 -1.2659362913892636e-01
      -5.2880113285278238e-02 -4.1171094026343363e-02
      -1.0493662099231889e-01 2.8391304524396460e-01
      -1.3449487571932447e-01 -1.2387259555664024e-01
      -1.4174391881659421e-01 1.7464815422488361e-01
      3.8324529738480079e-01 -1.0927807058678346e-01
      1.1275695009807418e-01 -4.2666496654141084e-01
      2.0590713288813720e-01 3.1459924602008787e-01
      -9.3227694450976686e-02 1.1869183186613855e-02
      2.5193482504967968e-01 -9.8292916593836155e-02
      -3.4409365428344010e-04 -2.9115044355598357e-01
      -2.5319110736649216e-02 2.6046360021157766e-01
      1.7524010246656860e-01 -4.7579369145063127e-01
      -1.5369064070140936e-01 3.0399246118718692e-01
      -1.1053805052044888e-01 -1.4305403128138067e-01
      -2.0160413693184102e-02 -3.5746476350210049e-01
      3.7898984754828408e-01 2.6254438349419562e-01
      8.9662213157175708e-02 -5.7550148033076190e-02
      7.4014452064493599e-02 5.0829726843346183e-03
      -2.3239910352729909e-01 -4.4344817810133663e-01
      -1.0683017425778185e-01 -3.6837715655563280e-01
      1.3573732007585418e-01 4.8677100089471272e-02
      1.1461023842732528e-01 1.9513085278383571e-01
      -2.2854698148571093e-01 -1.8319359300950572e-01
      -8.7075940482062075e-02 1.8510983784878532e-01
      -1.1890673686454507e-01 1.2142774332193844e-01
      -2.1050154695180772e-02 -3.9938007185818802e-01
      -1.5688754718243725e-01 4.4430171379673711e-01
      -1.7928816907176989e-01 3.5131726926944717e-02
      -2.0487395818529583e-02 -3.0436717842728372e-01
      1.7372727364279480e-01 1.1358560754998982e-01
      -4.1332419418907479e-01 -1.7669859274230335e-01
      1.0121850103236074e-02 1.7577369279990751e-01
      4.7404917452283486e-02 -4.4659129361035327e-01
      1.9218228283229272e-01 -6.5450255519027722e-01
      -2.9681551271758583e-01 1.4619935218864519e-01
      -5.4914716006535991e-01 2.2106124211997608e-01
      4.8470890578455511e-01 -1.0135873923118159e-01
      -1.6825455776774714e-01 3.6191247232192372e-02
      5.7350855357553195e-03 1.7808443083165604e-01
      1.0136274813629198e-01 -4.4815003330736275e-01
      -1.5673338997687936e-01 1.2228033642848540e-01
      -6.0409770189511852e-02 2.5371152428815691e-01
      -6.3063694817684549e-02 6.9659438899646597e-01
      6.8723326947401544e-03 -6.0254259640325623e-02
      1.6419958557839068e-01 -1.7903438490930856e-01
      2.0821411349897033e-02 5.2800455744450880e-01
      -3.4649617469743588e-01 -2.2927846928571044e-01
      9.6489031148797338e-02 -1.3828065259177494e-01
      5.1493913602324831e-02 2.6661719727062672e-01
      1.3502400690513339e-01 -4.8310371680721796e-02
      -6.8941760760194121e-02 -9.4510290515649062e-02
      1.3255210967366773e-03 2.6823870536057159e-01
      3.9290384864649108e-01 -2.7186722945403879e-01
      -9.8162913394080994e-02 -3.5392674294794746e-01
      -7.3398677125476305e-02 2.6658276187351591e-02
      6.7491920998344168e-02 2.8390746149198309e-01
      6.2893681273629987e-03 2.0555504260780172e-01
      7.0444866517278659e-02 1.1858563914171713e-01
      -5.1831858579349210e-01 -7.4745449577666351e-02
      2.0581764515987191e-01 1.5051210531018608e-01
      -1.3710135925346473e-01 -2.1369758461304572e-01
      -4.0291682858071332e-02 3.3184846867529566e-05
      1.3995444327756337e-02 1.2561616817929153e-02
      5.3870828321547007e-02 -9.3798195036949028e-02
      -5.4460315293934691e-01 -3.2554761056892423e-01
      -1.1017917006858972e-01 -1.3290543553768669e-01
      -2.5461581179247361e-03 4.8311222160910705e-01
      2.5222013379202535e-01 -1.5733411566414873e-01
      8.2480081417633980e-02 7.3098633350982489e-01
      4.1973315030645816e-02 7.8663766074243924e-01
      4.0471818881959734e-02 2.7695029956190814e-01
      -5.7045684903052681e-02 -1.3780502612345452e-01
      -9.6240420247500708e-02 -9.7818347310697135e-02
      -1.6875440966562263e-01 3.3313014525724627e-01
      -3.5019305016489388e-01 -8.7432729455429972e-02
      9.9675547931896508e-02 -3.9490411673357893e-02
      2.6819004360553900e-01 2.2916673753331562e-01
      7.0823699024938805e-02 8.0705220707531145e-01
      -2.5570257674545493e-01 -2.2725839709824200e-01
      -1.4242499192380004e-01 -1.2188629182702687e-01
      2.0051441595914546e-01 -6.9419847333167728e-01
      -3.3989551827672787e-01 3.1331673935574256e-01
      1.6585554271978181e-01 4.8913603573199134e-02
      -1.3717518327679187e-01 3.3779014179683682e-03
      7.2384033406211945e-01 1.8179993299057290e-01
      -2.9074960878546177e-02 -1.1489794348495124e-02
      -2.1830881686342732e-01 -2.7010408824930765e-01
      2.2637673622081175e-01 -2.4837396069946832e-01
      -5.3111881439563295e-02 -8.2353972081858950e-01
      -5.4366852297379503e-02 2.8856556112896192e-01
      -1.0687852396881858e-01 -4.8115653235678769e-02
      -1.4099382828890761e-01 -3.5041574771681822e-02
      -5.3962616780383088e-01 -1.8310260140462189e-02
      -3.2095133990013297e-01 1.8865879863483337e-01
      -2.7885236723732200e-02 -2.7781762726900416e-01
      -1.4929458420557932e-02 4.1838214107712501e-01
      -5.5058793722168320e-02 3.3333188964972527e-01
      -1.5599653679387229e-02 -2.5467087074150935e-01
      1.8978038446759501e-01 -1.9216348645372278e-02
      3.0994485249563591e-01 7.8260135328271030e-02
      -1.6920791052329659e-02 9.2218440827867718e-02
      1.7942237182029155e-02 2.4816107753069283e-01
      -2.7826279914004121e-01 3.3161265707268919e-03
      -9.6258184925120852e-02 1.7795089855064397e-01
      -4.7460968765049676e-02 2.1764104369077643e-02
      1.5450725397299839e-01 -1.6510384816222565e-01
      -3.4322252510739934e-02 -1.1907269811875404e-01
      2.6454053621208529e-01 -2.4153253980241174e-01
      -2.4354607534569583e-02 2.8377111715075193e-01
      -1.3765593321080341e-01 -8.1559675561363829e-02
      1.2283794042512752e+00 -1.6667665336105908e-01
      -1.3505212367810099e-01 -2.7279690881877139e-01
      8.2894920633185598e-02 -5.5998194072543132e-02
      -5.5226581568118627e-01 -1.4826322647477727e-01
      4.0948613933364730e-01 -1.2716071573142823e-01
      2.7750550571673105e-01 -4.2369153150069205e-01
      4.0732180645501992e-02 -2.0965231054277977e-01
      -1.4853413720314496e-01 -2.0437934525886101e-01
      4.3399651433131231e-01 -6.2346771291331357e-02
      -1.6285256547779947e-01 -7.4552783731576436e-02
      9.6335771035127971e-02 2.1851925675470275e-02
      3.8222483435268179e-01 -1.0687956081475232e-01
      4.3102328130457718e-01 1.5834231814794986e-01
      -9.6991541561445779e-02 -8.4580192164275175e-02
      3.8091993685226810e-01 1.6051611311209787e-01
      1.8065685115889346e-01 -3.4037769096951404e-01
      1.1336275412279556e-01 -2.0068029536664744e-01
      -4.1021506448308626e-02 2.6939323759486677e-01
      3.8779104903249463e-02 1.4091085550956492e-01
      -6.1587289645276475e-02 1.2748305649277233e-01
      -4.9036545816563797e-02 -1.3278302290447744e-02
      1.6383305837548176e-01 1.2620998366045003e-01
      -4.1603261048932846e-02 -5.3532525430714673e-01
      -5.1278936129626562e-01 1.4047780288299364e-01
      1.5720040232407864e-01 1.4068740703633453e-01
      -2.2133597797808419e-01 5.1406562748033857e-01
      1.0255019591292687e-01 -8.8415116843349753e-02
      7.5997922879798077e-02 2.2936726600492563e-02
      2.4269441059450647e-01 -3.1253848795171052e-01
      -1.7370841014018240e-01 -2.4208266268434149e-02
      -5.2703643893550679e-02 -2.4665651574969563e-01
      2.3204923001961991e-01 2.0399507800237612e-01
      -2.1306569093061725e-01 -7.1773312915915211e-01
      -1.0438887112792257e-01 -3.9850585831395202e-01
      -1.5309225500009893e-01 -2.8559724375343676e-01
      2.9219587067866135e-02 3.9832200233653275e-01
      -1.7794644574886223e-01 9.8016892697013802e-02
      1.4077205047710936e-01 7.5783895094672080e-02
      -6.1590937828030257e-01 -3.4034019624628220e-01
      3.0196644422530339e-01 2.8252331878562625e-01
      8.5995843471069838e-02 7.0154898797495549e-02
      1.6319582992847737e-01 1.1454442609922487e-01
      -3.3059451627262038e-01 -2.0627620154773307e-01
      -3.5487772073285967e-01 1.0480556011930099e-01
      -3.4445327601081444e-01 1.8762884110339781e-01
      1.1358113387655261e-01 -4.4322730213043782e-01
      1.3653953622231610e-01 1.2458967266879437e-02
      1.8466759160367757e-01 2.7977720076809723e-02
      -2.2503167013109185e-01 4.6462687612199342e-02
      2.4103555309352565e-01 -2.8065383994440712e-01
      -6.8646757987985058e-02 -3.7626999600289635e-01
      -4.3298606731431621e-01 -3.1487830385149358e-02
      -4.6434795362471037e-01 1.7720265011209022e-02
      4.2143977108470759e-02 -3.7673814101160757e-01
      -4.0547274431932373e-01 -6.8527914531176459e-02
      -2.9593757644833332e+00 -4.8509942710462939e-01
      7.4586998130497173e-01 1.6666575834245865e+00
      1.2676100764462321e+00 -2.4520636508170157e+00
      -1.3243522107210492e+00 1.4820135834805652e+00
      -1.2486377364176222e+00 6.4525447330097596e-01
      -4.6040866235856448e-01 -1.5951051657222198e-01
      -1.4777905377193783e+00 6.5072897076826308e-01
      1.1411141977422294e+00 -5.4939861427727232e-01
      1.8570697736459445e+00 -1.4739029854083856e+00
      -5.9824478655497282e-01 1.4073877313251912e+00
      -4.7208121979577911e-01 1.0774840811999924e+00
      -5.5423485038363869e-02 -1.3476283862851355e+00
      9.2331601043184430e-01 8.9146196104086239e-01
      -1.8358554879185702e+00 1.6800488597983225e+00
      -1.8325086668903956e+00 9.8211461984577053e-01
      1.3334675785703385e+00 -1.6037578429464674e+00
      1.2381275012046540e+00 7.7232089846907681e-01
      3.3723650264600669e+00 9.7875643755357666e-01
      1.5030353854711717e-01 3.7628978020077275e-01
      -3.6266625162977357e+00 -1.5007444984903498e-01
      -1.5498052289581381e+00 1.5679690783439744e+00
      -1.6509305238253533e+00 1.1441193039229245e+00
      7.9022569579555557e-02 -1.4058228854445880e+00
      1.4790466464728667e+00 9.8138825797346807e-01
      6.5430867117832481e-01 1.0383298562623421e-01
      -5.1297833313915697e-01 -2.1429571006830375e+00
      1.3975205310816567e+00 7.2004485759149794e-01
      -1.6819564604337300e+00 4.3741220814276238e-01
      1.5777541604407533e-01 1.2410911345558249e+00
      -8.1046576311338203e-01 5.5446200612895913e-01
      1.4215820273309039e+00 4.2470457884576401e-01
      1.3972151225238336e-01 -3.3822964922298066e-01
      1.0999897599999999e+00 -1.6180313458554432e+00
      1.4271151532357158e+00 1.4246885527425204e+00
      3.0428961677015365e-01 1.7389031316517336e+00
      7.8559946310615147e-01 5.5361779635998543e-01
      4.5031053944117011e-01 -2.3763374529870434e+00
      -5.5600811141367867e-01 -7.5306228907328410e-02
      1.7497245053762567e+00 5.6817964566474799e-01
      -1.4232886809365905e-01 2.2255295455694450e+00
      -1.1770572961675436e+00 1.5075037643987250e+00
      2.8695810523207771e-01 -7.6698322230630694e-02
      1.1989416627640659e+00 1.7371253381106548e+00
      8.9293919043286185e-01 -1.5880342544501473e+00
      -3.4435274499588825e-01 -8.2200148712602950e-02
      -3.6904316972564855e-02 -1.9256100916415084e+00
      1.5314237636501868e+00 1.0530348993260896e-01
      6.5082465062713624e-01 4.5270719949419238e+00
      -7.8280028839467630e-01 1.3989646924674701e+00
      -1.2160449175578865e+00 -1.1663181580278983e+00
      -1.5707743999664342e-01 -1.5963809704338745e+00
      -4.3540536800581381e-01 2.7150757617723762e-02
      1.4286652235978783e+00 -3.5352379526278508e+00
      -1.4705687066313406e+00 1.4217240969624667e+00
      1.3854986698353627e-01 6.9841479713396759e-01
      -2.1550341021305419e+00 -2.5361649815144727e+00
      -1.3461599394257309e+00 2.8683673878096028e+00
      -1.0658171607298739e+00 -1.5315686008826470e+00
      -1.1249222523950198e+00 8.0018433792213428e-01
      1.2166480466290697e-01 1.6143177768737242e-02
      2.4121706257061657e+00 -1.4166584822825583e+00
      6.2188954362383142e-01 9.4797020698922962e-01
      5.5583095314952180e-01 1.4474621409197879e+00
      2.4825595802084668e+00 -5.4871448772484133e-01</_>
    <_>
      1.3194983313073591e-01 -4.3344945103925014e-01
      4.5500537690599047e-01 -5.7747223221055466e-02
      8.2849036800098663e-01 5.1498716111986538e-02
      -4.5815232374534005e-02 2.6318478408427926e-01
      -4.1169243767635144e-01 -1.2575512238730949e-01
      6.0246319320808006e-01 1.2061180082930606e-01
      -1.4924475353419522e-01 4.5114616489928247e-02
      -6.1701347932902417e-01 -6.3096647689039642e-01
      -1.5217910303766664e-02 -4.5765423351358203e-01
      -5.5383236178717721e-01 7.5591650477199412e-01
      -1.4578233861423240e-01 -2.2652914687838571e-01
      -6.1104397575853497e-01 -1.2548753287975314e+00
      1.1841377108223211e-01 6.3514682116592980e-01
      -5.6800508461030808e-01 -9.5923849076886525e-01
      -2.6994340246556653e-01 -9.0173718332973318e-01
      -1.6181536607280935e+00 -3.4263900725810781e-01
      -6.0764452443732231e-01 4.5851940206517705e-01
      -5.3049895079548837e-01 8.8229714388852432e-01
      8.8684604371517273e-01 1.1675258750530986e+00
      -2.0372732840860955e-01 1.5364563452037263e-02
      -6.4981315664536066e-01 -4.5871687193396843e-01
      7.2144297704469063e-02 8.9825818240885480e-02
      1.7022121998795707e+00 5.3631253552961045e-01
      9.8897831912861744e-01 -1.3488593083058559e-01
      5.3761770438155698e-01 6.4179921838312048e-01
      -9.3700063664111632e-01 -1.1407732906048198e+00
      5.3305423556950515e-01 -9.9187589215783445e-01
      -1.1183001645813690e+00 -5.9528136623360084e-01
      1.0501859229600758e+00 5.8990311699790843e-01
      8.1042784685108560e-01 -1.2221000148011547e-02
      2.8114078074198157e-01 -3.2160941005637672e-01
      8.0203263571606909e-01 -9.4339883433688909e-01
      9.4488486945567041e-01 -1.0336870710370802e+00
      4.8315222502352051e-01 -9.5127302940282843e-01
      7.3244446499361993e-01 3.0706497246081271e-01
      -8.1189800049631059e-03 7.2232601090710641e-02
      6.3442991573000457e-02 1.0135953933022970e-01
      1.0364103513452141e+00 -7.8223315060118470e-01
      4.4294738140055906e-01 -2.2522547323663489e-01
      -7.4550842846963472e-01 1.6817395271111968e-01
      1.1498392527985461e-01 4.4349846704301860e-01
      -8.2092482215337215e-02 -4.8238322186693933e-01
      1.9917247165462892e-01 4.9638252882988998e-01
      -1.2405971332791284e-01 1.4237704150578467e+00
      2.3811808659431899e-01 -3.7358320017481317e-01
      1.6308163438749501e-01 1.4295104665819192e-01
      -1.1030815949149502e+00 -6.5561920528879103e-01
      -4.0197723099606586e-01 -1.3586082201626737e-01
      -3.7725228286559315e-01 5.1115539056944337e-01
      -2.0275174646850883e-01 -3.2181079079670089e-01
      -7.1024719744676945e-01 -5.7181016045540412e-01
      -4.7564774201028226e-01 1.0967636009180974e+00
      4.0202785192078533e-01 6.2952982163108184e-01
      5.5629261017366427e-01 -6.5162832326658693e-01
      2.2470101732731032e-01 3.2905339276600198e-01
      -4.7332242873150165e-01 6.8186440493412992e-01
      -2.8499012961434833e-01 -1.1230651567284804e+00
      -9.6161273905800448e-01 -1.5062884066827307e+00
      -3.3643553014355398e-02 -1.0059275874378935e+00
      -8.4388749133758589e-01 -2.9390240697442660e-01
      3.8491079316729865e-01 1.6191774560219272e+00
      4.5804825902251928e-01 -2.5173623000553685e-01
      -2.3996378376470540e-01 3.3450061612537448e-02
      5.1776184509202416e-01 7.2865669816314971e-01
      -1.0980614299736697e-02 1.1923605214440912e-01
      2.2751863353810592e-01 -7.1576208092149696e-01
      -4.6610419264087205e-01 -2.2772103325211634e-01
      6.4772788777821355e-01 4.1249790091631566e-01
      -8.7733341148795263e-01 -7.2534885053767106e-01
      -4.5970236651908220e-01 4.4002000421770765e-01
      4.2135237160932121e-02 6.0020466779664483e-01
      -2.2501810636792569e-01 -5.2667759849447904e-01
      6.3593826326389247e-01 9.1405779096305839e-01
      4.6378448741555983e-01 9.8485647383700317e-02
      -2.9063881575192091e-01 -2.0619054722864066e-01
      -5.6901520530406058e-01 -3.7011388236702514e-01
      1.7196567322711837e-01 6.0807176599806712e-01
      -2.6160144674544680e-02 9.7277820532721027e-01
      -1.1921305736924311e-01 -1.4201852162821518e-01
      1.3861288001758945e-01 -7.1535176058582528e-01
      1.5020754417051077e-01 -6.4904936053533779e-01
      8.0753394962360781e-02 1.0248079402392421e-01
      3.4126045959894979e-01 3.8583631574790683e-01
      1.4439881595335455e+00 6.6836187481665443e-01
      -5.4020785343708921e-01 9.7763267797987052e-02
      -4.0610019651791673e-01 -9.6868854124039150e-01
      -7.8356831554336537e-02 8.7045576519523360e-01
      5.4588047633213932e-01 -9.9184231096937592e-01
      -6.2202354963135242e-01 -7.3496858093171774e-03
      -6.8706515140152691e-02 2.2388899816740976e-01
      4.0479230277400252e-01 -6.4795459187575155e-01
      7.7325091987185929e-02 1.0442916141019243e+00
      6.0262634340837881e-02 8.3576470813882697e-01
      -1.1393086723092746e-01 4.6485361508445688e-01
      5.3238927742924658e-01 -9.8726223419901227e-02
      -4.1774087840481894e-01 -1.6890998856501827e-01
      1.2591959599858513e-01 1.2149114685900871e-01
      -1.9512204500060598e-01 5.1394145542610814e-01
      1.1909423490787785e+00 4.9924994125395328e-01
      1.2967072386738638e+00 6.8073563304499474e-01
      -2.2023083383056083e-01 -1.7250324025746461e-01
      1.4463589023029248e-02 -5.1339216274780319e-01
      -8.4202355034910981e-01 -4.2408642081650780e-02
      -4.5832272095158144e-01 -6.1485809636709254e-01
      4.9244831437816866e-01 -3.1898976480329677e-01
      -4.5719049640039777e-01 6.3176500481713371e-01
      -3.4993127010344343e+00 -1.2101406644517279e-01
      -7.0592410756544843e-01 4.7856699554532041e-02
      -8.6720257499384690e-01 -4.9545647202161563e-01
      1.9685950172566344e-01 9.4154875097231749e-01
      1.0240089912599505e-01 1.5631006271582021e-01
      5.3223308597890329e-01 8.4094361451375677e-01
      -8.9945950741096925e-01 -2.7781337563140657e-01
      9.7719040771444154e-01 -8.9327519593923610e-01
      1.5933841362903629e+00 -8.6203574716854925e-01
      2.2858878748256439e-01 8.6098796348663825e-02
      -5.5067770966504304e-01 3.7323390994930616e-01
      6.5742417891502447e-01 -5.7779968623385425e-01
      -6.1622285335788252e-01 5.7342362061635743e-01
      5.4909482196426850e-02 2.3049457313587145e-02
      -8.0114679434694980e-01 2.0252418194080440e-01
      -9.1281924180229990e-01 -4.5803198520963073e-01
      1.6310908418088510e-01 -1.5834676055595520e-01
      4.8122256114078377e-01 -3.8460724205006669e-01
      -1.9412150530497096e-01 1.7854808274640571e-01
      -6.1035393343599498e-01 4.9238887873467307e-01
      -3.4077610014202292e-01 -4.7290192362628630e-01
      3.3251401789972257e-01 -7.9768759148826240e-01
      3.2079743563741858e-01 -2.4843764288433251e-01
      4.6901347729211912e-01 -7.3876594940501172e-01
      8.8361640453607571e-01 -4.5895559263098412e-01
      1.4249201136735368e-01 -3.3069732635289434e-01
      6.1190974594151251e-02 -1.0883221472059430e+00
      4.3083748835784796e-01 5.6556151244987074e-01
      1.4432496394747985e+00 7.2536197251661583e-01
      -2.3822147760128860e-03 1.6612001782865404e-01
      5.1915711629042083e-01 -3.2326288627768851e-01
      6.9410899836937701e-01 1.7982059809088782e-01
      -7.1255764007298647e-02 -1.6118654324885612e-01
      5.7448126481352883e-02 -5.5969171391813388e-01
      7.2561490330612410e-01 6.6102959619641688e-02
      3.3385140481020747e-01 1.1291313079047449e+00
      1.7318622018272928e-01 6.2415983279041698e-01
      1.1099764292677866e-01 -3.9904481437372741e-01
      -2.9053170449411031e-01 -1.8784788161386765e+00
      -1.6596617468336722e-01 -2.4179355848500417e-01
      -1.7715245352331230e-01 -8.8186912137121543e-01
      2.4977140416540050e-01 7.8267740404292074e-01
      2.9068901788326695e-01 6.3030790467810183e-01
      9.8112521025654231e-01 1.2416306231591653e-01
      8.2505618162262628e-01 6.1595546912430066e-01
      -8.9774071534597522e-01 2.9362138407153537e-01
      -2.5347214161655346e-01 -1.4901208654432421e-01
      -1.2912211123577728e+00 -3.0893852676402495e-01
      -7.2598807627068940e-01 1.1764334030103245e+00
      -6.8074093843808403e-01 5.1609705881750634e-01
      -4.5102798581311432e-01 9.2428782678562926e-01
      1.4406546468628123e-01 -5.6990083340699027e-01
      7.1614021478405444e-03 -3.6598571666488633e-01
      -2.6242945053950495e-01 8.3348359576099706e-01
      1.4526455359851265e-01 -5.6647593931792484e-01
      1.0325157625740407e+00 -1.1653975418232645e-01
      -6.8195004314750651e-01 -4.8401057064907871e-01
      6.7418011299927949e-01 -6.9410288846420609e-01
      -7.2664527285483882e-01 -1.6635593321803918e-01
      1.9356419121628898e-01 -2.5622873152722431e-01
      -4.8696733710428142e-01 -4.4360310095243283e-01
      1.0629307654684861e+00 5.1858545720379318e-02
      -2.4426207676373002e-01 3.2260201705991254e-02
      6.4910391666992273e-01 -3.9073673945166371e-01
      -1.1178091327572111e+00 8.3323539521925172e-01
      -3.2086814958189602e-01 -4.3102721358586171e-01
      -1.5253360093704812e-01 -1.9665684372042302e-01
      -7.8652915532209766e-01 5.1111044638862502e-01
      7.1712428161237474e-01 -1.1942361978760863e+00
      5.8463783911338074e-01 8.2613381658696983e-01
      7.8871055521176103e-01 -4.3875702362339292e-01
      8.4020056135332566e-01 2.2225348244515782e-02
      -1.2159312922460839e+00 3.6361224931553815e-01
      4.6921129288329960e-01 3.6017372367565947e-01
      3.7554933370688909e-01 5.0740660471084087e-01
      1.5599145399695891e-01 -6.2983892229252392e-01
      -8.6660941658796925e-02 -2.1754839366898179e-01
      -6.8750180587854015e-01 5.2376819659579044e-01
      6.2283869704975636e-01 -2.8167707301574840e-01
      -5.0567175325562674e-01 -5.1348883984036742e-01
      -3.6768623838232267e-01 -4.7691924717215051e-01
      8.8647334614936693e-02 -3.9992880269291586e-01
      -2.0720439315808192e-01 -9.0265842200500351e-02
      5.7843596674132669e-01 7.6212954894321516e-01
      4.1185214733394798e-01 -2.3960218927513022e-01
      7.7535808918826810e-01 5.2817362619811914e-01
      6.5386918014105222e-01 -3.5546376945715530e-01
      9.5415576899375254e-01 -3.3620107636932184e-01
      -3.5853406806363008e-01 -4.2316976615283003e-01
      -1.0316145999388415e-01 3.1736364688200319e-01
      -5.1720941977979884e-01 -1.0395478358315419e-02
      -9.1886056426248963e-01 9.0310277665902594e-01
      2.8843498087454227e-02 -6.3716375877731968e-01
      4.5680277637681371e-01 8.3503041124287594e-02
      -5.1679197044857483e-01 3.3222980379233435e-01
      -8.7799944894615678e-01 -9.0194843096107402e-01
      -1.0764696646412144e+00 -2.1561736800344167e-01
      4.8829055907398161e-01 -8.5425664481881269e-01
      -5.1897457124221402e-01 6.3527357468067891e-01
      3.4223657434127436e-01 5.5574664718511158e-01
      -2.2831764987886416e-01 -1.0225094840576501e-01
      -1.1351942096947798e-01 -8.7580705998859276e-01
      3.8678368288067583e-01 7.4961887517409542e-01
      1.6500067894706272e-01 -1.0407940940864489e+00
      -5.6659105668120213e-01 -3.6861214989801711e-01
      -7.9651595020016952e-01 7.9163019275390864e-02
      -1.0015927255131150e+00 3.8338220616051000e-01
      3.6350254931904391e-01 5.9771557875413128e-01
      -7.9885889799874077e-01 3.9331093629196812e-01
      -6.0823621414271833e-03 -6.2530769893204019e-01
      1.7195265868209109e-01 3.4455788274512933e-01
      7.5244914463365864e-01 1.2238905397332533e+00
      -9.7495589106851566e-01 -3.2486692917207649e-01
      -6.2004431285000494e-01 -4.0393056524823939e-01
      8.0660396487744890e-01 -7.8923689853679124e-01
      6.8599789386516141e-01 -9.4219346932294212e-01
      -1.6207271702951995e-01 7.6373494979649981e-01
      7.1563397576035970e-01 -2.7053354207395619e-01
      -1.3606374272169247e-01 -7.6269946806297928e-01
      1.5484444559007127e-01 -8.7831108849557704e-01
      -4.1188408326767983e-01 4.6806028583997961e-01
      -7.6094854516244104e-01 -3.5329152637963013e-01
      8.9214645148786098e-01 9.7143951090650382e-02
      -2.7385294611467291e-02 4.0679334069344419e-01
      1.0025640204827384e+00 -4.2651286629843027e-01
      1.7548191271617046e-02 -2.0004689556295682e-02
