<?xml version="1.0"?>
<opencv_storage>
<my_nn type_id="opencv-ml-ann-mlp">
  <layer_sizes type_id="opencv-matrix">
    <rows>1</rows>
    <cols>3</cols>
    <dt>i</dt>
    <data>
      144 128 7</data></layer_sizes>
  <activation_function>SIGMOID_SYM</activation_function>
  <f_param1>1.</f_param1>
  <f_param2>1.</f_param2>
  <min_val>-9.4999999999999996e-01</min_val>
  <max_val>9.4999999999999996e-01</max_val>
  <min_val1>-9.7999999999999998e-01</min_val1>
  <max_val1>9.7999999999999998e-01</max_val1>
  <training_params>
    <train_method>RPROP</train_method>
    <dw0>1.0000000000000001e-01</dw0>
    <dw_plus>1.2000000000000000e+00</dw_plus>
    <dw_minus>5.0000000000000000e-01</dw_minus>
    <dw_min>1.1920928955078125e-07</dw_min>
    <dw_max>50.</dw_max>
    <term_criteria><epsilon>9.9999997764825821e-03</epsilon>
      <iterations>1000</iterations></term_criteria></training_params>
  <input_scale>
    1.2548768751243641e+01 -1.1975904174482336e+01
    8.4176319030545503e+00 -7.3620070940537508e+00
    6.4892847943438232e+00 -4.8680285610595160e+00
    6.9103049446330616e+00 -3.6955081790043338e+00
    7.5193128700250957e+00 -3.4999072417266937e+00
    1.0083757878558920e+01 -3.1068707141955012e+00
    1.1230635653680608e+01 -3.9511926544162099e+00
    9.4542146190614353e+00 -3.9050413996328190e+00
    8.1970827644425217e+00 -4.7880544438556063e+00
    8.4209185796354475e+00 -4.4513066180195970e+00
    9.4885481973610606e+00 -5.3135325325186882e+00
    1.0064249114127964e+01 -5.0289258931814951e+00
    1.0316095327698383e+01 -5.0228181561954113e+00
    1.1762087051456131e+01 -4.1534587962113987e+00
    1.1074005501539727e+01 -4.9325970789179650e+00
    1.0525679774484320e+01 -6.0643581979852961e+00
    1.5854738128597072e+01 -2.4198131469495943e+00
    1.9138784462092882e+01 -2.7245106194349020e+00
    1.8543089674804072e+01 -3.8866550274892044e+00
    1.3069633469463955e+01 -3.1079567781339108e+00
    1.3268497404437925e+01 -3.3154325421388635e+00
    2.0069145762913642e+01 -3.4697863329366223e+00
    1.8633789714522088e+01 -3.0937107447574568e+00
    1.8580721727861203e+01 -2.5724601714005328e+00
    1.8424937331483907e+01 -2.8152774324302534e+00
    2.7109098440556703e+01 -3.7077200370197541e+00
    3.9439236342490815e+01 -7.5998096562417583e+00
    3.1393741218245829e+01 -7.4437196078315475e+00
    3.0201675092448028e+01 -7.7654494343323108e+00
    4.0785808032411751e+01 -6.9539235941879438e+00
    3.3063612780017117e+01 -5.1645434052261816e+00
    2.3032859241890176e+01 -3.0697281711523878e+00
    2.7695920981463487e+01 -4.3182662453587870e+00
    3.8959557292888512e+01 -4.1817179645707361e+00
    3.6125346896765706e+01 -4.7913628112255990e+00
    2.8533234446539137e+01 -4.6203538630112639e+00
    2.5511325701103576e+01 -5.4724196453785021e+00
    2.7325037063086331e+01 -7.0549645377044357e+00
    1.6892266267005020e+01 -6.4665757713223426e+00
    1.7601813510924607e+01 -5.8734945068902684e+00
    3.1319512818625689e+01 -6.9342307177505020e+00
    4.2464403308862856e+01 -5.6266918739935869e+00
    4.2228298220859216e+01 -6.1215273214241996e+00
    3.6835175038355388e+01 -5.7866195550908763e+00
    3.1957357820555753e+01 -6.3859067194434855e+00
    3.1329467430049760e+01 -5.6128239418299364e+00
    2.1273265036209740e+01 -4.4378587965345853e+00
    2.0873784877661233e+01 -3.7974742605068266e+00
    1.4323148279519490e+01 -5.5747573022863781e+00
    2.7218551651425773e+01 -5.3452295922145074e+00
    3.2378530551162804e+01 -6.7393031852554524e+00
    2.4541781565782326e+01 -4.8521635561833731e+00
    2.4312453916733510e+01 -4.9677999290593702e+00
    2.5587139591813141e+01 -4.2377653029633979e+00
    1.8246609897607986e+01 -3.9388632221246724e+00
    1.1997791320816575e+01 -2.9103738117034168e+00
    1.6400464673926038e+01 -3.8140269910161249e+00
    3.0723583170290098e+01 -5.1396214396255484e+00
    3.0108652542097758e+01 -5.7797762938052299e+00
    2.4761913039027817e+01 -4.6119777954287748e+00
    3.0215256300815682e+01 -4.8061710807995945e+00
    3.2586772303060286e+01 -4.3680313890203823e+00
    2.3497757933433373e+01 -5.2640917076812075e+00
    1.6816548500858328e+01 -6.8420870248751173e+00
    4.7498198599891651e+01 -9.6625218527479539e+00
    4.6121712833311406e+01 -8.9174676351458846e+00
    4.4713662278276104e+01 -1.0295473258285773e+01
    3.2053284167973679e+01 -7.0906458985255956e+00
    3.1711362375286505e+01 -7.8390515595990609e+00
    3.7469352714651265e+01 -7.8336859100834042e+00
    3.9971307322943225e+01 -8.7408041106803029e+00
    4.5760463854976564e+01 -8.2365309953273087e+00
    3.7228211483187827e+01 -6.8082743969775743e+00
    3.1826306067378820e+01 -5.2337770445748566e+00
    2.8009554998278496e+01 -5.9207200257084578e+00
    2.4545975025828596e+01 -5.2405168664521318e+00
    2.6579487895664091e+01 -6.1598414494693490e+00
    3.4625812778665804e+01 -6.6214433027810315e+00
    3.8859853657247925e+01 -7.5145489976053526e+00
    4.2388879816464190e+01 -7.3525286758993884e+00
    1.4967757555025086e+01 -3.8975436713714275e+00
    2.3470954796259896e+01 -4.4718254993267399e+00
    3.1246806165330177e+01 -5.8715163146186837e+00
    3.2313541226790946e+01 -5.8977745990939177e+00
    2.8467620133629808e+01 -5.9759898899995845e+00
    2.8910842463530354e+01 -5.3675443637250773e+00
    2.4041591206759030e+01 -5.6539500971177201e+00
    1.5111330685788607e+01 -5.9440450527728990e+00
    1.9626556455840078e+01 -8.6329305756246040e+00
    2.4405888296608893e+01 -4.9563904856020464e+00
    3.2328935929089845e+01 -5.1764028756588667e+00
    3.4384026475012114e+01 -5.2080285790716561e+00
    2.7118308560781980e+01 -5.5779623614364935e+00
    3.0360861282888518e+01 -5.2443725295659522e+00
    2.6497139924546683e+01 -5.1733493106966151e+00
    1.7690002726134416e+01 -3.9511304135718213e+00
    1.6226155005047541e+01 -3.8996541049798958e+00
    1.5414661984675668e+01 -2.5560536341594213e+00
    1.5656021476912372e+01 -2.5589800384097048e+00
    1.8192766982469415e+01 -2.3608801938438315e+00
    1.9296571893891059e+01 -2.7292125294356469e+00
    1.8337342298873850e+01 -2.4908266665628500e+00
    1.8584553045503203e+01 -3.3276977531525809e+00
    1.8384222465617299e+01 -3.1732985839189318e+00
    1.7677193807509429e+01 -3.3987313549019729e+00
    1.6317492996945440e+01 -2.6198608117112387e+00
    1.4247782864171635e+01 -2.5329044236923979e+00
    1.4714602100494300e+01 -2.3259615197028567e+00
    1.4728838761870756e+01 -2.7043437418116545e+00
    1.9508996166199118e+01 -3.5141840880075152e+00
    1.9195599577036965e+01 -5.6088257839377711e+00
    1.3861627370358679e+01 -4.5058473673752255e+00
    1.9764632459408588e+01 -3.4055227434449726e+00
    1.8636771707556559e+01 -3.1281320433879585e+00
    1.8137839950605006e+01 -4.1647166036459362e+00
    2.0099522416460619e+01 -5.4114049200979393e+00
    1.9962679036202367e+01 -5.5906448543711553e+00
    1.7979202568616525e+01 -3.5017087465348324e+00
    1.8603086292989715e+01 -3.4135904014099268e+00
    1.9802637350259381e+01 -3.0853111329187395e+00
    1.7538938017238074e+01 -3.1959118285154284e+00
    1.6797105013163272e+01 -3.1457193278010500e+00
    1.8627141085255154e+01 -4.8361493787296297e+00
    2.0219293349855572e+01 -6.0094916958122813e+00
    2.3103698640634633e+01 -7.4153798996826348e+00
    2.0806060522197672e+01 -4.7573934463646799e+00
    1.8328390397635335e+01 -3.8088287696034744e+00
    1.9719850817751340e+01 -3.2411064082999426e+00
    1.7581546619446154e+01 -3.4174310469362763e+00
    2.0668261386095462e+01 -3.2470592454080291e+00
    2.3011464119979586e+01 -3.5596963511283568e+00
    2.8997292899556840e+01 -3.4143831865445109e+00
    2.5566663454598007e+01 -3.4136041608569667e+00
    1.8804587926315648e+01 -2.5295500392784356e+00
    1.3223713881422578e+01 -2.6314546956290048e+00
    1.2787867919166942e+01 -3.2046678636220487e+00
    2.0122647959744288e+01 -7.5955519572324368e+00
    1.7128905891995451e+01 -4.7171811062395452e+00
    2.5973228522126259e+01 -5.4899743254492916e+00
    2.1810364565694545e+01 -3.4629811760767124e+00
    1.8654105756477961e+01 -3.1092075634681144e+00
    1.5345212845654569e+01 -2.3639379517925323e+00
    1.3074369220671143e+01 -2.5307621145007007e+00
    1.4456817301596168e+01 -2.6413567432077660e+00</input_scale>
  <output_scale>
    5.2631578947368418e-01 4.9999999999999994e-01 5.2631578947368418e-01
    4.9999999999999994e-01 5.2631578947368418e-01 4.9999999999999994e-01
    5.2631578947368418e-01 4.9999999999999994e-01 5.2631578947368418e-01
    4.9999999999999994e-01 5.2631578947368418e-01 4.9999999999999994e-01
    5.2631578947368418e-01 4.9999999999999994e-01</output_scale>
  <inv_output_scale>
    1.8999999999999999e+00 -9.4999999999999996e-01
    1.8999999999999999e+00 -9.4999999999999996e-01
    1.8999999999999999e+00 -9.4999999999999996e-01
    1.8999999999999999e+00 -9.4999999999999996e-01
    1.8999999999999999e+00 -9.4999999999999996e-01
    1.8999999999999999e+00 -9.4999999999999996e-01
    1.8999999999999999e+00 -9.4999999999999996e-01</inv_output_scale>
  <weights>
    <_>
      -1.4908075763174525e-01 3.6255896890288619e-01
      -5.9036248510952638e-01 -3.4780973066253806e-01
      -3.3060598815930686e-01 -1.5589441422747841e-01
      -1.5747390862743985e-01 4.7650630921611765e-02
      -9.7684472792275864e-02 -2.2723822874786667e-01
      5.2784313859956626e-02 2.2685675491777885e-01
      1.9630053397293287e-01 -6.4217014236635206e-01
      4.8269394591802871e-02 3.5780013132342103e-01
      -7.3838496486333061e-02 1.5110066878103773e-01
      -5.6734586779468443e-01 -2.0709927057541452e-01
      -1.0079173189677522e+00 -7.7394553798715326e-01
      3.6141135309627481e-02 7.2115344303738407e-02
      1.5307887025016887e-02 2.4285621203864408e-01
      1.6912908766139120e-01 8.8583383916483419e-02
      2.6914480059135215e-01 2.4035287740966962e-01
      -1.7932098848270328e-01 3.5228755019206981e-01
      5.9277012101656512e-01 -4.8874070385339571e-02
      -3.9333186698807626e-01 -5.1137199398773925e-01
      3.6475350274812474e-01 -1.0975486737387250e-03
      -1.8811997320884261e-01 -2.1392841482859102e+00
      -4.0958374189215704e-02 -4.3840066538771350e-01
      3.8261277044740311e-01 -2.6430448749399116e-01
      -1.8025877095640623e-02 1.8390701326426742e-02
      5.4485729740145672e-01 7.1878035945643071e-02
      -1.6303809984748044e-01 -2.1871954280491757e-01
      2.1890486803560519e-01 9.6248785869951489e-02
      1.1112528338041469e-01 -1.3053814979568292e+00
      -4.0505002586579542e-01 3.0004138105892575e-01
      -1.0061809007679730e-02 1.3086750504264456e-03
      7.2193549495090981e-01 1.8498412255256561e-01
      1.1332386558485213e-01 -4.3674469436375873e-01
      7.1471913742805385e-02 -7.7774118033716970e-03
      -2.3319306798848916e-01 1.9530483257806865e+00
      -1.1615958930841519e-01 -1.1464174250659460e-01
      -1.4130758236976822e-02 -4.1854774456338187e-02
      -5.2787195067881786e-03 7.7622550108490548e-02
      6.5391034430575701e-02 1.4619516464512214e-01
      -1.7444446644579051e-01 -1.4482808877033557e-01
      1.2322754175225336e-02 2.5911660732217633e-02
      -3.4780000920627763e-01 2.3528285488461048e-01
      2.1567053754967502e-01 2.6541829669934422e+00
      6.3434802840945478e-02 1.8498246488569420e-01
      2.9185637969425471e-01 -1.4497588337345613e-01
      -5.0120381782574575e-01 1.0072252058620235e+00
      -2.0525245317584115e-01 -3.9385805065776401e-02
      -2.8634388867757536e-02 4.7672395979062740e-02
      1.9202548307202881e-02 1.7078255468879382e-03
      2.3817950753787079e-01 9.7015958248728079e-02
      -1.1074422283209465e-01 8.9675773665150088e-02
      3.4386523781244605e-01 2.7831686705602540e-02
      -6.6291684749564761e-01 4.0897019913755227e-03
      3.3518522289962029e-02 5.0185577036408602e-01
      4.0053028008324382e-01 9.5922558503078958e-02
      2.1472171052802778e-02 8.4929021872427207e-02
      8.9326540985082903e-01 1.4885891576020363e-01
      -1.5165088763725201e-01 -4.3645713292367694e-01
      -1.7197507179035749e-02 1.3998651610863919e-01
      -6.5746689056581445e-02 -3.9627352858684367e-01
      1.6810551641686736e-01 3.1705329213540523e-01
      -1.3575115940744989e-02 -7.4678164339491523e-02
      -2.3406689020658314e-01 3.6961232659004550e-01
      -1.5383140459795053e-01 -5.4992148606461524e-02
      2.2554018038336629e-01 -3.0120599870731113e-01
      1.3170952503639108e-01 1.6803991140503072e-02
      1.3454220134006395e-01 1.7974162082360406e-01
      2.0378171452618393e-01 1.5340432461137965e+00
      -5.6703025471369566e-02 -6.7960485335234078e-02
      -1.4015821885194251e-02 -5.3127130834538377e-02
      1.7507909245952809e-02 2.8922769559744030e-04
      -1.6855688251264994e-01 -2.0089710156097815e-02
      9.4459647158838672e-02 -8.2141080271649694e-02
      5.9583924651062568e-02 -3.6098108301354898e-01
      -1.5944002725452455e-01 9.2125481890222693e-03
      3.7066287772567208e-01 7.8867642867684801e-02
      5.4608351338315619e-01 4.9948657376584044e-01
      -2.4468849153728089e-01 1.3860379521675442e-01
      3.7484041486879782e-01 -4.6911424780893038e-02
      7.6002264137122327e-02 1.8128705624191638e-01
      -2.6806760144033698e-01 1.4273285043490178e-01
      9.5641628061439082e-02 -2.1629645781353929e-02
      2.6511032020026631e-01 1.4013419363022035e+00
      1.1200949881238208e-01 7.3446387467213770e-01
      1.4246551891321618e-01 -7.8446302538658697e-02
      1.6474796788287652e-01 2.2113597062104481e-01
      1.8803457090497253e-01 -3.5536936269438494e-03
      -1.2012995045701833e-01 6.1454155141374911e-01
      -2.1102846623263383e-03 3.6103778798181330e-02
      4.9060008520096166e-01 3.9691218230275035e-02
      -1.9579641520502556e-02 7.5631195954558894e-01
      -7.1850336683456001e-02 -5.3906798726523888e-02
      -6.4213064234999928e-01 4.8836473660356283e-01
      9.5352788243631015e-03 -1.6277224176324903e-01
      3.1573318799952454e-02 -8.4079196107039372e-02
      5.3305153162692714e-02 -3.7085589373287636e-01
      -4.0601877630256811e-01 -1.2301079362855888e-03
      -3.2640159067707336e-01 -9.5244971962948954e-02
      4.0960436994864591e-01 -1.4124472727342655e-01
      3.2666542237810919e-01 5.4270197534964180e-03
      -2.1662137241881818e-02 6.7639714228652323e-02
      8.5234721561106327e-02 -7.4132254058583535e-01
      -8.0928294411558566e-01 3.2910059872998559e-01
      4.0657785692000584e-02 7.2805762508408853e-02
      -1.7928367628108802e-02 2.7848754919085031e-03
      1.6068227103504560e-02 1.0165092507048901e+00
      -3.6548664608207804e-01 -9.4122114002578472e-02
      2.1268940006816162e-01 1.2759508794717692e-01
      4.1069558730425164e-02 -5.3687947610358923e-02
      1.6496277102406368e-01 2.6548485837986219e-01
      -6.5330177925012903e-02 4.9192211899934313e-01
      2.8947341651943809e-01 1.4074209105482535e-01
      -1.6290905118341601e+00 -8.2960126726507200e-01
      -3.4648053749343981e-02 -3.7237909234696331e-01
      3.7660971165372248e-01 -2.3882270854861870e-01
      2.1019426184083073e-01 5.2323024682535114e-02
      1.3308268095285734e+00 6.2968730068830320e-03
      8.4400436717268230e-03 -2.0919790022470086e-01
      -1.8760099528094030e+00 -4.2087591919631503e-02
      -1.8101977158699034e-01 -3.2005602989457088e-01
      1.4664206637011479e-01 1.4375267998746927e-01
      1.2543157573383523e-01 -1.5741431281355359e-02
      3.3589906629840616e-01 -2.9145190919979108e-01
      3.4567032398747574e-02 2.7627875867700691e-01
      6.9749518149168510e-01 -2.4745840770647559e-01
      5.2077559284795938e-01 4.5315373603951747e-01
      -2.3504990463322450e-01 -1.0347674452914205e-01
      -6.0393687822076027e-02 1.0738377451209746e-01
      -1.4750499021767196e+00 3.9012954722626593e-02
      -1.5712662936366412e-01 -4.4268440799424719e-01
      6.7224417378528101e-01 2.6813814281826057e-03
      4.1708266281817591e-02 -1.0637847975436369e-02
      7.2718946808626880e-02 6.3974958774345544e-02
      8.1240537547730890e-02 -1.2646970633104973e-01
      -4.9908126636828330e-02 -2.1968714717288124e-01
      -8.5220548620906356e-01 1.1123819904088836e-01
      -1.1313199153289353e+00 1.5314465501854790e-01
      -1.4383591336206009e-02 -5.8142523802102303e-04
      -3.6535994574646469e-01 -5.6453326232618684e-01
      3.5506319588475062e-02 -9.9888829502643564e-02
      -6.0839586353312824e-02 2.0714879412606618e-03
      -2.4240795502049139e-01 2.3505608919574431e-02
      8.5694494997918136e-01 2.3755262902199445e-01
      3.4838931081221614e-01 -7.0306542225873431e-02
      8.2469001616566187e-02 2.9385934888358317e-01
      -2.3976310572127002e-01 3.1777269161241012e-01
      -1.6767653136062219e-01 3.7672589638151788e-01
      5.4050277497129950e-01 -1.4096234265453514e-02
      -8.0889348831703423e-01 -8.2908040692796184e-02
      3.2924849177892807e-01 9.7996600334467651e-02
      7.3613765161509970e-02 -1.7235680934660919e-01
      -5.8192507186345346e-02 3.2029309924983512e-01
      9.1223420201071964e-02 -5.4215126039206041e-01
      8.5903463813106536e-03 -1.3679190955552473e-01
      -1.2949357673613557e-01 3.8178111918012231e-01
      -6.3577865044955950e-01 3.2167538759686232e-01
      -1.7845360788061407e-01 2.7628364248210588e+00
      3.3312481361123324e-02 4.1638742067562615e-02
      4.0994670752957968e-01 2.1890962595486396e-01
      -2.9721559869267894e-01 -5.9308605442201345e-01
      1.2020330805744418e-01 2.4299909720972339e+00
      -2.6109930437131035e-01 5.6828153097476630e-02
      2.6677351087955370e-01 -1.1666196463349332e-01
      -1.1640067499760823e-01 2.9852523445210638e-01
      8.1471793348172017e-01 -2.4431369330572449e-02
      -6.9049394333665692e-01 -2.2620152029567020e-02
      -1.1950429486823162e-01 3.9286390643781316e-01
      2.6952625853015871e-02 -5.4437845130690464e-02
      -2.6687243378560523e-02 -3.7252325844491167e-02
      2.0615466320638326e-01 5.4631556158698835e-01
      -1.7590160612441363e-01 -5.6507901846375141e-01
      -4.1450335241161917e-01 -1.1872036885122156e-01
      4.2165266437150134e-01 9.5669455262206521e-02
      6.5898593759063939e-01 2.6186279231939025e-01
      6.5933010494633693e-01 2.7496954704577337e-01
      1.1196795466110807e+00 8.5297973120575354e-02
      1.1107174364520038e-02 9.6442175373040406e-01
      1.0743301309511499e-01 1.7655364249029997e+00
      4.2187988490229272e-01 -1.9254816579562831e-01
      1.9812158037413277e-01 -1.3398882258355874e-02
      9.9890606435556017e-01 1.1566691911111278e-01
      -1.1651582612997655e-01 1.9174234833639819e-01
      3.3152492440976025e-02 -3.4503285670542897e-03
      8.7020300854030105e-02 6.1109902295059138e-01
      1.5301079680886242e-02 5.3984553093261878e-01
      9.0835870404326918e-02 6.5582845899696124e-02
      2.1267362993095457e-01 8.1334088735393939e-02
      1.8366215867549540e-01 -4.7673853069225802e-01
      2.2881509934711160e-02 -4.9631249308042025e-01
      2.1466234285961305e-01 2.5611131103922841e-01
      -1.9810359002856548e+00 3.5056829353291276e-02
      -9.8045845552090102e-02 -2.2448830837897654e-02
      -3.8497433493769656e-01 -2.5552846703481402e-01
      -2.8577870928197219e-01 -1.1317795855698709e+00
      -3.2848519321579611e-01 -2.2122817722070347e-02
      6.8006695789906113e-01 -1.4481851113962013e-03
      -4.2105336213868777e-02 1.5624236042652243e-01
      -2.3333987474045186e-02 1.3038968845438918e-02
      3.8932155455385291e+00 -1.4805935162729272e-02
      -1.4899024987903475e-01 5.1524906334995971e-02
      -5.6957196067987037e-01 4.3497870279579923e-02
      2.2173780417551514e-01 -1.8111987552177178e-01
      3.2834407186935220e-02 -1.8784060749707683e+00
      -8.0505264400058285e-02 2.7670511601647751e-01
      -5.4459717097618952e-02 -5.1521799955218321e-02
      -2.2093710281328555e-01 8.6748561460655196e-02
      6.2350320643854436e-02 9.4766609208740846e-02
      3.6419055261897877e-02 -2.1489486923039261e-01
      1.4687705621109642e-01 9.0143178014630521e-01
      2.7137980062582084e-01 1.9254069024868994e-01
      -9.8581606559405385e-02 2.6153653683567540e-01
      -5.7824927265716065e-02 -2.9443006741016420e-01
      9.0007403426911586e-03 -2.2309596573242324e-01
      9.7388054649694064e-02 -3.0265024996499235e-01
      -4.5605766485982008e-01 -3.0685605739888128e-02
      -2.7368434406371087e-02 -8.8346362614327889e-01
      5.2397737348079876e-01 -3.2672072990286224e-02
      -1.5283715290293987e-01 -1.4803585300504973e-01
      7.4805958219914856e-02 -5.9232678701155272e-01
      8.5997225720332471e-02 1.0389661758164154e-01
      -4.2006093828483965e-01 5.7638306942759132e-01
      3.3699909798932276e-01 3.4368282630035399e-02
      -1.3821102189108109e-01 1.8365491952531850e-02
      -6.0851447584337234e-02 9.6917703529606283e-02
      -8.1256392137852906e-02 4.0756904553727763e-01
      -3.2840698931143891e-01 -8.7730592922368095e-02
      7.6970469719417720e-02 6.4846962000935693e-01
      -1.1627009742570604e-01 2.8665281639002183e-01
      7.1352835693001174e-02 8.1589998589054580e-02
      -1.0630070210034952e-01 -8.5534347165381330e-02
      -7.9198891845191216e-02 1.3398547946154771e+00
      -2.0810417164321249e-01 -3.4425032400532635e-01
      1.4084999514855903e-01 -2.4354228559480035e-01
      3.4763458207934798e-02 -2.8270240807176023e-02
      8.8953739718031499e-02 -9.6874400467902980e-02
      1.3954264818067547e-01 -1.0863301330751635e-02
      -8.5103825960657492e-02 -3.9749039526845616e-02
      1.5012121285710908e-01 -6.8443037111373450e-02
      -3.0376855135248931e-01 -4.3019690072073562e-02
      1.2198213143178411e+00 -2.7275703566083659e-01
      1.6574376953049691e-01 3.9524727613314808e-01
      5.1120037965067822e-01 6.6342346704945543e-01
      1.4065981441783287e-01 -3.5210688082370806e-01
      -1.8732542916787640e-02 -9.0134515554709707e-02
      5.1142488833911676e-02 9.2904039473643327e-02
      4.8863309336755217e-01 4.2722248120001871e-01
      -3.4781252421883191e-01 -6.5032851493527957e-02
      3.8350084623202614e-02 -1.0356685835448110e-01
      3.6649867081697804e-02 6.1614129087328467e-02
      -1.7595975882640352e-01 -2.0563585629611161e-01
      5.0608454851499296e-01 7.0569311227198589e-02
      1.0407471278303431e+00 -2.5231932592676092e+00
      -5.1615175513334451e-02 -3.5584730352966915e-02
      1.5330924116169303e-01 4.9105685457736614e-01
      -8.8406150854470053e-02 -1.7674400219671765e-01
      -4.4678353293508992e-02 3.4914286185907906e-01
      8.4542575007974935e-02 5.5535232305861319e-02
      -3.2787816616939094e-03 3.5363939158139457e-01
      -5.2381528603539773e-01 -4.8562643959220234e-02
      7.4009557205640092e-02 3.4701648801445062e-01
      2.8845375069656393e-01 1.2442386858697242e-01
      2.1798476772447636e-01 -6.3152090685346468e-02
      3.6257672075508435e-01 -1.3656482454215179e-02
      1.8410506957503434e-02 5.4789438437505766e-01
      9.7238852482919635e-02 5.4591422880081501e-02
      2.3443104652980995e-01 5.7486101588253891e-01
      5.0231719672739462e-02 -2.8001742408036538e-02
      -6.5382319159376506e-02 -1.0228417024736652e-02
      -2.2189272389293357e-02 1.8521878559052760e-01
      -2.9988623802895792e-01 -2.5355686212598610e-01
      3.0087549219493670e-01 1.8707092645503526e-01
      9.9178103870631848e-02 -2.1938392083877303e-01
      5.3831270275119296e-02 1.1936364089533127e+00
      2.1264700570068731e-01 5.5326384138283125e-01
      -5.3402793492191576e-02 -1.7786045132054634e-01
      1.1594633174557192e-02 2.8537605140515514e+00
      3.1368703411054549e-02 -2.8544645482298864e-01
      8.9407947588394696e-02 -3.0967379625600094e-01
      -1.0186711654909590e+00 1.4210012042651075e-02
      2.6739415901340826e+00 -1.1283555843647085e-01
      -1.0352271290685375e-02 6.5971648411806971e-01
      -5.3449406321763496e-02 -2.0206303789899080e-01
      7.7908150982577931e-02 3.2459463272285044e-01
      3.1891958385581010e-02 -3.2094711167414400e-02
      -4.6898586779100460e-01 6.3604298726206210e-01
      2.8410271374301990e-02 -1.1397943304431682e-01
      -2.0665683034934607e-01 -7.0793701229824160e-02
      6.3896107106872449e-02 -7.2884696874698318e-01
      7.3110313433683316e-01 -7.9231785854893128e-02
      -2.1956125261859524e-01 -3.3801564376827015e-01
      6.8179463731788723e-02 5.2249296596012995e-01
      -1.0415919701073636e-02 1.9807472989510133e-01
      8.6563626456020157e-02 -1.2656694345794401e-02
      -9.8027447085863406e-01 4.7490765777130226e-02
      -2.4219150642684284e-01 1.5914011322117954e+00
      -9.3245897129984059e-02 1.2922062566289910e-01
      -2.0441544373087499e+00 -2.2555974118863278e-01
      2.3197793627376388e-02 -3.5172502266344823e-02
      1.4173489556793545e-01 7.0518329140485364e-02
      2.6566071339048503e-01 1.4637601550674518e-02
      -3.5808034493313094e-02 -2.4749106975229015e-02
      -6.2432513306906204e-02 9.7085901545153050e-02
      -1.9691586334186764e-01 -2.6237219572768346e-02
      5.4070021197616425e-01 -6.1592668983565124e-01
      9.6319137511354638e-02 1.0853684650034310e-02
      1.4890822027596906e-01 -5.2363712109502081e-01
      -1.5558683076313573e-01 2.9711036965989718e-01
      -4.9581950827286649e-02 -4.9223821928965773e-02
      -1.2187076123774436e-01 3.5763365023118904e-01
      1.7488894698959662e-01 1.0685847342413421e-01
      3.8237217386283516e-02 -2.5020410042484031e-01
      1.0255415873179636e+00 -3.1084507947184853e-01
      -4.2798994389366969e-02 1.0484703179648773e-01
      -1.2541514789671995e+00 6.4140990962214428e-02
      2.4523508894828311e-01 1.3253446936846069e-01
      1.0950720938946623e+00 1.4247657837163785e-02
      1.3720626535641095e-01 -6.1388248085291008e-01
      1.0030032579895765e+00 3.5944342062272916e-01
      -3.3969223426304135e-01 6.2475006436566193e-02
      -3.0088182668780675e-02 -2.4940051676427019e-01
      8.2069088153444603e-02 4.4711113312715760e-02
      1.1147300511972034e-01 3.6419009044486350e-01
      -2.4247024413359383e-01 -1.4789280765350502e-01
      4.3350980833301272e-01 4.6432358302169113e-01
      9.9787431421778702e-03 -2.2849567211150726e-01
      -3.0690563463244142e-02 -1.1701533684367343e-01
      3.6392848610708112e-01 -7.5808349352317034e-02
      4.0416575445566009e-03 5.4274744074149717e-01
      1.9976161450297247e-01 -4.0031773306011563e-02
      2.5590599052930174e-01 -1.6545574960126924e-01
      8.1701895746005981e-01 -1.5149334814642462e-01
      -3.2014074651767969e-02 -3.1276259260880640e-01
      1.0486027489156610e-01 6.3092302182893656e-01
      1.3075805639044080e-01 -3.3987880380359525e-01
      1.6500801543209456e-01 1.0536491825450718e-01
      -2.4000873874235693e-01 -2.2019011098349303e-01
      -4.4862628700258658e-02 1.8636769305810397e-01
      -7.4746863545404685e-01 1.9173180876038479e-01
      -4.5481730836582822e-02 1.7337271625673889e-01
      -1.0960033564046090e-01 8.4264221349168444e-01
      3.2747970255059919e-02 -4.6550964863970590e-01
      -1.4486052104179848e-02 -2.4473230353126617e-02
      -6.3573665290398262e-01 -2.1791249202514162e-01
      -1.0392311895279460e-01 -4.2743270508358922e-01
      -3.3365475384656973e-01 -5.6943468575819695e-02
      7.1394088530671460e-02 -1.9980062889265357e-01
      1.0623987144252182e-01 5.7626649820097364e-01
      4.9819744726868807e-02 -2.5696566131231752e-01
      2.8577088710413895e-02 1.0719233847761350e-01
      7.2979036845406867e-02 -2.7164811176669218e-02
      9.7467202113800083e-02 -2.1643137909424176e-01
      7.1751224306915787e-02 -6.2710934534029072e-01
      2.7237449737109565e-01 -1.2841804209878661e-02
      -2.9531675513404787e-01 2.6628546150598992e-01
      3.0595183371924434e-01 1.2219445571012350e-01
      4.5718824179527162e-02 -1.6396268258171806e-03
      -2.1476396254871303e-02 3.3751044538344049e-01
      -4.4391007464727134e-01 1.4311137680781130e-01
      -3.3198918251080922e-01 -1.5214900857036956e-01
      -1.9676101039520799e-01 -1.2541622232154043e-01
      3.1214899372088384e-01 -1.6374086307224051e-01
      -4.1058332544241891e-02 -5.1925294190886977e-02
      1.4590334170816002e-01 -1.5075669569157452e-02
      2.7945260041129705e-01 1.0887601066231338e-01
      -6.8929577592695395e-03 2.2205373095010744e-01
      -6.7691325204852659e-02 1.0746224945307094e-01
      -1.1539980320538801e+00 2.6319317486080773e-01
      7.7267107327683909e-02 -4.5203412102558418e-02
      9.4100604252463652e-02 1.6058571988046125e-01
      2.4114269192164550e-01 -5.8231395318149515e-01
      -1.8606619281019332e-01 9.7061280183654661e-02
      -1.8761146348862054e-01 1.3369809845480202e-01
      -1.2817311916740981e-01 -9.3439525365593690e-03
      6.2529068243705710e-01 -6.3237312147384261e-02
      4.5238730148387835e-02 -4.5437294633988738e-03
      1.8175340144628411e+00 -1.6273414338103720e-01
      -6.9819137697974222e-03 3.9540251577319402e-01
      -3.6972238854036682e-01 -4.3981168030366981e-02
      2.4017326838690559e-01 1.3352043749916825e-01
      3.4091085697768149e-02 -1.5641252502993294e-01
      2.8123171306863171e-01 6.9154873204794617e-02
      4.0833737619061911e-01 3.6480041810241337e-01
      -2.5961576126738972e-01 6.6890341018471050e-02
      -7.9639792061190692e-03 -5.2423869655688730e-02
      1.0724558301246770e-01 1.9584533442160412e-01
      2.1562042826302136e-01 4.3911581512496206e-01
      -1.8081886230278882e-01 -8.0979557429419188e-02
      4.9757127124592443e-01 1.2800111979041401e-01
      -3.0225008604737513e-01 -1.2136363609202505e-01
      9.5718324852277353e-02 -1.2649491455370826e-01
      2.7483185420937767e-01 -1.9211425960580786e-02
      -7.3475736266186212e-02 1.9569597606584668e-01
      2.6498809961348241e-01 -1.4189331166315020e-01
      -3.5554866349648877e-02 1.0457314266219318e-01
      -1.5676613181811491e-01 -1.1610597652361597e-01
      -4.0334042394223439e-02 -2.8104833766311438e-01
      1.0713916868107107e-01 4.4628676642283627e-01
      1.3100149291881058e-01 7.7348522592665864e-02
      9.0972431950226314e-03 1.6423388087307333e-01
      7.2082632051124230e-03 -2.1272936361272315e-01
      7.3419919628158650e-02 1.8080118891643349e-01
      -3.9371779595630091e-01 1.3212379246326628e-01
      5.6694885707326958e-03 1.8552501976257540e-01
      -1.0950650686566851e-01 -3.8672782191387901e-02
      5.1682138968657337e-02 -4.8406790200616875e-02
      -1.8843559056917175e-01 -3.5559224808490546e-02
      -6.0095525192246135e-01 -7.2031728063100806e-02
      2.8744198915189567e-01 -5.2588267483438023e-01
      -3.3733087941066536e-01 -4.8929615177651882e-02
      1.5344668668804801e-01 -1.8632556397083852e-01
      -1.3683694289045342e-01 3.4814791906090348e-01
      4.8839236864918811e-02 -1.5813484268053568e-02
      2.5022022360412499e-01 7.3127319312644656e-02
      5.0807001446051450e-02 1.2829709121474395e-02
      1.0575542501126974e-01 -4.7714562991185795e-02
      1.1857886748253633e-01 -1.3708123427547186e-02
      -5.2715619115619602e-02 4.0867328126629320e-02
      -3.7689301265362046e-01 2.4332630866610605e-01
      -1.5732779316387763e-01 -2.6261853912510580e-01
      7.9443153329730440e-02 -6.4837082066989529e-02
      -4.2037440255719934e-02 5.3674198817054208e-01
      -3.3356804179424042e-02 -9.7626813703926042e-03
      -2.8871531749700668e-01 -8.5542619803336592e-02
      -2.0745537791112820e-01 -1.1187205575586097e-01
      5.6412151094415108e-01 -2.2139172359223769e-01
      1.4421786460419178e-01 -1.5521437714877062e-01
      9.1228188648152631e-02 2.3349624873482841e-01
      -8.0231586224830995e-02 1.1563530849828985e-01
      -1.6140399565395612e-02 2.4535033433509240e-01
      -3.6319841018412263e-02 1.0955602491081858e-01
      -7.6144225977703184e-01 4.2012401678259571e-02
      2.2275307538404823e-01 -3.1140487221243976e-02
      -1.5426157957169439e-02 -1.3508817672924966e-01
      2.1044976292568904e-01 -5.4418181131720922e-01
      1.6055745520875478e-02 2.7325853796999047e-02
      -7.5907773486628374e-02 1.4559692349074885e-01
      -1.3376149421995920e-01 1.7462458574519713e-02
      6.3325924306192549e-01 2.0603147530227836e-02
      4.1051166197746548e-02 -7.4166826972619391e-03
      1.2431913606507163e+00 4.8785499373715728e-02
      1.6335177388242161e-01 4.2189166387904370e-01
      -1.8052320708821963e-02 -4.0574873997350873e-02
      -9.7176719864450103e-02 9.0164442045599910e-02
      1.0820174631425396e-02 -1.8471172158804561e-01
      5.5023343040871608e-01 3.9421305784229789e-02
      -3.0286314828051511e-02 3.4386763823892508e-01
      -5.2597395553059900e-01 1.6991849162112063e-01
      2.3903786056651267e-02 1.7044280210485332e-01
      1.5134478530584447e-01 6.5486408011944733e-02
      1.8302817763341214e-01 2.3143376712675170e-01
      -1.6376449255610578e-01 1.4313385145708719e-02
      2.3668675546762408e-01 -1.8785910379358586e-01
      1.5312918355918212e-02 -1.3222571507194744e-01
      2.2486596239418524e-01 6.6035047614677479e-03
      -3.3659944840319111e-01 -5.6572858372346537e-03
      -1.3478793432140935e-02 1.5401056180085065e-01
      2.2489790278247754e-01 -3.4202981039639824e-01
      1.1259179544791265e-02 4.3550689638901707e-01
      -1.8407217616570387e-01 1.8081277746502263e-02
      -8.4334537579210153e-02 -2.8151429347445045e-01
      -1.7434709808586540e-01 3.0593146680380004e-03
      -9.0512557160293383e-02 6.4928519490235481e-02
      1.2163414758331161e-02 3.3276910808546123e-01
      3.2959877229622833e-02 -1.8642626472905979e-01
      1.1692925377529603e-01 2.1166914274275006e-01
      -1.0269236548523819e-01 -9.8320561830306330e-01
      -5.8298973970291143e-02 -2.0034813965207779e-01
      -1.0222080470129360e-01 -9.4483562217068245e-02
      6.4778718278885580e-02 -3.1898245273271489e-03
      -3.9123959763347149e-02 -5.5542494972192734e-02
      -2.9984492912402815e-02 -2.2607983137669060e-01
      5.0326246229390648e-01 -1.5838117876253992e+00
      1.4611655792334102e-01 -8.7162605548370839e-02
      -1.3297259940762307e-01 -1.8472998233267163e-01
      -3.7988279754467211e-02 2.0709836934373907e-01
      1.0629090820666282e-01 3.9516842404999857e-02
      1.7937206667605057e-01 1.3697386237106726e-02
      1.2017393856007763e-01 1.9182997477898638e-02
      -1.3125610044406677e-01 -1.5627988716850741e-02
      2.8002068965573851e-01 4.7793712093603047e-01
      1.5661598267614535e-01 -1.1164504806622419e-01
      -2.5662826557844332e-01 2.6216434852675669e-01
      8.4135772696484257e-02 3.2759507802134419e-01
      2.4487920033927434e-02 3.7822054104183475e-02
      -1.3585322601711337e-02 9.3024356293488389e-02
      -2.8994023236512421e-02 -5.8575102662342587e-02
      -3.1002345699799000e-01 -3.3153425447480667e-03
      -3.0594957825367886e-01 -1.8025759777054243e-03
      1.2305903011816163e-01 -1.3451080749252334e-01
      2.6694083264139169e-02 -1.7231001426696760e-01
      1.9499750072459424e-01 2.9519419811990916e-01
      3.8601823298818394e-01 2.6334558515844858e-01
      -7.4557302371974249e-02 3.3657654108201018e-01
      -8.5212524790925878e-02 7.9132208999876760e-02
      -1.3090291905598403e+00 9.9958769754393981e-02
      2.2546348434603361e-01 2.7038913094026590e-01
      -5.7977924730778507e-02 -3.2925221800853108e-03
      9.6842392535331084e-02 -3.9903859288902849e-01
      3.1994385527815338e-03 8.4053445034388302e-02
      9.2445238049439804e-01 -2.1422993903331847e-01
      -1.4446199841190679e-01 -1.0429114837533076e-02
      -4.2555660017234195e-02 1.6025930949687417e-01
      1.7302304868860760e-01 -1.3291898013246109e-01
      1.0308498128808789e-01 -9.3458660087729351e-03
      3.7291491266557691e-01 1.4310087238977001e-01
      -7.3979909226288210e-01 -1.8252232599167087e-01
      -9.1165039940345513e-02 9.0199664511834934e-02
      -9.0249907186721379e-02 -2.1454257015448919e-01
      3.7332258391014972e-01 4.2116201221376698e-01
      -9.9676748884063346e-02 2.7002313181420062e-01
      -5.2410249304564915e-01 4.4085610690631205e-01
      -2.6296845467901558e-01 1.4882157841300728e-01
      2.4168048825089755e-01 -4.6355871319955930e-02
      1.6113737286871124e-01 3.6453277663606926e-01
      8.3005261666218980e-02 1.2573203247601983e-01
      -3.3201457489337803e-02 5.3117549642514250e-02
      1.0215099630090230e-02 -1.1083476276682062e-01
      1.4681107433806601e-01 7.1975002426224832e-01
      5.8580057376277961e-01 8.5156651978029130e-02
      -9.5937492293236573e-02 8.4092761589801612e-01
      1.0224605497764980e-01 4.4671960323177412e-01
      -3.5169765352937371e-01 3.9474445338900910e-01
      4.8039216208136237e-01 -1.5229568903500004e-01
      2.0438479188455033e-01 3.2029105637124682e-02
      -2.1613595326936449e-01 -5.0069043447350831e-02
      -1.6046934736428375e-02 6.6982217195121807e-01
      4.1274821675669754e-01 1.4584077407214172e-01
      1.1427422823580290e-01 2.3018866249844988e-01
      -7.5738613110388556e-02 5.8514009113656451e-01
      2.0296052439341528e-01 1.4470933205510312e+00
      -7.0009110173958222e-02 1.0817651058895667e-02
      4.1642218977264334e-01 -2.8942076951209894e-01
      -1.8719273776759010e-01 2.0069075717169593e-01
      2.0612255958413303e-01 6.5687685958721861e-02
      4.5040894277552668e-01 -2.7318946316401621e-01
      -2.0139140855600951e-01 -2.5950578455353840e-01
      6.7744203403536818e-02 -2.1927251206165863e-01
      -2.7832231389433043e-01 -1.3821123338515431e-01
      4.2005511911403844e-02 1.1223666432224393e+00
      5.0682680630659478e-04 -8.8936263422307871e-02
      8.7411133951151201e-02 -6.8660542509766997e-02
      1.1566513264694391e+00 1.6655940066873104e-01
      -3.4653854525488426e-01 -5.5907092505389576e-02
      2.3951567077063263e-01 -4.8812083778911619e-01
      -4.3065419556418197e-03 7.3977449573791432e-01
      -5.3953920175052028e-01 -3.7871682390739658e-01
      6.9779557916027996e-02 -9.2412606480996418e-02
      -1.3044085215995255e-01 -1.0981596586942056e-01
      2.2563403291797773e-01 -4.7832881326149920e-03
      1.6763032325543842e-01 -8.0386543581432351e-02
      -2.9295669866845686e-01 1.8587146705995525e-01
      -2.1655594155416236e-01 4.2978776805301627e-02
      1.4137463307265037e+00 -9.1998910702728837e-02
      4.2818927471413198e-01 -5.1205260223860877e-02
      -2.2566417314852849e-01 -3.1586824634095656e-01
      4.4031831771323870e-01 2.4129207237934158e-01
      -8.2778545285381783e-02 2.6336311802075074e-01
      1.5707812726336737e-01 -4.5180211313603458e-01
      -2.3460643538689183e+00 2.8271540870912319e-02
      1.7669444771366133e-01 2.2458628886858850e-01
      -5.8072342500431251e-01 1.4084500206279782e-01
      2.6913498307497213e-01 6.4002218350641932e-02
      -3.7121842532837346e-01 4.3689536900520541e-02
      -8.1775957471372507e-02 -3.4852461498899479e-01
      1.8642580012798990e-02 3.9785558525888137e-01
      -9.1138858636468656e-01 1.5409808874971825e-01
      1.3641637903425990e-01 1.6412131573842907e-02
      1.4073292913413346e-01 -8.7945693745292930e-02
      2.3700326195884996e-01 7.0162208722047625e-01
      -1.7702941550082502e-01 3.8678823999084469e-02
      4.4975674506597049e-02 -1.6943993968427193e-01
      1.6674485415433968e-02 -1.5450551599882067e+00
      8.3960549386673278e-01 3.2629423042502786e-01
      1.4304221071670381e-01 2.0349242561244543e-01
      -1.0083880981542690e+00 3.1447810813679061e-01
      1.1503818104661334e-01 1.8111701411587869e-01
      6.9541414544098223e-01 -2.2718689637127986e-02
      2.2916092657539153e-01 2.9199186790289983e-01
      3.9500008237398765e-01 -1.3421634788039832e-01
      1.4806372823356539e-01 3.0473521577286528e-01
      1.2493442923443250e-01 3.7717386740789130e-02
      1.1772484849707567e-01 1.8914452033595580e-01
      8.1005553408574682e-02 -2.8208404400877733e-02
      2.6205886689128627e-01 6.5863444636902424e-01
      3.1106921877506757e-03 1.0232006484107259e-01
      -1.2459891979425061e-01 -1.8511087321369551e-02
      -4.4399599483513319e-01 6.6518593100260079e-02
      1.5181341843932558e-01 -1.4244907248355226e-01
      -1.9833810582043926e-01 2.6488794013104555e-02
      8.4520135089144605e-02 2.3915305474473070e-02
      2.0319150423438086e+00 5.4164757488787729e-01
      -9.0696340805056896e-02 4.8232421519103819e-01
      -3.1980305061763742e-01 1.0938733763578248e+00
      3.5643762121533674e-02 -2.6367485716411870e-01
      -2.3074460653338756e-02 1.7810489921316638e-01
      1.2594009288644453e-01 1.4934263487048632e-02
      -3.3057620873683724e-01 1.5106172781334450e+00
      4.8867588460172334e-01 1.9002252511148467e+00
      3.5568018730299682e-02 -5.7357888009635449e-01
      -6.1811735245652782e-02 3.1192422709244538e-01
      2.4878920179592762e-01 -3.2287304223436919e-01
      -1.4686827258115237e-01 -1.9377098701929781e-02
      4.3924689867936434e-02 1.1003322505090012e+00
      7.3805259864210493e-02 -3.7180578722804908e-01
      -5.0562440969813320e-02 6.1021347107623614e-01
      2.1512050688068945e-01 -1.9143909481531085e-01
      -4.4822497741940187e-01 -4.8363902879590914e-02
      9.8145452192127988e-02 -5.8422452577469386e-01
      1.5619697506228036e-01 7.1957891949965724e-01
      -4.5346863201246923e-01 -7.1132872693047122e-01
      1.9475309247815920e-01 -2.3863354335038747e-01
      -3.4394312650488777e-02 -1.4159221108765091e-01
      4.6705156870062176e-01 3.3559294334204842e-01
      -2.0708501045656233e-02 -2.7177620082294196e-01
      -1.4489696556625054e-01 1.1141358817970372e-01
      4.5491556068382615e-02 -1.2921873997470281e+00
      2.6967395171344211e-01 2.6616172083535228e-02
      4.6758565640245336e-01 3.4415909792188343e-01
      -1.4344304337609298e-01 -8.1705086980387154e-01
      9.2714977986629629e-02 2.4073595667966965e-01
      1.4481175043518951e-01 -3.7150847250111411e-02
      -1.2980007078202171e-01 3.5121295173024170e-01
      -1.4309314601442085e+00 8.0023644209860445e-01
      1.9766525537329777e-01 2.0021962621086162e-01
      1.0242745121495705e-01 1.6536979912015001e-01
      -7.8582338890933079e-02 -8.1513315971919607e+00
      3.0041634920163301e-02 4.1157703222367760e-02
      -1.6414623904158713e-02 -3.7999058790381385e-01
      2.1987336495228071e-01 2.2325262406372956e-01
      -2.5338077947885579e-01 -2.6044922870760595e-01
      -1.5353773219414862e-01 2.3321595753198279e-02
      2.7667620806339555e-01 2.6195943337637444e+00
      4.5591882406193052e-02 5.3285329360551725e-01
      2.5924829951456653e-02 1.2606982431549897e-02
      -6.9330356838671919e-02 -7.9415921393517330e-02
      1.7767790268680710e+00 1.5985929372643731e-01
      3.2802916897582612e+00 -1.5531104358776462e-01
      2.9831543390618875e-01 2.9999207777535480e-01
      -1.8973118286097699e+00 2.6808205596005341e-01
      -6.5436671644152483e-02 -1.3283415962252570e-01
      2.7735880852918865e-01 1.7027359723732938e-01
      3.5900896315412406e-02 -1.5634310920576062e+00
      1.4976984138700175e-01 3.8363747784638130e-01
      6.4117979049851348e-01 3.7215209248519787e-02
      -4.7569773664194938e-02 7.7281623327495955e-02
      9.5035095418280729e-02 -7.7244477538324377e-02
      -1.6637512109352878e-01 1.2702597391795914e-01
      2.3009161237187867e-02 3.7818845558790604e-01
      -4.0127384062118437e-02 1.2192362389861144e-01
      -1.3496909568098914e-01 -2.0887730413600678e-02
      2.5822999017972498e-02 1.7459951188232334e-02
      2.8587778920660495e-01 -5.7467723417247221e-02
      5.7219450115759858e-03 5.8561768891370471e-02
      2.1202511022524798e-01 5.5298895042121769e-03
      5.1115000743978789e-01 1.1627841381053945e+00
      1.0005035969470898e-01 -3.9686627785941925e-02
      6.3901401580420014e-02 2.5054725827072544e-01
      3.3406159390539630e-03 2.0320082670319345e-01
      -1.2007249385746702e-01 8.9912192260603585e-01
      2.5193726399884075e-01 3.5351814319863645e-02
      -3.2736628441565313e-01 -1.5970329403798489e+00
      3.6301834587657028e-01 4.8196518673945921e-01
      3.9640746054568375e-02 -3.4335045082925281e-01
      -9.5321955117158241e-02 5.5309223576070998e-01
      1.4043020585162877e-01 -1.1815109113815163e-01
      -1.7623278702938927e-01 -1.4807637248422872e-01
      -8.0540513886244752e-02 -1.0707200138951174e-01
      -1.1993073248665935e-02 8.1918009850341630e-02
      -7.8286453480081342e-01 9.4705750290965429e-01
      -1.1314987877805401e-01 6.1395989074109675e-02
      -4.3896042526108348e-01 2.8219659957715141e-02
      4.0093888591058842e-02 -1.0726351937008229e+00
      2.3969975075068264e-01 3.3467130946719892e-01
      9.5774717703347598e-02 -3.3367703184313618e-01
      9.0750467525023498e-02 -4.5003644444877838e-02
      -6.8272648537633027e-02 6.0620905289541893e-02
      3.2279837445525456e-01 -7.9731684442704235e-03
      -7.8179478353273579e-01 -2.5402786967712759e-01
      -1.4111198149255832e-01 1.2746552078178648e+00
      -1.1461558060034874e-01 4.9913527829628324e-01
      3.7778138768899278e-01 -4.1546717886883765e-02
      4.3997644767651339e-01 5.8958261785961634e-02
      1.0530264058239902e-01 -1.1090987238287795e+00
      -3.7281356024645623e-01 -8.4722965762416003e-02
      1.3857413497240087e-01 -3.1185578348315687e-02
      -6.5798155352800605e-02 8.9901411300850859e-02
      -3.0917442383831079e-01 4.2877137263399462e-01
      1.0677162072268229e+00 3.5683433645468804e-01
      7.5657201456485468e-03 -7.6321158706263492e-02
      8.7709890212385511e-02 2.0286491862596354e-01
      4.7438076616416573e-02 5.4639203972902506e-02
      -4.4059342194714624e-01 -8.2094193019789041e-02
      5.3102613685701842e-02 1.2228022064166119e-01
      1.0289820587635218e-01 4.2030571748823076e-02
      -1.6019016964242139e-01 -6.2013043767240573e-02
      1.6590369155608592e-01 1.7654007335386601e-01
      2.7133822271340491e-01 2.3885267207613115e-01
      2.0402155899893692e-01 -1.8788741501400102e-01
      4.3536826631228931e-02 -1.6935413435504701e-01
      2.0344726744128319e+00 6.3239004750059419e-02
      1.0973955198688270e+00 2.3168812498544696e-02
      1.3756689609797598e-01 3.0373182257486908e-01
      -5.8449091391702868e-01 7.6413284089671019e-01
      1.9896220464803650e-02 -1.1753294588433146e-01
      2.1360319277149858e-01 -6.6719083511934008e-02
      -4.1700500958369434e-02 -1.3821273472944795e-01
      -4.0528301142403045e-01 9.7195689073881153e-02
      2.3325536729106680e-01 -2.1829290479616054e-01
      3.6329887375325859e-02 -1.5751676745950027e-01
      2.3288597814318540e-01 -3.4947772355387424e-01
      -3.6639073292212061e-02 -2.9988891109867008e-02
      -1.2255438745665560e-01 2.6054822089572587e-02
      -4.9234046652162233e-01 2.7767368105165852e-01
      7.8589657729911255e-01 2.7251425414553654e-01
      -1.7957340172637692e-01 -2.2131532749530333e-01
      -6.4596890485872457e-02 -1.6485657789228769e-01
      -1.2116523621329411e-01 -1.8485718508087813e-02
      -2.3399649657266837e+00 8.1854102553296365e-02
      2.3327400415398974e-02 1.8279984954127995e-01
      3.2381912120496981e-01 -1.6145432768082618e-01
      1.0501851714990282e-01 1.7861411614272832e-01
      -1.7949361843418643e-01 4.4043591118000619e-01
      -1.3472061165527618e-01 4.7724073817372731e-01
      3.4666087925305811e-01 1.4918421892481597e+00
      1.1513045566915589e-02 1.3372486812255763e-01
      3.5051412634787743e-01 -2.7241989538088668e-01
      -3.5589266171823247e-01 -4.6060498675954092e-01
      -3.1203664853621950e-02 -1.5344271995103386e-02
      1.6954485342061984e-01 -2.4050758854643234e-04
      9.8371277529153686e-02 -1.4395560480381134e-01
      -4.1782689850492943e-01 -8.2027867301305950e-03
      8.5494581756028726e-02 1.4438818957560812e-01
      1.2451738965025365e-01 3.5275559462374989e-01
      9.2772734455046302e-02 1.3891710052583511e-01
      1.1654734855334092e-01 -1.5067322576671552e-01
      -1.7486873256299579e-01 -5.9390162341812280e-01
      -1.2515404463606709e-02 1.8238145423192745e-01
      -2.4193249829560734e-01 9.7629927471057157e-02
      -2.9865000122592033e-02 6.4882542874181137e-01
      -2.3920287668639834e-01 3.3659648586118363e-01
      1.3991361464858884e-01 1.9701676477648500e-01
      -2.9555551049923290e-01 -2.7286099073790993e-01
      -8.7381713951295126e-02 2.9134432740961963e-01
      -3.4215289725088160e-01 -2.0951372775529920e-01
      1.9345800378437064e-01 6.8675538579349604e-02
      1.3426661697376546e-01 -1.4326317256624915e-01
      -5.3615384353437531e-02 6.2618779410845621e-02
      1.4871644044561844e-01 -1.2253152575100879e-01
      -9.3367256907508897e-02 4.9283573808416321e-03
      2.2485346704649210e-02 -5.6900964977682400e-01
      -4.9247731679195489e-01 6.5539890286284452e-01
      3.4040316524513192e-01 -6.0414195902988833e-02
      1.9107920330976388e-01 -5.5928504011768479e-02
      1.5398034642099051e-01 -1.8432500121260859e-01
      -1.2312900267170829e-01 6.3443774523834304e-02
      -2.1292636413459909e-01 2.6796275257297159e-01
      -8.9981489911807017e-02 -4.8595177019491557e-02
      7.4230317930264222e-01 6.7670726798504444e-02
      1.6162234223519194e+00 -3.1303834123147661e-01
      2.7852828021732884e-01 5.4612239999201923e-02
      -5.8843563976376287e-02 3.6303019665387570e-01
      9.0079617542235549e-02 -4.4227422059338163e-03
      1.4912466432191307e-01 8.7402721650764487e-02
      2.5380545218164385e-01 -2.6729034011793956e-01
      2.7101403873293328e-01 1.5841811009951867e-01
      8.6913301482474239e-02 3.4189494954899230e-01
      -1.2281850042983621e-01 -2.7661834023222026e-01
      9.1913387852390796e-02 1.1364484635820235e-01
      1.1023292899660894e-01 6.5284607805407763e-02
      6.3951093255444486e-02 2.1433163892851140e-01
      -7.7268112834527239e-02 2.1466960456043738e-01
      -7.7542660401155858e-02 -1.3437090429586285e-01
      -1.9851361853868474e-02 -3.4350852762340217e-01
      6.5987805932511884e-02 -1.5239190015458934e+00
      2.6363209962792833e-01 -3.9298592251620301e-02
      -1.4859498452001974e-01 2.2401199356396953e-01
      2.6124602291606472e-02 1.4444846353943575e-01
      3.0200754985717110e-01 -1.7704811295534084e-01
      -4.7015781757040609e-01 -1.2446041024383652e+00
      -5.1535152999245611e-02 -1.8397271357947645e-01
      1.9942399080441967e-01 1.8704768364395918e-01
      8.8705510412118868e-02 -2.9099756982541664e-01
      -1.3544202820390647e-01 -9.0306877766839988e-02
      -2.6343714255264722e-01 -1.4746627221577457e-01
      1.3413135687805314e-01 2.2908019062970458e-01
      -1.5737910279804035e-01 1.8020845292484284e+00
      -1.2295584163347503e-01 -1.7027862421244561e-01
      -9.3333242366668012e-02 -1.3445557337767656e-02
      1.9507090931556108e-02 -2.3335049841500977e-01
      -2.0443376914572705e-02 -8.6826642627054109e-03
      -2.6166202018428630e-01 -9.5915623545974560e-01
      1.4655449959449357e-01 1.5543898246203738e-01
      -1.1348228141247400e-01 -1.4219300792692083e-01
      2.1613022192227768e-02 6.8126002788430839e-02
      -7.0835343323494854e-03 3.9468667613159558e-01
      7.1071995457176823e-02 1.9416768634208331e-01
      -1.3917067864778388e-02 3.2416871877158537e-01
      -1.4933271352154720e-01 7.3526986417030829e-02
      1.2008519503129382e-01 -6.3783218860948523e-02
      -1.9811274690792430e-01 -3.8559918760411155e-01
      1.7609990798505523e-01 -1.4443658295454984e-01
      3.4825247124970780e-02 7.2018819716133209e-01
      5.5918185436088036e-02 2.7905227762540424e-01
      -2.4497090086734435e-03 2.1472158079393749e-01
      1.1797786255651091e-01 1.6194320166957019e-01
      -7.4581329106265004e-01 1.1768026479717218e-01
      -2.5009494524741660e-01 6.9978483520899540e-02
      -1.4718273047869695e-01 7.8096925031592726e-02
      -1.5863596510278635e+00 1.1914864668951136e-01
      -2.7542243455876959e-02 -2.1010035362247211e-02
      -4.0777993654393746e-02 9.7440284108695360e-02
      -1.4282164834170230e-01 1.0365396916154818e-01
      1.7168290992370319e-01 -7.5258875090496793e-02
      -1.6788633454455665e-01 2.6609853908953451e-01
      2.6353997447519730e-02 -6.2581495684323049e-03
      1.4883011699952967e-02 -1.7562979067029941e-01
      1.3815027825734294e-01 2.1719923119754708e-02
      3.3046212820122761e-01 2.4002379749783559e-02
      -1.8503420403251769e-01 8.7609093856477124e-02
      -1.5373728750723807e+00 5.9163709045307122e-01
      -1.2382072666275533e-01 -1.9693320431213836e-02
      3.3804256455108328e-01 5.3811612208259217e-02
      3.3680815653351369e-02 -8.7949785020214060e-04
      7.4928246706086266e-01 -6.6525566090526470e-02
      -4.5577899202021620e-02 2.1541877932690295e-01
      3.9643757552304155e-03 -5.1613725341808907e-02
      1.3672662467207800e-01 7.0949637215439620e-02
      1.8464493093612327e-01 -1.7213861578209519e-01
      3.3548733917934163e-02 8.3071850553943213e-02
      9.7468755899527215e-01 -1.4282710422696443e-02
      -7.1229274707997350e-02 6.3078065805321007e-02
      2.2321416521681353e-01 2.9431059794490861e-02
      -3.2377015349546859e-02 5.1931112175510621e-02
      2.9161527424713707e-01 2.2459999733829519e-01
      -5.7048281715605616e-02 -9.7069334483794803e-02
      6.6611426992312106e-01 -1.7152479318057320e-01
      -2.8888432737650194e-01 -2.8615036247446896e-01
      -1.5137410174340307e-01 -9.7562637192400348e-01
      6.1089151867758290e-02 -2.3508962655133296e-02
      -2.1056898337864627e-01 2.0281024531451755e-01
      3.9869344755410202e-01 1.2537703087328786e-01
      4.6352303945461049e-01 4.8798196206287746e-02
      -3.6013197705038963e-01 -8.7953447632200732e-01
      1.8725177677394959e-02 -5.3674438393600543e-01
      1.2817009686569233e-01 1.8321368503272611e-01
      7.1269386693111336e-02 7.8804730859229094e-02
      -1.2377100269204094e-01 4.4554460846265534e-02
      -4.9931434489959836e-01 -1.2111921807686174e-01
      9.4857151566153722e-02 1.8711108788309000e-01
      -1.2220001799636455e-01 7.7885583621133436e-01
      1.8366694172971154e-01 5.8185116480322530e-01
      -6.7565194145401436e-02 9.7257999996557778e-02
      2.4528760939674567e-02 -2.2984014549387094e-01
      -1.5661701614028503e-01 -1.7526553730052196e-02
      -1.1066108726398955e+00 -4.7198322131817877e-01
      3.1085423509492749e-01 -7.9748991035422614e-02
      -9.2914758264401404e-02 -8.5298406564240759e-02
      3.9408569536707350e-02 6.6475937016827275e-02
      -2.7180090815516528e-01 9.6589085024344823e-01
      -2.1186734073894298e-01 -6.7297015908749869e-02
      -1.3822000414569535e-01 3.4334239401221195e-01
      7.5820791007432914e-02 6.4353420573930861e-03
      1.1541159866718080e-01 -3.8559016956276981e-01
      -1.7848288556317204e-01 -3.4940286102565637e-01
      1.3893927731810721e-01 -7.3152370059740762e-02
      2.0484565876756036e-02 2.6110771692610418e-01
      -3.2349005250881815e-02 9.9522070790979966e-02
      -3.6921262235415199e-03 2.5945778914583117e-01
      -4.2964825159535293e-02 2.4841277229068134e-01
      -2.1086068915753647e-01 -1.6659637538997744e-02
      -1.1279925489861061e-02 6.3700559114064498e-02
      -3.7725455126464374e-01 -9.1594430747807903e-02
      2.1213988244016349e-01 1.4316874935668059e-01
      -3.8205056979978842e-02 -6.3556670830698398e-03
      -4.1403837056954933e-02 7.7280943787100126e-02
      -1.3886463823248718e-01 -4.7261891054516121e-02
      2.5149758009257706e-01 -1.4847244078707553e-01
      -1.7543352345820437e-01 2.6484070518748537e-01
      4.6931262610398407e-02 1.7154076540248760e-02
      1.4458362225714830e-01 3.4485798046997036e-02
      2.0971562196383374e-02 4.5220779274805278e-01
      4.6109594349169691e-01 -8.1148314485736360e-03
      -1.7327047820198072e-01 3.4844957433962723e-02
      -2.7229698141724548e+00 3.2737846905193529e-01
      -1.3167786791151589e-01 -4.7936187443427411e-02
      5.9939815279637398e-01 -3.7552049800585664e-02
      8.4830389511903956e-02 -1.5538776153286160e-01
      8.4455802705304750e-01 -1.7159401641904773e-01
      -6.2414089848985110e-02 9.7296147094390217e-02
      -3.9828845654563438e-01 -1.9333051260362086e-02
      -2.7493578144737973e-01 9.4274051741840725e-02
      7.5366865059393676e-02 -6.7110361899534166e-01
      -4.4740412914658989e-01 2.7896872439225107e-01
      1.0007411050285822e+00 -3.8380744070292772e-04
      -2.1158702282700009e-01 7.2551092639328296e-02
      1.4569293257253907e-01 5.1022367420254941e-02
      -3.6029096385364279e-02 2.7315581940789771e-02
      3.2955329038735232e-01 3.7890212261088252e-01
      8.3000049670466827e-02 3.4784319057147922e-01
      6.1321533265338728e-02 -2.8868060316682875e-01
      -2.8976938689757703e-01 -2.8505056190433808e-01
      -5.5728605312307578e-01 -1.5912570588025782e-01
      -7.6177601559081513e-03 -1.3145478347421935e-01
      -2.5367442431044207e-01 3.4504910281843054e-01
      5.5908767771697121e-01 -6.6796384307274748e-02
      1.7533880096337329e-01 4.9058391002249693e-02
      -9.0985999630398703e-02 -2.7908661082769221e-01
      1.4897222054143304e-02 -3.0196909690397611e-01
      7.9092409327790145e-02 1.2736631468088869e-01
      1.9966159865987460e-01 7.4857270434118828e-02
      -1.1045200858353298e-01 7.0120911885519138e-02
      -4.8094253557499528e-01 3.0989538909758446e-01
      8.3243346349682168e-02 1.7857555169901129e-01
      -4.0384396344300399e-01 2.0801352411776194e-01
      3.8231510887727160e-01 5.2716124449705304e-01
      1.1783046716795819e-02 9.5186825809629463e-02
      2.1435224283453244e-01 -4.0027426991421804e-02
      -5.9701034332500257e-02 -1.1640979891178336e+00
      -7.9886261980765783e-01 -2.8913169585406728e-01
      1.7697915753360624e-01 8.4871735188928963e-03
      -3.7002927530138535e-01 -3.1106564371875250e-01
      5.7812309139084264e-02 1.0433431408511562e-01
      -3.0984944526803149e-01 -1.8684225582858663e-02
      -2.0818661015638262e-01 1.1720325095691815e-01
      1.7498577454680536e-01 2.2507049158561512e+00
      -1.5621742107062980e-01 4.8086798044906426e-02
      1.1575888169468369e-01 -1.9451869884956033e-01
      -7.2684690889875073e-02 -2.5397175724967119e-01
      2.1444250620243813e-01 -2.0815990503461453e-02
      6.6071484370395098e-03 4.0101043655089247e-01
      -4.1170997490260069e-01 -5.8145191948225934e-02
      3.3269657418661745e-02 -1.8675222694831259e-01
      -6.4625380787557057e-02 3.9927744603104898e-01
      -2.0699143916821694e-01 -1.6098262605439670e-01
      -5.5420889054356166e-02 1.2577100239060743e-01
      -1.9815388127220909e-01 -1.7666786410959603e-02
      1.7812784054258848e-01 3.1415172759305149e-01
      -8.0687018862590099e-01 -1.9040655402260132e-02
      3.6143906767131138e-03 5.6415224045194196e-02
      -1.4346416018621860e-01 -2.0235447418319644e-01
      3.0644041462983340e-01 2.6231304062807526e-01
      -1.5100456106937893e-01 2.9500599265496669e-01
      4.2945310460597831e-02 2.5878265867346192e-02
      1.3112598029325193e-01 1.3069873124515860e-01
      2.7579770389340308e-01 4.1986015950452671e-01
      3.1847619857265708e-01 2.2229447805373109e-01
      -2.1997206621281579e-01 5.7987096884768649e-02
      -3.4555129341379420e-01 3.3129779608421811e-01
      1.4111674771452373e-01 -9.4618159141033109e-02
      3.8698030723219246e-01 -1.2729518034922100e-02
      6.9834166859692182e-02 9.3973446223170748e-02
      2.8581399240249022e-02 -2.8020694371146149e-01
      -6.0304510203384544e-02 2.1423620770353380e-01
      -3.0536161080202567e-01 -5.3192074578034395e-03
      -4.5035181901232464e-02 1.0927785030461046e-01
      5.6978081511136321e-02 -9.0304736278695785e-01
      -6.6179662904777259e-01 5.3064212140864944e-02
      3.2185982868155438e-02 -3.4419324695823365e-02
      -2.7759746998167995e-01 -8.0912677725357901e-02
      2.2636609636071867e-01 1.5320712987092575e-01
      2.8869330201859101e-02 7.7164159618182182e-02
      3.1458355172706809e-01 7.5804276087903022e-02
      -9.9473625517966499e-02 4.2738541337884378e-01
      -1.6599662098442124e-02 -4.5450869101293084e-01
      -7.7028136943379996e-02 -1.2577716377869627e-01
      -2.4088897187624006e-01 -1.3064614127789842e-01
      1.9731399150319401e-01 -9.1626354386278669e-02
      -1.4383953902910751e-01 4.2123978431024905e-01
      5.1638101276365267e-01 -1.5140561993575172e-01
      4.8250957238719244e-01 1.1863574297009313e-01
      1.8273758426129413e-01 -3.0804629556680069e-01
      1.6267430013822821e-02 -2.0364069650902561e-01
      -3.3698467697871171e-01 -1.1577379693429229e-01
      3.0406212328935039e-01 -4.9018707491095756e-03
      6.9034189859775594e-02 1.5348024037799232e-01
      -2.1417180728752414e-02 3.0635130207378347e-01
      4.8601173588368507e-01 1.9409829749674512e-01
      -1.0855609549922793e-01 2.5128173508700846e-01
      1.1549232002647326e-02 2.0437167232618317e-01
      1.8777709269097102e-02 -6.2157053558548940e-02
      2.4170474873157680e-01 -3.0254710724633708e-02
      -6.0836024660454546e-01 -5.0355146591458198e-02
      -2.6292547590968057e-01 -4.3287965765531305e-01
      1.2031797853450305e-01 2.0883397671491263e-02
      -3.8990792842496930e-01 -2.5097636798480416e-01
      1.6304767697775199e-01 1.0516254401451045e-01
      -3.2339443112071842e-01 -3.2774010372355958e-02
      -1.7224069948603893e-01 7.1108987900804985e-02
      2.7608280189248119e-01 6.7855980122172654e-01
      -1.3552526647413388e-01 2.6394983776739650e-01
      1.2178997435289848e-01 1.5143947733034166e-01
      -5.5513899872211316e-03 -1.6328445096538916e-01
      1.9824799917851205e-01 -2.4493270733435258e-02
      9.5236283881557308e-03 1.9356416801482951e-01
      -6.8402764289725720e-02 -5.5548827267406238e-02
      1.6284595228378954e-02 1.1838159990890375e-01
      1.7367072032844981e-02 3.8223639373211621e-01
      -1.8479098688964798e-01 -3.1572423740775551e-01
      -2.0908312895807843e-02 5.4337097383712750e-02
      -3.4674190186088416e-01 -2.3801309603728213e-02
      3.2706079310318416e-02 1.9193918250587591e-01
      -1.2835969025894536e+00 2.9676253336670333e-01
      -3.8588329766687801e-02 4.0595154146472290e-01
      -9.1110865412260433e-02 -3.0498503544127503e-01
      2.1293640382193738e-01 -3.5478029327899885e-01
      -6.4096241659516356e-02 3.6305032159609241e-01
      4.2698995243546652e-02 -3.0137003720617395e-01
      1.3471774775573317e-01 -1.2776900906703905e-02
      1.6927684796507655e-01 5.1770157332093343e-02
      1.2652103931957442e-01 1.0785394647959841e-01
      -3.6088211612864546e-02 -1.8288558517008149e-01
      -3.7908349096190475e-01 5.7297025829144277e-01
      9.6923162258803069e-02 -3.3146519480287917e-01
      1.6359686098295403e-01 2.9280798418081459e-02
      1.6300489127606962e-01 8.0938031734456337e-02
      5.5115789717951072e-02 -5.2771579703767668e-01
      -4.6180385607572726e-02 2.2112131964495488e-01
      -3.3883926250196943e+00 -7.9984851414262540e-03
      7.2700508262984775e-01 4.6588164454277814e-01
      3.2132811899999572e-02 -2.1794133073705760e-01
      5.4360783450949864e-02 5.7191917380491536e-02
      -3.1559990323082232e-01 -4.9093083171085690e-02
      -1.5964193895619447e-01 -7.2184865762360537e-02
      4.5328406203228322e-01 -6.5568377510146464e-02
      1.0613821771290215e-01 -2.0324918161426797e-01
      2.7098222339922123e-01 1.3536089268020937e-01
      -1.1494398982773328e-01 5.4712886805962135e-01
      6.7359403572570697e-01 -6.3915776776005420e-02
      -1.3780777139158690e-01 -1.1943830279001453e+00
      -4.6660877416749170e-04 -1.5510868624797294e-01
      1.8621004936145860e-01 5.5988729598043430e-01
      -9.5385402110435291e-01 1.7883200166389190e-01
      1.5386150994697956e-01 -6.1918150293288816e-04
      1.4883790351560131e-01 -1.9695819900802089e-02
      -2.7870917074740365e-01 -1.3711977137615445e+00
      -5.6304184370951615e-01 -4.4046384201407951e-01
      -1.4951725586373452e-01 -1.5648810750771114e-01
      -3.3022854184821711e-02 2.5456022093342399e+00
      -2.6923752564062636e-01 -4.4688960085168948e-02
      2.8599095526461016e-01 5.3489207740873457e-01
      -1.8631704791681172e-01 -1.5223141548400801e-01
      -1.4347140278719525e-01 -2.0689308016658547e-01
      2.7858085021414791e-01 -1.4758803498765105e-01
      -6.6283022451387030e-01 -1.1689393094810850e-01
      7.0557939198973629e-02 1.4076549911842140e-01
      8.3499609578501899e-01 -7.3357600382885768e-01
      -3.6021210708511320e-01 -3.5367202077883159e-01
      6.6686289142378679e-03 -7.2974840220352929e-02
      2.5241428177483816e-02 4.7717826187767576e-01
      1.8806435381752715e-01 1.8783311651303394e-01
      -9.1728078433340876e-01 1.1928108289681248e-01
      -9.3382161730023852e-02 1.9200791203487655e-01
      4.5090633041730299e-01 -1.4858608106771709e-01
      -8.8997469591248855e-03 3.2138963757354605e-01
      6.4244855151774208e-02 4.3569710812797868e-02
      -4.9134995875453467e-02 -2.0692137086378481e-01
      -3.7945872757747634e-02 6.8877376238811849e-01
      -3.1093820014757972e-01 3.6967000984169773e-02
      6.9725175640818504e-01 8.6641510789136789e-02
      -1.9919470488888077e-01 -1.1044650036976333e-02
      -1.9766094303166731e-01 6.3939357654977225e-01
      -3.3971976900425888e-01 -7.5220824211010151e-01
      3.7625990319328548e-02 2.1762923706286571e-02
      -1.8279564901790332e-01 -1.4075037720831157e-01
      -3.1592223528135510e-02 9.0511091023812735e-03
      1.2607177854385401e-01 -6.2116871095548942e-01
      2.5447707555565651e+00 -2.2670173961674833e-01
      -4.6032200211354284e-02 -1.1025708994043262e-01
      4.5653828579747957e-01 2.5424466611611862e-01
      -1.2389022506370034e-01 -1.6368262594927238e-01
      2.7974222373558871e-01 2.0998184484855384e-01
      1.0291967739301595e-01 9.6498711032003570e-01
      4.1842964115764447e-01 1.0371530762412420e-01
      -2.3465813093738985e-01 -2.1743428431045683e-01
      -1.3510721980266130e-01 -1.1625646403376448e-01
      -1.0765411606225603e-01 -1.9456388481435580e-01
      2.9686033599884470e-01 5.9066553337950934e-03
      2.3900590077278983e-01 2.0669588037603501e-01
      4.5331405825301534e-02 1.8364073524820626e-01
      1.5721314857947791e-01 -4.3152833664059959e-01
      3.2314189181762498e-01 5.3846558133511557e-01
      1.4133482640865778e-02 -2.0135960554792404e-02
      -2.3622032057971015e-01 2.0711037186292533e-01
      -1.2136146933906189e-01 -4.9832112796865519e-01
      2.1804941873598863e-01 -3.5886510765343688e-02
      -4.7773353618085651e-01 -8.5040906758615720e-01
      -1.3191143151819629e-01 6.7670786502765734e-01
      1.2045649918972210e+00 2.1365882360492236e-02
      3.5764813135703588e-01 1.9601956085145206e-01
      8.1810671058965900e-01 1.2061636230816757e-02
      -8.7422977408033531e-01 8.4784460293452413e-01
      2.9111275661602259e-01 2.9879946767332927e-01
      1.5626465426560346e-01 -2.2451243007214078e-01
      -1.8788741107811391e-01 -1.3911320936600269e-01
      3.4795218124193605e-01 5.1601780726143531e-01
      -4.5858548791539833e-02 -9.5990873893087539e-02
      1.7744427225717738e-01 4.2177347085611584e-02
      -7.8587741563013250e-02 -5.7694577430212446e-02
      -6.5790908474308879e-02 -1.7798821481302487e+00
      -8.7308171434302626e-02 -1.7079075300311108e-01
      5.2837900000718939e-02 1.3930554379799481e-01
      -7.7410863774557415e-02 1.2514295907128565e+00
      6.8842786671206121e-02 -6.9579423395352030e-02
      1.2779022714882185e-01 2.8775054940640993e-01
      -2.0604888036636335e-01 1.2663832498969635e-02
      -1.9558699162846041e-01 1.1633610774351839e-01
      -8.2494751770095209e-01 -2.6482565183535905e-01
      -6.1567180780466835e-01 -1.1643720460184323e-02
      1.5549988840017973e-03 1.4910824655360949e-01
      2.7080387026655345e-01 -4.1136580776143017e-02
      -8.7114670121584603e-01 -2.4771067794891521e-01
      1.1829815139949327e+00 -3.4470241220634469e-03
      4.1565891558702592e-02 9.0192641816145447e-01
      6.2716732937657427e-01 -5.0024058198599782e-03
      1.8228866999503782e-01 8.0375893569153434e-01
      -1.9999809462024698e-01 2.2920042128096541e-01
      5.9257008142499790e-01 9.0815955148479094e-02
      -2.8857296619086970e-02 6.2154706908272836e-02
      -1.6286396880341086e-02 1.6336535365763766e-01
      -4.9483725376141047e-01 -1.9967069595635245e-01
      -2.5945037912466201e-01 -1.0648074283044640e-01
      -5.9883455050926560e-01 -1.7615856572843389e-01
      5.1046002702000248e-01 -1.4213133607266121e-01
      -3.2398291713309879e-01 4.5110160927744711e-02
      7.4249717239932081e-02 4.0758694154015690e-01
      -1.8537229820413503e-02 -1.0601908477401980e+00
      -4.9973040304674721e-01 -1.4295079113173292e-01
      -3.5299953396450432e-03 -8.6953051550164001e-02
      -2.4733644587815859e-01 -4.2238110196410644e-01
      -1.4296898205439628e-02 -4.1868956817726226e-02
      -1.0453300222144978e-01 -4.0448588436977045e-02
      2.8430275291001228e-02 1.7152344469287459e-01
      5.7962798731050480e-01 3.8019257183293448e-01
      -5.7278448897861170e-02 -1.8361050472826601e-01
      5.6712916214870124e-02 1.9596896671059102e-01
      1.7702476319184282e-01 -1.0178956724011146e-01
      8.3576792774234043e-01 -3.7797169539510556e-01
      -4.5537786139659708e-01 3.8789107595211281e-01
      -3.5774679231948070e-01 -1.3495366801965714e-01
      5.0487716162342204e-02 -2.7999752021260299e-01
      1.1640193379660428e+00 -2.2372388057102441e-01
      4.6803465126950822e-01 1.4454687725042234e-01
      6.1462732966123125e-02 9.3067185788691983e-02
      3.9172694543167724e-01 -2.0737459593695832e-02
      3.6540816244904920e-02 1.5077873077875939e-02
      -1.2951877481727303e-01 -1.2375302761935311e-01
      -1.9288330747033994e-01 3.0561555582221067e-02
      2.0751701764867120e-01 3.2643832385338308e-02
      1.0804711444224324e-01 9.6269682728477232e-02
      1.0559264901200785e-01 -1.6890174024713339e-01
      6.8303471012204631e-02 2.9315985152595209e-01
      -1.0272988624586654e+00 1.0942203655636005e+00
      -2.1914812961524766e-01 2.6023799697145661e-01
      4.3833451584074340e-02 8.2717790301372995e-02
      -1.2602725222551101e-02 1.1437888828660454e+00
      6.0598851698093814e-02 4.2862740470162907e-03
      4.2435398806233891e-02 2.0777733481801344e-01
      -2.5684244774785543e-02 6.2093894047475465e-02
      3.3756321270217035e-02 -1.0206366382233253e-01
      2.2253151609535515e-01 -4.8861128421211053e-01
      1.6192019393261578e-01 -3.0662233820348445e-01
      -2.4664548706839245e-01 -2.4328487622009054e-01
      -1.6635620569035954e-02 -6.5783738931848612e-01
      -3.2224355454767400e-01 4.0606587502092378e-01
      8.4767478775156210e-02 -2.1634509757897038e+00
      -4.8241851479326164e-01 1.5256726635206550e+00
      4.0038501416437244e-01 -1.7619151366484678e-01
      8.6623102737499749e-02 -1.0569912811207953e+00
      -1.2573790632337384e-01 5.5455847798512303e-01
      3.1724536068045089e-01 6.8466355573399043e-02
      -6.9336708618498710e-01 4.2645337147105777e-02
      4.4172640005713457e-02 2.2982898242641858e-01
      -1.4417809282888733e-01 -4.1128213445829800e-02
      -8.3730386947811958e-02 4.1579067327350810e-01
      -1.0053716062376511e-01 -6.9346246873855807e-02
      2.1494846714396576e-01 4.6254227418184418e-01
      4.9134096739650474e-01 6.6863912680326165e-01
      5.0898824588107135e-02 1.8898951236451039e-01
      3.7677351755532557e-01 7.3065647197439709e-01
      -3.9776216475388038e-02 7.2425301308583023e-01
      5.4833420722803572e-01 -1.1638766497735048e-01
      8.1909158155061834e-02 3.6716306902233927e-03
      -8.7119017724528569e-01 2.6074164315760123e-01
      -6.6480632041794663e-01 -7.6381097537764911e-02
      -2.5005367730399103e-01 3.0083204309369282e-02
      -2.3157357841363441e-01 -5.7021370191538401e-01
      5.3852930627051598e-01 3.3304505918189162e-02
      -3.0330897747869473e-01 5.4569903465731751e-01
      9.3399874924874526e-01 8.1935974122459443e-01
      -6.9411532637803086e-01 6.7248754226475665e-02
      -8.1234442321208855e-03 2.1742059332683569e-01
      5.8170600930720562e-01 1.5601842192030363e-01
      -1.5095086710627588e+00 -8.6238084993218972e-02
      2.0845322997874649e+00 -1.2592860335460712e-01
      4.0227826659850080e-01 1.3392095823610800e-01
      1.7932955429513024e+00 -9.1146394010731213e-02
      -1.5359543344246041e-01 -1.5603310552507096e-01
      -1.3585665419365861e-01 -3.5516649989176380e-01
      -6.2739747694617753e-01 6.1809763324895972e-01
      1.0276887470755246e-01 1.5997466233208531e-02
      5.9116864669717961e-01 -3.4991061182343675e-01
      4.4638503949230871e-02 -6.3001491721248948e-01
      8.5907318034424723e-02 -1.9483327973714073e-03
      -8.0690774182474705e-03 1.2481540179605105e-01
      5.5608193310086684e-01 2.6834736412925886e-01
      9.2069019169445188e-01 -1.4413835218483378e-01
      9.9464474770960525e-03 -4.7558453783893895e-02
      3.9837334950663178e-01 4.0022466822433636e+00
      3.8066480869809752e-02 2.8239507920876684e-02
      1.4144142675198573e-01 1.2803259394445060e-01
      4.3794766558534309e-01 -1.5110320268443361e-01
      4.8707756734279084e-01 4.4082584237906880e-01
      -6.2787811555411188e-03 -3.8153125210967792e-01
      6.5566181455868577e-01 3.5415405959686075e-01
      1.9701311810169539e-01 2.8815758349269127e-01
      -5.9403358618775282e-01 8.1637856062880848e-02
      3.9460472271015165e-02 2.2350739587848628e-01
      -5.5667736376863919e-01 4.2800183425930963e-02
      -2.1060441614012718e-01 -2.9555780438015461e-02
      -1.1753439262081443e-02 2.4062026933361874e-01
      1.4409459294799726e-01 6.5615259083266531e-01
      8.0230992545582316e-02 3.1148322448475901e-01
      -1.0348469383231142e-01 -3.8780563805209563e-02
      5.9183282980505336e-01 -3.8905756060144853e-01
      -1.3523595447808856e-01 -5.0541618965354418e-01
      -4.8835023655018739e-01 1.5951299857140618e-02
      9.5835324543155128e-03 -7.1106435305554605e-02
      -7.1011520542103146e-01 6.4036965016183789e-01
      8.7575383371579177e-02 -1.4444506888322985e+00
      -8.3611130645595200e-01 1.4485625451938713e+00
      -4.0375031319484478e+00 8.4835382467180285e-03
      1.6832265161886667e-01 -3.4171675675605001e-01
      -1.5321027377783347e-01 4.7918067598063691e-01
      1.4959360899701573e+00 -4.0506024198625484e-01
      -6.3910367487952091e-01 3.1161232934475580e-01
      3.8370434525789719e-02 -2.3428947324194110e-01
      -6.8156195086925664e-01 4.8904255145534925e-02
      3.2963786848407023e-01 6.2233946480228126e-02
      -3.4579340723793861e-01 5.8074797426036627e-02
      -7.6523502873854343e-02 2.9622849500702964e-01
      4.9124234015056961e-01 2.6076647187195662e-01
      1.1894500827908258e-01 -2.3176530243706521e-02
      1.6772343511851742e-01 3.7098199313593122e-01
      7.6585715739441770e-02 1.7153572429937625e+00
      4.6341563225980620e-01 -3.6872018297853049e-01
      -5.6770279049633654e-01 6.9883377997862012e-02
      -1.1013672620252979e+00 2.0389158369554039e-01
      1.9121318739345017e-01 -5.6710975548372025e-02
      -3.4677248843826752e-01 1.2172613396144654e-02
      -8.9462557819817956e-01 -6.0410765279995526e-01
      1.1289460122264569e-02 -5.3229645380672874e-02
      -4.2272255408436327e-01 3.8102615179127469e-01
      3.7649395723197177e-01 -5.3923849316880400e-02
      -3.8210813622805699e-02 8.2581396394430143e-02
      -2.4130170572759732e-01 2.5313329173793281e-01
      8.7111434043250797e-03 -2.9296679507084872e-01
      -4.6379546862362264e-01 -1.3901220478197204e-01
      5.6542071503328217e-01 -1.3762024605421921e-01
      4.2069879362134205e-01 1.7069226679429650e-01
      1.9180237067359740e+00 7.8446303172226742e-02
      1.1832197391714212e-01 2.0482413908808919e-01
      8.1758802540216580e-01 5.2112647330180999e-02
      -6.4330492626294056e-01 3.1140988638997524e-01
      -1.8424890267775829e-02 -2.0135430710991234e-01
      -2.7973780853808661e-01 -7.6854072378220051e-01
      -1.0848688062471520e-01 -6.5024875511127944e-01
      7.0282086112851583e-01 1.0811495324037315e-01
      2.7835829110909877e-01 -9.4332829716276215e-03
      -1.1235328443267448e-01 1.2012410649398420e-02
      8.7909965572131299e-01 -3.7802738972527200e-02
      -1.1898836669664040e-01 -2.4756060754389284e-02
      -1.9002856792809310e-02 4.0927267092564651e-01
      1.4854680627826100e-01 2.5833286894430072e-02
      2.4345652911981228e-01 3.9204872670298868e-01
      1.9953312557817174e-01 -1.0169338518206033e+00
      6.1114698983904669e-01 -8.7407362806767336e-02
      -4.2910475924553709e-01 -3.9318925036459818e-01
      7.4216827626801840e-01 1.4783544626285752e-01
      -2.2441430135077406e-02 -8.0830746544113350e-03
      4.9883843836094892e-02 2.3701418267326146e-01
      1.9664277505998251e-01 -1.0860615413575161e+00
      -5.9119942087776578e-01 4.9886706517992721e-02
      -1.8775883215160624e-01 -9.6626598655759260e-02
      -1.4849596080413918e-01 5.0620822981498587e-02
      4.6800113358201079e-01 8.4032759427788328e-01
      1.4067189821810730e-01 2.7269194846348732e-01
      -2.0353259556722954e-02 -1.9998699028200888e-02
      7.5486809458717097e-01 -1.7689783228900066e-01
      2.4427559913907056e-02 -3.3268841511983821e-01
      -4.6886392491063583e-01 1.7150929473328225e-01
      3.0882929152984289e-03 1.5649549017792952e-01
      -2.9878872647232224e-01 1.7260630191363444e-01
      3.3858103117592776e-02 -1.4918961357061296e+00
      -1.2874633125041923e-01 3.2428842352552462e-01
      -1.1084465760648432e+00 1.8938930775078441e-01
      7.9142370874901991e-01 -1.8673740932222324e-01
      -9.1848853833764288e-02 4.1697111499368139e-01
      1.1114772259975969e+00 -2.6285011952254805e-01
      -4.9348929268014768e-01 3.0505150903260980e-01
      8.0109526390959918e-02 -2.8350893003330169e-01
      -6.5335001047563157e-01 9.8724025757384398e-02
      3.4009838151551075e-01 7.6477447192595513e-02
      4.0660474227931531e-01 7.1019102585664573e-02
      -1.4147590198053728e-01 4.2067267771759143e-01
      5.2154954154557409e-01 3.0186749699056953e-01
      8.9986619932967249e-02 -1.2027309717538079e-01
      5.8820029681748698e-01 4.6778153252276089e-01
      1.3443927877928660e-01 -3.6436320186292809e-01
      -1.4113309919798872e-02 -1.9601576905395510e-01
      1.5380479630908053e+00 4.1945503127491895e-01
      -1.4404786285810438e+00 -3.7159327111527818e-01
      8.6047656451871610e-02 4.8123649719891753e-03
      -2.6422731897869506e-01 2.4856359096632108e-01
      -5.7399440605930474e-01 -4.3395647491412892e-01
      8.5908085469827464e-02 5.6188364837228499e-01
      -8.7780217180262976e-01 3.6430070975296946e-01
      4.8063049540139469e-01 -2.6400132097979201e-02
      -9.7039525730820489e-03 1.7664789925200022e-01
      -2.3922280056379411e-01 3.5519612424788127e-01
      -4.8961491446662418e-02 4.5312733854675408e-02
      1.4475732489143042e-01 -1.0348578965060860e-01
      5.8707051708679381e-01 5.6161679920044727e-02
      1.1850382333690447e-01 -7.9360255780755029e-01
      1.9413475091316836e+00 -1.8033777961862917e-02
      -2.8072968235771266e-03 2.1854711533489243e-01
      1.9838209563393316e-01 -7.8531387067738212e-02
      -9.2637363653346649e-01 9.8739711201090274e-03
      1.9129450806691051e-01 -6.9243661871524198e-01
      -3.7486806098983505e-01 -1.1132971440928280e-01
      3.2161226244555190e-02 7.8942784832324708e-01
      2.9473871677905727e-01 -6.1260833789955678e-02
      8.7830086451626668e-02 -7.6484620567506559e-02
      -1.7293438845775999e-01 -6.6724591431734884e-02
      2.5688735958982262e-01 -1.2667834338189521e-01
      5.7960248604442557e-02 -2.2114152915374932e-01
      3.4360903886171013e-01 1.5242201653665362e+00
      8.1073386027446070e-01 -6.8572496511707617e-02
      2.3718797624107668e-01 3.0947444432184978e-01
      1.8143553354953759e-01 -2.0941455842165307e-01
      4.0752408608128243e-01 -8.0899401876951688e-02
      2.6515260184721656e-01 -5.0163173913862512e-02
      5.5591114200441916e-01 2.2826613564051820e-01
      -4.6194731177229831e-02 1.3964717256622882e-02
      6.5442062847406888e-03 3.5849252037682522e-01
      2.0671143848506723e-01 -1.2322910140839847e+00
      -3.1122368928296379e-01 3.8237815110149849e-02
      4.8546674806155383e-02 -6.7517613724520906e-02
      2.1668023409775372e-01 2.8879884615499291e-01
      3.7809882518480753e-01 1.3715086962474901e-01
      7.9067742429480226e-01 8.5164613155126967e-02
      -1.0804098582067762e-01 2.5971660545204045e-01
      2.0312995218603808e-01 -1.8019819597697326e-01
      1.6253307313392584e-01 1.2169858244712717e-01
      -1.6407931059646587e-02 1.1675238298908407e-01
      -5.2764687305454333e-02 5.8351898346076445e-03
      -1.5442101077121914e-01 2.1431469896589214e-01
      -1.8757986983527977e-01 -7.4216816605668368e-01
      -5.5499759662882994e-02 4.3006041084845398e-01
      7.7779810354638057e-01 1.8427957586146684e-01
      7.9442991871652324e-01 -5.8840925114337217e-01
      -1.0487750225080134e-01 4.2790331026910428e-01
      4.1927652580983887e-01 8.8037121402240306e-02
      -4.9731438898292457e-01 1.3300039199838090e-01
      9.6597165460412665e-02 -1.4292892658993489e-01
      -2.3845218999028450e-01 1.2817247540032601e+00
      3.8716620077413860e-01 2.8416302955871903e-02
      4.4281707917601865e-01 -9.7223883480716367e-02
      4.6684408288929202e-01 2.0109453717838810e-01
      4.3344122722802358e-01 6.2334757997873314e-01
      6.8383009154440025e-02 -4.4440507806113544e-01
      4.0448630466388352e-01 9.3829141144626849e-01
      8.6195303040865048e-02 -1.7491470037739776e-01
      5.4780494786666267e-01 3.6594370056112269e-01
      1.0555850104246478e+00 -3.3278864016568297e-03
      -1.0357972931678228e+00 1.2599048256898471e-01
      8.7109712421925611e-02 -4.8502032272692130e-01
      1.1597311735944809e-02 1.0622278470950329e-01
      -1.1725359191445270e+00 -5.4233075849565804e-01
      1.9743712908590169e-01 2.7552735486323809e-01
      -4.6311145292729911e-01 8.4446577016927551e-02
      7.4597503934734510e-01 2.1567377541630101e-01
      -9.4236927401401813e-02 -8.5409465982471255e-01
      -1.2531985327290771e-01 4.7380228566546606e-01
      -1.7476143635952721e-02 -1.6935473643648651e-02
      -2.2261558510911292e-01 -1.1582410803942350e-01
      5.7511693809237696e-01 5.8012197563508623e-02
      -1.9080514994018438e-01 -3.5915050706394724e-01
      1.0259601763534465e+00 -1.0702591908075955e-01
      8.0054679359196357e-02 -6.5509192462735637e-03
      -7.4113741399380054e-02 -2.0737972038670374e-01
      -8.9778349556805503e-01 3.5507552464926700e-01
      -5.8843979153130985e-02 -5.1956533342319877e-01
      -6.3326227407948757e-02 -3.5286795615209254e-01
      1.7326128451805681e-01 5.2635185002236329e-01
      -1.2000604064995395e-01 -2.7404653020059105e-01
      2.2832031070162573e-01 2.0426613965538139e-02
      -1.6067549141982188e-01 -1.1967212898096409e-02
      -3.3303137990021228e-02 -4.6382211207254298e-01
      6.6272931105926663e-02 -5.2859100020596861e-01
      3.2801308312504351e-01 1.7480123735042281e+00
      9.7275703506988465e-01 1.2224053843516307e-01
      4.4030561143067615e-01 3.2027747184864608e-01
      2.1075930033426779e-01 -2.2479472999284983e-01
      1.8922046823942998e-01 -2.7955715883059123e-01
      8.6310199950409228e-02 -4.3102370622420658e-02
      1.8445834691215460e-01 7.7878154541230482e-01
      -2.2361356122150566e-01 6.9014155453434434e-01
      1.5471995347625282e-02 3.9167730832001424e-02
      1.0262121998328574e-01 -3.3620680010233150e-01
      -2.9468261250389394e-01 8.6896436685416981e-02
      -4.3060364018607228e-01 1.8330322852696154e-01
      9.2692282679692067e-02 3.9301911446639737e-01
      5.6360239751152807e-01 -3.4623846620495302e-01
      7.3913190152212416e-01 6.4074656413250303e-02
      3.2285515875158488e-01 5.5799918312862140e-01
      -5.3518646974900594e-02 -5.8643695081174729e-02
      5.1194248748819948e-02 -5.0089865244086762e-01
      -3.4686708237094223e-02 -1.3365086560447628e-01
      -1.8818599535974859e-01 -3.8961812290575265e-01
      8.6818608397280905e-01 -1.0841442571345959e-01
      -1.4289311587216302e-01 -2.0342525543189935e-01
      -7.2822082707302449e-02 5.3794136294011774e-01
      -2.1113127486776515e-01 3.7679920772004383e-02
      1.7232727598015260e-01 -1.0209631902055699e-01
      -2.7655900232960212e-01 1.5514071766813868e-02
      -1.8486742098280767e-01 5.9401007515924635e-02
      -3.6123462066971457e-01 -1.2804268822714293e-01
      -6.1035774119648534e-01 -1.9760543198187708e-02
      2.8909067901534197e-01 7.9594099332108192e-01
      3.7264830270502641e-01 -2.2382940916824517e-01
      6.1813054481642447e-02 -2.5072929024559099e-01
      -1.7677010317730590e+00 -1.5556148572966255e-01
      2.6009669491654154e-02 1.3130899604258972e-01
      8.0003109278745835e-02 -4.6192463490647323e-01
      1.8114622669260050e-01 2.1817990970726822e+00
      3.6450427287827752e-01 -1.0128814177026527e-01
      9.0913616434752420e-01 1.6883325226293919e+00
      3.4885328179349105e-02 3.6179449886541665e-01
      9.5012006698881948e-03 7.6708391061600352e-03
      7.4003110495128671e-02 -5.6133155252663913e-01
      -5.9160398232617772e-01 4.9274202626332669e-01
      2.2263392456582204e-01 -9.6091113834061570e-01
      4.3806826140691968e-01 -1.3703650646136704e-02
      -2.0946562013297285e-01 -1.4267124581204738e-02
      6.0005197255755993e-01 6.4065251171664084e-01
      -1.0996976291698535e+00 -3.7673047283536593e-01
      -3.1452502643222130e-01 -8.5255205711674512e-02
      -5.5936597936337075e-02 -3.2050254222633506e-01
      -1.4224209486263795e-01 -4.2301488342827598e-01
      -1.8199628777294527e-01 -2.7838819055105701e-01
      -3.7589000753014112e-01 -2.3204342553040139e-01
      -3.4472295139845965e-01 -8.6698802793165899e-02
      1.4201215164435885e-01 1.0792878143637157e-01
      1.7178505229615997e+00 -1.0908303927796519e-01
      -3.0337317044158890e-01 1.3139577702344721e-01
      -5.8111151255929173e-02 -6.6950392733335273e-01
      1.2052566428911520e+00 -1.0269359612965703e-01
      -1.7356406589858285e-02 3.8698978951904933e-01
      -1.6599885607317652e-01 -1.1311696220456635e-01
      -1.1539555763716691e-01 3.6507807726598999e-02
      8.4492760661387867e-01 -6.6203971540744783e-02
      2.2822820041302377e-01 -1.5805877087821688e-01
      4.5802656744599275e-02 -5.5351380769067504e-01
      4.4231047785148769e-01 5.3864740782436651e-02
      5.2866162658807003e-01 -1.7233406795809991e-02
      -7.3788008547338788e-02 -2.2969415245550751e-01
      -1.5249957601648673e-01 -2.4813054814788454e-01
      2.8576731327415483e-01 -7.1929613172560025e-02
      7.8023952593679141e-02 -1.4532516349344529e-01
      -7.1939409881654301e-02 3.7683668459315695e-01
      -3.0184574276212950e-01 7.8579794091202748e-01
      8.7020219283831379e-01 6.9136888459576773e-01
      -1.1632512710444931e-01 -1.7672519358796790e-01
      9.9485312752768354e-02 -5.9279128519341348e-03
      -4.3548360615390952e-01 8.9553580306605274e-01
      6.1654695626231604e-01 -8.9440891116043808e-02
      4.3867943307768623e-02 -3.3849354429512002e-01
      -1.9356734670914416e-01 -1.7758369838873075e-01
      5.6539509260366057e-02 1.9747710019573506e-01
      -1.4750216922185171e+00 2.3768114335924756e-01
      1.4338873070822511e-01 -2.5858960400449577e-01
      3.4005620523293473e-01 6.1990072607515177e-02
      -2.2480854780549051e-01 1.2860715302361370e+00
      -2.6854087337892102e-01 -1.8198005977620896e-01
      -1.7718030878304736e-01 -1.6489144134388581e-01
      6.7731443702761587e-02 2.1627949504200101e+00
      -1.0139647485549083e-01 1.7045351493453398e-01
      2.3582231688795455e-01 1.8066791275772542e+00
      -1.6779122141181890e-01 -2.8207474675235750e-01
      -1.7880864927061205e-01 2.7089950175666982e-01
      2.8613416579878870e-02 -1.5929787325802719e-01
      -4.8469962076270923e-01 -1.1585079546823902e-01
      3.6022739695231960e-02 2.1599499877182828e+00
      4.9731925228027946e-01 -7.3368579324491323e-01
      -4.2172040896788965e-01 -1.7166733656919824e-02
      7.9058936745892733e-02 -6.4939246196468722e-02
      2.7049152088816614e-02 2.0644513683318522e-01
      2.9369723546987442e-01 9.4269261456978712e-02
      -2.2033584940113660e-01 1.0221912745427936e-01
      5.6604313770393551e-02 6.3963160499916072e-02
      1.6842865543749902e-01 1.2919530403370278e+00
      3.8654014595734110e-01 2.7991369460404658e-01
      2.9527105638257867e-01 2.1292805050180795e-02
      -9.9458726315463063e-03 -3.0757321906132318e-01
      -4.1248210253306369e-02 3.2775699956433327e-02
      1.2679445374497081e-01 -1.1003844578179620e-01
      7.8482542586773529e-01 -7.5220116950569307e-02
      6.3393180803575255e-02 -1.6091898563850207e-01
      -1.3335410749783919e-01 1.9242505825530568e-01
      -2.4894188182741859e+00 -1.5553974721640482e-01
      2.4574322232925108e-01 1.5888745319322666e+00
      -1.3421040970497725e-01 -2.1581634075533873e-01
      -2.6333815462876272e-02 -1.2657588438355382e-03
      -7.3140135753829161e-01 -6.7504828448482757e-01
      6.5461103549759780e-01 -7.5328456978767555e-02
      5.7396426695833350e-02 -9.6047474946284489e-02
      1.0910485510885562e-01 -6.8006302864578219e-02
      1.2184009210717601e+00 -7.6756072505321835e-02
      1.4024433473106365e-01 1.4410916904391322e-01
      2.1450350326790699e-01 -3.9577791027092241e-01
      1.0210110157669992e+00 4.4919327504659740e-01
      -8.9440203289167297e-02 1.9666392470583438e-01
      -3.3167356798128850e-01 -1.3676936125519951e-02
      -2.3555945819981453e-01 -8.4139273429630609e-02
      5.5584163392143504e-02 -6.8268829761632843e-02
      1.7431109731631922e-01 3.7538431560558372e-01
      3.5911613481132969e-02 -9.0397035681654778e-03
      3.8226581300691398e-01 -2.6424756002032984e-01
      2.4486322617680040e-01 1.7587246951553537e-01
      -1.1503019401728458e-01 -4.1157092291426817e-01
      -2.0456655463549261e-01 3.1572220377126183e-02
      4.8653921599659783e-02 -3.2365420757469282e-01
      4.0782236871634757e-02 8.2228789179278200e-02
      -4.9511545001811946e-01 -8.3793384406046900e-01
      -3.1586210328460762e-01 5.2637304055196821e-01
      9.3938347203585015e-01 1.9286992165221156e-01
      -2.0401956963057766e-01 -7.1653490673278929e-03
      2.5233411161245006e-01 1.1522439306594315e-02
      -3.6907421595039702e-01 8.9152713299104791e-01
      1.9705153648634044e+00 -5.7447850569669362e-02
      -1.4464667325129996e-01 -8.9069868448865663e-01
      1.4283331614529737e-01 -1.8239701604396880e-01
      7.0505074368575504e-02 2.2341029779566168e-01
      -2.0093476912430979e+00 1.2233325469140054e-01
      1.3745701556060130e-01 -3.7953126532376402e-01
      3.1863633943210368e-01 -1.2652827182804516e-01
      -3.2037459919699995e-01 4.5708807668516567e+00
      -1.4659447147525555e+00 -5.3198674450405728e-02
      -1.4727077739942282e-01 -1.7270848902393951e-01
      8.6397016838542604e-02 7.5406503964960536e-01
      -1.9242635329213248e-01 9.6813274630026799e-02
      2.7436049057602396e-01 1.7826878226664196e+00
      4.4252394534512157e-01 -2.9439357691723755e-01
      -1.5965620191366772e-01 -3.0194108992811902e-01
      1.3711960581340473e-02 -1.7545582363468368e-01
      -1.7481259854393802e+00 -1.1362261981861620e-01
      3.0950928695341225e-02 8.0055648551622027e-01
      9.7530796463080230e-02 -4.5254886559351476e-01
      -2.9051800398308808e-01 1.1955134011554515e-01
      -4.2648684687436322e-02 -2.8769838521338228e-02
      -6.2063751346254616e-02 2.3571714286577838e-01
      2.2074467098435374e-01 1.0621717286415341e-01
      -7.2555809949165009e-02 2.5661688307418640e-01
      -6.4989422135394798e-02 6.3066778195573603e-02
      3.9143872142956548e-01 -1.9654964513535516e+00
      4.5746192764123506e-02 2.8328581606375119e-01
      2.7599197959549576e-01 1.1197142774777322e-01
      -1.6124760434818722e-01 -1.0050922022889746e-02
      -1.2307289972879507e-01 -3.8901265576752053e-01
      -4.6067420033762913e-01 1.1497764965589895e-02
      8.5166827684883609e-02 -8.1085913873820484e-02
      -1.5198037023322875e-01 -1.0257123751823555e-03
      -1.1623449555484647e-01 1.7333022559671812e-01
      -8.1263533060004584e-02 -5.4227983917058842e-01
      3.0555590036348605e-02 -2.7084598490588613e-02
      -2.9215004863744488e-02 -6.5129696042072263e-02
      -3.4450577412478235e-02 -6.8947909077722042e-03
      6.7199557847565272e-01 -3.3605605988700116e-01
      3.1871256018728938e-01 -4.7791738622141179e-02
      5.5387397103617814e-02 -6.1689335897090547e-01
      9.6370639373532144e-02 -4.5039745793995951e-02
      1.0712787933284333e-01 -3.2471220945128942e-01
      1.5167773336139553e-01 2.2619557068292209e-01
      1.1325721359118782e-01 -5.5211358983621686e-02
      8.0793231607044025e-01 4.3329919390291582e-01
      -1.5927232784288717e-01 -1.2835124351667541e-03
      1.2957931963098393e-02 -1.1404849074449587e-02
      -1.5662183985392711e-01 6.2387771109053114e-01
      2.6100214018621620e-01 -1.3830218733155492e-01
      5.0284537440557053e-01 2.3227075039415007e-01
      4.8832705663896796e-02 -2.8941501367744395e-02
      1.7837964222868075e-01 -4.1852387659808910e-01
      -8.0268387090626545e-02 6.5679248524003742e-01
      -1.4492664329619329e-01 -1.6683371178201778e-01
      -8.7306866152162696e-02 1.6220579413020367e-02
      -9.3853232684700888e-02 -2.0082322657081471e+00
      1.9835626156643311e-02 7.5363933223881255e-02
      -4.8222411981248109e-01 -3.2962236135104286e+00
      2.3983699745747963e-01 6.9834487775744775e-02
      8.2308638725318373e-01 4.6137514947547154e-01
      -8.9589950254353801e-01 9.5266168156372552e-02
      1.7251626921660615e-01 1.1052355679365036e-02
      -3.8208113700421470e-01 -1.1448641365029750e-02
      6.8049036465470980e-01 -6.9080670208196596e-02
      1.6311512217891475e-01 -6.5751783515146300e-03
      -1.5175735464418277e-01 -7.4234933485668855e-02
      2.9865106287842755e-02 1.5199713115643279e-01
      -2.0135458457246116e-01 -2.9141794982496272e-01
      1.2101242268796011e-01 -2.5369520062080125e-01
      -4.4678567087956023e-01 -1.0134939600809789e-01
      -1.0103003240779750e-01 -3.8970691040062705e-01
      -3.0177963154082676e-01 -4.2333116192542722e-02
      -9.0181107214828041e-02 -5.7529795866634637e-01
      5.7421135618548731e-02 -3.8823358531079780e-02
      -1.8994203934871498e-01 -4.7048746524596272e-02
      1.4119111644440015e-02 3.5024744864598883e-01
      -7.3770486147033465e-02 -1.7452282168343000e-01
      -2.0065107134201524e-01 6.8053854442175335e-02
      -6.3207894221942895e-02 -1.3352930934079434e-02
      -2.2964852964105770e-01 -5.4713843095831622e-03
      7.1577761157815056e-02 2.9434861515081770e-03
      3.8925487849622153e-01 -1.8384302799147051e-01
      -3.3094746390762847e-01 -1.4638658120071124e+00
      2.2906483058121829e-02 -1.5097453032555819e-02
      -1.0824927058971916e-01 2.0150789079513121e-01
      2.7203559708803732e-01 -4.1557350921005320e-02
      -8.6585399133060712e-03 -7.4116727997581996e-02
      -6.0217008282701823e-02 1.9260709943411815e-02
      3.7440796798035658e-01 7.5942355084821633e-01
      -5.2314456036465076e-02 3.6678560056473009e-01
      3.8471258706498690e-01 -3.6927923160923706e-02
      -4.4121428070350754e-01 2.0004692449405118e-02
      -1.0733879296416919e-01 -1.0909893906241953e-01
      3.0209830776782048e-01 -8.5084758427373015e-03
      1.0213708817404164e-01 7.2192244095694164e-02
      -1.3141744213824119e-01 8.8020003004919120e-02
      2.3920304283129082e-04 2.4087359207410214e-01
      -2.1409350895484397e-01 -5.0914133452966182e-01
      2.7850555117140025e-01 -7.0483993212217183e-02
      -1.1917856145934691e-02 -3.1101861546776743e-02
      -7.5740617672113583e-02 -7.9054500422159092e-03
      -1.2707413786282887e-01 -5.3493852607993286e-01
      -3.7316560676391435e-02 9.8946780575721538e-02
      -1.8093514940541372e-01 9.3694101628425275e-01
      3.6721017138807557e-02 -1.2746624959844158e-01
      -2.8175336361179576e-01 -1.0299830272117427e-01
      3.2925571441366513e-01 -9.1759307883017047e-02
      2.9624669962101616e-02 -1.8306738953329715e-01
      1.6777941293549372e+00 -1.7932094666620998e-03
      -5.8587758660017260e-02 -8.2960336546570868e-03
      -5.7256855003826247e-02 -2.3698223040800387e-01
      -1.2377158033209321e-01 4.1304803884236135e-01
      8.9563129155230251e-02 -1.1180607084374630e-01
      1.6802119049182293e-01 1.6101903344032864e-01
      -3.1880041366466716e-02 -2.6860435710332566e-02
      3.8701577244649071e-01 3.4493414779828029e-02
      -7.3278208357399691e-02 2.8224209623095298e-01
      -1.0795905241175255e-01 -8.6312685604085601e-02
      2.8546971165203956e-02 3.6680653737557349e-02
      -4.4000389400751398e-02 -1.0493045186414116e+00
      -1.5493106589457767e-01 -5.3393780554865433e-02
      -1.9729844315893219e-01 -1.5471414108432924e-01
      -5.9596608847417520e-01 -6.5995809387862231e-02
      7.1256142985360860e-01 7.4815845376552703e-01
      -1.1869860486858839e-01 3.4581538961049811e-02
      -8.8401088405360324e-03 7.3321836713919064e-03
      -6.2203753904898580e-02 -4.6959891521543767e-01
      -1.4087958978124487e-01 -1.6573233618734839e-01
      3.2986387945064095e-02 1.2454840845249303e-01
      -6.5657133874264184e-01 1.7299509846754484e-02
      7.5544035338838286e-02 -1.8967184175506349e-01
      -8.6360817954797761e-02 -9.2121508083477674e-02
      -1.4399254469118353e-01 -2.7088957688694223e-02
      2.7014169197119831e-01 -3.2663332105342685e-01
      -1.9367165023300516e-02 -3.2438913406571662e-01
      -2.7141051093787166e-01 4.7963101936710210e-02
      9.7571974651811166e-01 -1.9385266930874023e-01
      -2.0561278021308144e-01 -1.5012149137595487e-01
      -2.5479087801976530e-01 -6.1690987797412881e-02
      8.6101037412233114e-02 -2.7661561163706869e-02
      -3.4725229883482828e-01 -9.9177218259791575e-02
      -8.8514332588324904e-02 1.1590089486356983e-01
      -6.8763510978845443e-01 1.6847501024517414e-01
      -1.6779575578956579e-01 1.7921405325840040e-02
      1.6022580900236474e-01 -2.9995134485155861e-01
      9.4156144492595725e-02 8.2303006763078626e-02
      -6.0401601328712384e-01 4.4172638164413233e-02
      1.7865103157226531e-02 -1.5551760622193638e-02
      1.7137823647780262e-01 -1.5397967728110415e-01
      -2.6526498205882199e-01 -2.6062264839285376e-01
      6.4847329468116499e-01 5.3526558399555335e-02
      1.7328698375350030e-01 5.3182736824012045e-01
      1.2078849446507389e-01 5.9039714695496204e-01
      1.0837778637309298e-02 6.0919690271141892e-02
      1.1925640518318779e+00 2.5228285749591589e-01
      7.4878284691748676e-02 2.0944398450464144e-01
      -6.2084732823009872e-02 -5.8916956320115677e-01
      -3.5012039210013357e-01 2.4044378433144924e-02
      -4.6631609926814487e-03 1.7925841235166034e-02
      -2.1793066269096195e-01 2.1099069780715943e-01
      3.4068354798687905e-01 2.0681067953527613e-01
      1.4703174045500284e-02 1.3117272185432749e-01
      -1.7842686487666368e-01 -1.1021271485080074e-01
      2.5290995472199279e-01 1.8183648953573750e-01
      -2.0740023878244829e-01 9.0142284903721101e-02
      -1.0602038255425918e-01 -2.9325910108344022e-01
      -8.9583250294820421e-02 -6.2701089324431706e-04
      5.8293854025784478e-02 2.4389421238057004e-03
      -5.9672883418004780e-02 9.5563039967036106e-02
      -3.7067123439198807e-01 -1.4981111989721657e-01
      2.2901268359707741e-01 -1.3762925036998003e-01
      -2.3546378006912660e-01 -2.9534460553513542e-01
      1.2034443377887560e-01 -1.6061003321718154e-01
      1.5412342563313594e-01 3.6314165568395912e-01
      2.1161336514330897e-01 2.5592906193878794e-02
      -7.5382964534742997e-02 3.4013448834474180e-01
      -1.4234097536431121e+00 -2.1677762844520526e-01
      1.9238860572368907e-01 4.1623364327825640e-01
      -5.0731863248281148e-02 -2.1063157227058843e-01
