%YAML:1.0
my_svm: !!opencv-ml-svm
   svm_type: C_SVC
   kernel: { type:LINEAR }
   C: 1.0000000000000001e-01
   term_criteria: { epsilon:1.1920928955078125e-07, iterations:1000 }
   var_all: 24
   var_count: 24
   class_count: 7
   class_labels: !!opencv-matrix
      rows: 1
      cols: 7
      dt: i
      data: [ 0, 1, 2, 3, 4, 5, 6 ]
   sv_total: 109
   support_vectors:
      - [ 432473., 13462032., 13333044., 528364256., 417592928.,
          553213440., 2.32660746e+10, 1.65827103e+10, 1.73227991e+10,
          2.59175608e+10, 109317752., 2.56155625e+06, 142158720.,
          13443634., 133887720., -55587992., 96675632., 5.84484078e-04,
          1.36957533e-05, 7.60073308e-04, 1.09299755e-07, 1.08853715e-06,
          -4.51942810e-07, 7.85994530e-07 ]
      - [ 379507., 12028528., 12605367., 449280864., 399128864.,
          523396352., 1.85538150e+10, 1.48921313e+10, 1.65324237e+10,
          2.41980498e+10, 68034968., -4.00020562e+05, 104707688.,
          1.03841575e+06, -5424581., -30123740., -142371936.,
          4.72381187e-04, -2.77742743e-06, 7.27007631e-04,
          1.17036629e-08, -6.11387776e-08, -3.39515339e-07,
          -1.60462992e-06 ]
      - [ 381472., 11956481., 12663752., 440374080., 396104896.,
          523874624., 1.79378156e+10, 1.45822013e+10, 1.63370107e+10,
          2.41296855e+10, 65621964., -8.15223188e+05, 103475184.,
          21586010., 14176324., -28671596., -131560960., 4.50945343e-04,
          -5.60210447e-06, 7.11067580e-04, 2.40168305e-07,
          1.57727342e-07, -3.19003306e-07, -1.46376169e-06 ]
      - [ 492253., 15375477., 14816186., 609441152., 464988608.,
          601174720., 2.71211049e+10, 1.85525637e+10, 1.88840960e+10,
          2.75674993e+10, 129189568., 2.20639950e+06, 155226464.,
          14818455., 71330680., -26359762., 128671416., 5.33151557e-04,
          9.10557537e-06, 6.40603073e-04, 8.71629666e-08, 4.19570995e-07,
          -1.55049563e-07, 7.56852330e-07 ]
      - [ 367731., 11635659., 9899993., 434678144., 312265568.,
          361506080., 1.79478958e+10, 1.16618609e+10, 1.13854413e+10,
          1.50664550e+10, 66505320., -987719., 94980120., -14780397.,
          22034538., -6.81605312e+04, 219970352., 4.91808343e-04,
          -7.30420470e-06, 7.02380145e-04, -1.80243859e-07,
          2.68706600e-07, -8.31203550e-10, 2.68249278e-06 ]
      - [ 302843., 9496460., 9120038., 364124064., 285808448.,
          366274592., 1.55767357e+10, 1.11504609e+10, 1.14172160e+10,
          1.66998579e+10, 66336928., -1.74962359e+05, 91627032.,
          -1.70505788e+06, 195932736., -57774780., 150944864.,
          7.23303005e-04, -1.90769765e-06, 9.99053009e-04,
          -3.37827686e-08, 3.88206809e-06, -1.14470731e-06,
          2.99071121e-06 ]
      - [ 302886., 9904131., 9119171., 383692800., 302903488.,
          367540800., 1.64093993e+10, 1.18099927e+10, 1.22697400e+10,
          1.67548774e+10, 59835608., 4.71386550e+06, 92984432.,
          -50202988., -50356868., -32397758., 90029888., 6.52230810e-04,
          5.13829182e-05, 1.01356546e-03, -9.94332368e-07,
          -9.97380084e-07, -6.41677730e-07, 1.78315338e-06 ]
      - [ 297172., 9809493., 8632695., 373348832., 285948224.,
          338803904., 1.55245076e+10, 1.08609690e+10, 1.12349041e+10,
          1.50919660e+10, 49542580., 9.87456562e+05, 88028528.,
          -70292400., -49814928., -6207367., 135517760., 5.60999964e-04,
          1.11815561e-05, 9.96799208e-04, -1.46012030e-06,
          -1.03476032e-06, -1.28940016e-07, 2.81498751e-06 ]
      - [ 361672., 11327991., 9736451., 420158336., 303614368.,
          354942016., 1.72599706e+10, 1.12489482e+10, 1.10495488e+10,
          1.47679816e+10, 65352380., -1.34269062e+06, 92830288.,
          6292152., 22115830., 4640538., 214599680., 4.99610614e-04,
          -1.02646982e-05, 7.09675660e-04, 7.99856323e-08,
          2.81135726e-07, 5.89903664e-08, 2.72798411e-06 ]
      - [ 280969., 8985329., 8172872., 331294304., 261671472.,
          319231296., 1.33591644e+10, 9.60032358e+09, 1.02209055e+10,
          1.41752812e+10, 43945384., 3.04760688e+05, 81497472.,
          -46284972., -55911700., -5773468., 148205824., 5.56668208e-04,
          3.86048714e-06, 1.03235093e-03, -1.10609892e-06,
          -1.33615447e-06, -1.37971938e-07, 3.54176109e-06 ]
      - [ 491370., 15461132., 14819810., 615132544., 469918784.,
          601674624., 2.74339021e+10, 1.88481638e+10, 1.91287972e+10,
          2.75974328e+10, 128642552., 3.60817475e+06, 154706384.,
          -17031346., 68587336., -20755468., 118870568., 5.32803882e-04,
          1.49441184e-05, 6.40753482e-04, -1.00629975e-07,
          4.05249381e-07, -1.22634020e-07, 7.02348643e-07 ]
      - [ 372956., 11902903., 12323507., 442495168., 392583968.,
          507518208., 1.81291909e+10, 1.45845197e+10, 1.61110569e+10,
          2.32888300e+10, 62613632., -721177., 100315152., 10311515.,
          9277620., -38743820., -110373096., 4.50146326e-04,
          -5.18473644e-06, 7.21192686e-04, 1.21388766e-07,
          1.09217588e-07, -4.56098320e-07, -1.29932926e-06 ]
      - [ 491172., 15374669., 14805118., 609769344., 465994560.,
          601161920., 2.71430001e+10, 1.86103603e+10, 1.89486305e+10,
          2.75809034e+10, 128511368., 2.56465825e+06, 154899648.,
          10667755., 69872792., -23552896., 122319248., 5.32689737e-04,
          1.06307107e-05, 6.42071303e-04, 6.30941415e-08, 4.13260693e-07,
          -1.39302955e-07, 7.23453809e-07 ]
      - [ 444690., 13788298., 13639588., 542374336., 424848736.,
          566616640., 2.39943721e+10, 1.68933868e+10, 1.76368148e+10,
          2.65898168e+10, 114846960., 1.93229950e+06, 148261456.,
          55206020., 137783776., -50542148., 115491272., 5.80770778e-04,
          9.77146556e-06, 7.49744941e-04, 4.18642230e-07, 1.04485184e-06,
          -3.83274823e-07, 8.75801618e-07 ]
      - [ 488627., 15478834., 14756271., 618254720., 471383680.,
          599089728., 2.76371907e+10, 1.89911286e+10, 1.92041431e+10,
          2.74684129e+10, 127912800., 3931282., 153458304., -52119224.,
          71097496., -11398566., 107511440., 5.35746163e-04,
          1.64656649e-05, 6.42740226e-04, -3.12287256e-07,
          4.26001037e-07, -6.82977728e-08, 6.44185604e-07 ]
      - [ 490758., 15359238., 14804103., 608310016., 465970560.,
          601128192., 2.70344520e+10, 1.85794212e+10, 1.89522166e+10,
          2.75784028e+10, 127612432., 2.64699075e+06, 154550720.,
          8427617., 63582604., -20970740., 120607256., 5.29856421e-04,
          1.09905050e-05, 6.41706225e-04, 4.99500921e-08, 3.76851148e-07,
          -1.24292598e-07, 7.14833618e-07 ]
      - [ 289782., 9491211., 8463692., 357876800., 278084960.,
          332141056., 1.47371080e+10, 1.04605092e+10, 1.09232722e+10,
          1.47871252e+10, 47011796., 8.74218375e+05, 84941152.,
          -63956020., -49301336., -6389218., 124478712., 5.59840119e-04,
          1.04106321e-05, 1.01152202e-03, -1.41482565e-06,
          -1.09063694e-06, -1.41341332e-07, 2.75369962e-06 ]
      - [ 293441., 9664939., 8570283., 366569920., 283123072.,
          336947264., 1.51829627e+10, 1.07147960e+10, 1.11423406e+10,
          1.50287012e+10, 48240012., 8.47378375e+05, 86642256.,
          -68312392., -47120640., -5042302., 126793128., 5.60229295e-04,
          9.84092185e-06, 1.00620894e-03, -1.46452737e-06,
          -1.01020430e-06, -1.08100295e-07, 2.71827707e-06 ]
      - [ 490074., 15523467., 14745602., 619856768., 471416224.,
          597934592., 2.77042913e+10, 1.89874340e+10, 1.91891087e+10,
          2.74016543e+10, 128139112., 4338055., 154261200., -47950240.,
          62039416., -11974573., 127703720., 5.33529441e-04,
          1.80622446e-05, 6.42293307e-04, -2.85191533e-07,
          3.68989106e-07, -7.12206472e-08, 7.59537784e-07 ]
      - [ 489905., 15511228., 14778796., 619471040., 471983264.,
          600138432., 2.76938629e+10, 1.90141911e+10, 1.92339210e+10,
          2.75250627e+10, 128359072., 4.06138325e+06, 154311600.,
          -47780264., 69641704., -12522895., 110760832., 5.34814084e-04,
          1.69219438e-05, 6.42946456e-04, -2.84425710e-07,
          4.14562237e-07, -7.45461222e-08, 6.59335569e-07 ]
      - [ 400964., 12459245., 11908672., 493086336., 366931200.,
          479082784., 2.19146220e+10, 1.46772460e+10, 1.46915185e+10,
          2.18206228e+10, 105937392., -3.10966375e+06, 125394000.,
          9205550., 225785776., -10415041., 143384832., 6.58928824e-04,
          -1.93420565e-05, 7.79948663e-04, 9.04245354e-08,
          2.21785490e-06, -1.02305158e-07, 1.40844463e-06 ]
      - [ 280826., 9172985., 8206777., 345298720., 268718016.,
          323517856., 1.42062838e+10, 1.00965396e+10, 1.05978634e+10,
          1.45007667e+10, 45669588., 6.49372625e+05, 83685408.,
          -56188100., -36792088., -7.57565550e+06, 155179504.,
          5.79098531e-04, 8.23416121e-06, 1.06114591e-03,
          -1.34446987e-06, -8.80361711e-07, -1.81270408e-07,
          3.71313786e-06 ]
      - [ 282381., 9063018., 8341205., 337188672., 267433088.,
          331219840., 1.37556972e+10, 9.90915482e+09, 1.06138214e+10,
          1.49341215e+10, 46311128., -2.77883719e+05, 84830392.,
          -39084580., -33167588., -2.62795219e+05, 138691808.,
          5.80783701e-04, -3.48491471e-06, 1.06385036e-03,
          -9.22394690e-07, -7.82753830e-07, -6.20195761e-09,
          3.27312159e-06 ]
      - [ 490587., 15578148., 14748360., 623468992., 474129760.,
          598826240., 2.79228088e+10, 1.91911588e+10, 1.93547571e+10,
          2.74946273e+10, 128798944., 5.80886750e+06, 155451008.,
          -54675156., 79099072., -9691293., 145758064., 5.35155821e-04,
          2.41356720e-05, 6.45894324e-04, -3.24339567e-07,
          4.69225171e-07, -5.74899133e-08, 8.64654339e-07 ]
      - [ 284374., 9096834., 8412036., 337840512., 268700384.,
          334683808., 1.37637089e+10, 9.93622426e+09, 1.06834872e+10,
          1.51154401e+10, 46842060., -3.92047500e+05, 85848288.,
          -40322904., -32316328., 4.87876469e+05, 136258320.,
          5.79236890e-04, -4.84795873e-06, 1.06157793e-03,
          -9.35033313e-07, -7.49371736e-07, 1.13131922e-08,
          3.15964508e-06 ]
      - [ 282373., 9111124., 8291519., 340403136., 266968736.,
          328026688., 1.39340616e+10, 9.92707789e+09, 1.05494118e+10,
          1.47438121e+10, 46421132., -5.67674688e+05, 84556936.,
          -45152448., -31787226., -1.44898988e+06, 145920096.,
          5.82196226e-04, -7.11956045e-06, 1.06048107e-03,
          -1.06567154e-06, -7.50230527e-07, -3.41985320e-08,
          3.44395266e-06 ]
      - [ 281866., 9067240., 8298437., 337909792., 266468848.,
          328784128., 1.38009303e+10, 9.88647117e+09, 1.05459917e+10,
          1.47935898e+10, 46229204., -4.80413250e+05, 84469264.,
          -43420416., -31046666., -2.25191525e+06, 140101296.,
          5.81876782e-04, -6.04685556e-06, 1.06319599e-03,
          -1.02940737e-06, -7.36051561e-07, -5.33882023e-08,
          3.32150898e-06 ]
      - [ 281973., 9063436., 8337086., 337404864., 267636144.,
          331064896., 1.37641390e+10, 9.92014643e+09, 1.06216694e+10,
          1.49245204e+10, 46079556., -3.42160719e+05, 84562576.,
          -43301772., -33895084., 5.09067781e+05, 135418256.,
          5.79553074e-04, -4.30343334e-06, 1.06356281e-03,
          -1.02562080e-06, -8.02819500e-07, 1.20574875e-08,
          3.20743925e-06 ]
      - [ 487621., 15566833., 14678953., 624362752., 475321664.,
          596480064., 2.79810580e+10, 1.93030124e+10, 1.94444247e+10,
          2.74214298e+10, 127406560., 6.71015550e+06, 154596592.,
          -85788960., 79262536., -1.62427088e+06, 157765904.,
          5.35829924e-04, 2.82207002e-05, 6.50182250e-04,
          -5.16684452e-07, 4.77377512e-07, -9.78255876e-09,
          9.50182709e-07 ]
      - [ 296753., 9180026., 8932782., 348717536., 274979648.,
          359795744., 1.48003328e+10, 1.06022472e+10, 1.10064179e+10,
          1.64628972e+10, 64734288., -1.35511662e+06, 90903440.,
          7691301., 189083376., -42246052., 159715600., 7.35096110e-04,
          -1.53881520e-05, 1.03226234e-03, 1.60328966e-07,
          3.94153676e-06, -8.80639789e-07, 3.32935042e-06 ]
      - [ 381626., 11728592., 12661309., 430092384., 388254880.,
          526771040., 1.75107666e+10, 1.42276966e+10, 1.61254769e+10,
          2.44361933e+10, 69635104., -8.67797375e+05, 106703360.,
          12426098., 11745920., -6.30557650e+06, -120883520.,
          4.78136964e-04, -5.95857546e-06, 7.32659479e-04,
          1.38114700e-07, 1.30554582e-07, -7.00857825e-08,
          -1.34360687e-06 ]
      - [ 491484., 15517456., 14846789., 619622400., 474333888.,
          604823552., 2.77289861e+10, 1.91695053e+10, 1.94168238e+10,
          2.78331003e+10, 129695064., 5581300., 156330528., -23774612.,
          99468456., -16263264., 117650040., 5.36913925e-04,
          2.31055656e-05, 6.47179899e-04, -1.40391222e-07,
          5.87370209e-07, -9.60360396e-08, 6.94734126e-07 ]
      - [ 283009., 9070501., 8373480., 337090752., 267977712.,
          332923008., 1.37354762e+10, 9.91799910e+09, 1.06467420e+10,
          1.50260797e+10, 46379176., -3.94169688e+05, 85174128.,
          -41282616., -30348750., -1.89764734e+05, 135627088.,
          5.79058658e-04, -4.92133267e-06, 1.06342579e-03,
          -9.68872428e-07, -7.12262647e-07, -4.45363790e-09,
          3.18306729e-06 ]
      - [ 488749., 15604232., 14702695., 626193408., 476065952.,
          597296896., 2.80787538e+10, 1.93381663e+10, 1.94693140e+10,
          2.74543636e+10, 127998944., 6654730., 155006000., -86865744.,
          75896184., -8.94212125e+05, 160424320., 5.35839354e-04,
          2.78585612e-05, 6.48898422e-04, -5.20156277e-07,
          4.54470040e-07, -5.35458522e-09, 9.60628540e-07 ]
      - [ 379239., 12205861., 12623388., 461012160., 408845600.,
          524624672., 1.92023265e+10, 1.55006720e+10, 1.70261729e+10,
          2.42676859e+10, 68164776., 2560056., 104441304., -23200540.,
          -9416815., -29375050., -147913008., 4.73951659e-04,
          1.78001428e-05, 7.26183411e-04, -2.61948315e-07,
          -1.06321608e-07, -3.31662335e-07, -1.67002850e-06 ]
      - [ 350986., 10797554., 11695103., 392058432., 358744416.,
          484597440., 1.57629604e+10, 1.29865277e+10, 1.48342170e+10,
          2.23524536e+10, 59887992., -1.03774412e+06, 94908312.,
          17148514., -13288378., -4534918., -119502304., 4.86138655e-04,
          -8.42385180e-06, 7.70414830e-04, 2.34964361e-07,
          -1.82073819e-07, -6.21362375e-08, -1.63738866e-06 ]
      - [ 489479., 15512066., 14807363., 620003328., 474891168.,
          602339328., 2.77434982e+10, 1.92044974e+10, 1.94131354e+10,
          2.76529070e+10, 128410824., 5631412., 154397712., -43937212.,
          91678528., -16298734., 89921160., 5.35961415e-04,
          2.35044008e-05, 6.44425512e-04, -2.62118277e-07,
          5.46930949e-07, -9.72341212e-08, 5.36446862e-07 ]
      - [ 386391., 12164312., 12861910., 454747392., 407144576.,
          535913248., 1.88243702e+10, 1.52897884e+10, 1.69959741e+10,
          2.48777789e+10, 71792080., 2.22758775e+06, 107775112.,
          -12227737., 12221430., -23879634., -136405008., 4.80864313e-04,
          1.49204125e-05, 7.21879129e-04, -1.31758483e-07,
          1.31690527e-07, -2.57312081e-07, -1.46981552e-06 ]
      - [ 394228., 12467340., 12765433., 498121120., 400419168.,
          524739264., 2.22433444e+10, 1.60139489e+10, 1.63838239e+10,
          2.42275901e+10, 103845312., -3.28375175e+06, 111383832.,
          -77736800., 92064128., 1.76685738e+06, 22690766.,
          6.68177672e-04, -2.11288261e-05, 7.16683164e-04,
          -7.96632492e-07, 9.43456314e-07, 1.81064301e-08,
          2.32530795e-07 ]
      - [ 485969., 15454810., 14648365., 619073920., 471616224.,
          594058240., 2.77540987e+10, 1.90733312e+10, 1.92385208e+10,
          2.72199496e+10, 127579296., 5768210., 152518544., -48286908.,
          45956340., -1.48458862e+06, 118887032., 5.40210574e-04,
          2.44244020e-05, 6.45811146e-04, -2.93297262e-07,
          2.79141233e-07, -9.01746944e-09, 7.22126117e-07 ]
      - [ 277994., 9091681., 8452668., 342901152., 277054496.,
          337056736., 1.41304084e+10, 1.04000389e+10, 1.10546299e+10,
          1.51649260e+10, 45561400., 6.13406938e+05, 80045440.,
          -64168384., -66313732., -5975665., 48687876., 5.89557574e-04,
          7.93739218e-06, 1.03577576e-03, -1.57482589e-06,
          -1.62747722e-06, -1.46655267e-07, 1.19490187e-06 ]
      - [ 482650., 15153786., 14564201., 601752960., 460334112.,
          590870848., 2.67995566e+10, 1.83935406e+10, 1.87452518e+10,
          2.70874481e+10, 125968816., 3.06116050e+06, 151388928.,
          -3.81030975e+06, 43126264., 8906512., 121159760.,
          5.40752371e-04, 1.31407905e-05, 6.49874448e-04,
          -2.35439597e-08, 2.66477826e-07, 5.50334676e-08,
          7.48647949e-07 ]
      - [ 293934., 9192297., 9008095., 350624672., 281225984.,
          364867904., 1.49015368e+10, 1.08947241e+10, 1.13182822e+10,
          1.67248486e+10, 63150876., -4.87198500e+05, 88799896.,
          -13544481., 179722048., -62493176., 100025912., 7.30936648e-04,
          -5.63905451e-06, 1.02780992e-03, -2.89159715e-07,
          3.83686756e-06, -1.33416040e-06, 2.13544286e-06 ]
      - [ 483966., 15350425., 14789065., 614900544., 474379072.,
          603716544., 2.75862118e+10, 1.92124539e+10, 1.94667377e+10,
          2.77654897e+10, 128016008., 5299763., 151791344., -38011468.,
          86087336., -5835505., 40179184., 5.46555908e-04,
          2.26269876e-05, 6.48063084e-04, -2.33279991e-07,
          5.28326211e-07, -3.58130485e-08, 2.46583483e-07 ]
      - [ 276318., 8918766., 8274943., 332445344., 266985424.,
          328206336., 1.35635343e+10, 9.88780544e+09, 1.05885788e+10,
          1.47311411e+10, 44572736., -1.06403992e+05, 80395200.,
          -44229560., -61124716., 1.37642338e+06, 87070992.,
          5.83782326e-04, -1.39360463e-06, 1.05295971e-03,
          -1.10202052e-06, -1.52297901e-06, 3.42948638e-08,
          2.16945455e-06 ]
      - [ 458990., 14260937., 13498443., 560664128., 418162240.,
          545164544., 2.47302103e+10, 1.64770755e+10, 1.68384317e+10,
          2.49905070e+10, 117573136., -1.23785750e+06, 148188672.,
          4179027., 65418208., -27162332., 241590016., 5.58086671e-04,
          -5.87576187e-06, 7.03410013e-04, 2.92797342e-08,
          4.58342981e-07, -1.90308853e-07, 1.69266457e-06 ]
      - [ 486344., 15444887., 14698722., 618154752., 472441120.,
          596667648., 2.76979999e+10, 1.90963548e+10, 1.92817930e+10,
          2.73505772e+10, 127669560., 5651969., 152429744., -41653492.,
          54950528., -8293963., 103819472., 5.39759465e-04,
          2.38953089e-05, 6.44440181e-04, -2.52518106e-07,
          3.33129378e-07, -5.02809172e-08, 6.29390115e-07 ]
      - [ 278434., 8902469., 8364385., 329837216., 267043440.,
          332595072., 1.34081024e+10, 9.82703104e+09, 1.06143969e+10,
          1.49632768e+10, 45195412., -3.94010188e+05, 81322112.,
          -27997508., -56352676., 3.88973475e+06, 85883792.,
          5.82974870e-04, -5.08233052e-06, 1.04897248e-03,
          -6.84405848e-07, -1.37755478e-06, 9.50855110e-08,
          2.09945006e-06 ]
      - [ 483973., 15425166., 14620685., 619178112., 471854944.,
          593486144., 2.78049956e+10, 1.91355474e+10, 1.92700539e+10,
          2.72027238e+10, 127547928., 5865133., 151799424., -59827404.,
          56487768., 1.23786398e+05, 102044072., 5.44541690e-04,
          2.50400735e-05, 6.48078916e-04, -3.67153206e-07,
          3.46658283e-07, 7.59661445e-10, 6.26231554e-07 ]
      - [ 351373., 11231413., 9669458., 421861824., 309856640.,
          358992064., 1.74890476e+10, 1.16512420e+10, 1.14941594e+10,
          1.51629722e+10, 62856912., 7.78589312e+05, 92897592.,
          -13858245., -7.77756050e+06, -23644982., 170933680.,
          5.09115402e-04, 6.30625709e-06, 7.52432737e-04,
          -1.89359568e-07, -1.06272871e-07, -3.23085914e-07,
          2.33564424e-06 ]
      - [ 485920., 15444573., 14753860., 618843200., 475051648.,
          600112320., 2.77526712e+10, 1.92429834e+10, 1.94366935e+10,
          2.75350323e+10, 127949984., 6112178., 152144768., -50330340.,
          64670220., -8555241., 74919808., 5.41889458e-04,
          2.58860891e-05, 6.44358399e-04, -3.05786244e-07,
          3.92909385e-07, -5.19780912e-08, 4.55181606e-07 ]
      - [ 482832., 15212562., 14527025., 605843648., 461363584.,
          588633664., 2.70458614e+10, 1.85124762e+10, 1.87744133e+10,
          2.69586166e+10, 126542264., 3.66139125e+06, 151557264.,
          -16342219., 53666300., 8044000., 128480880., 5.42804599e-04,
          1.57055820e-05, 6.50106755e-04, -1.00883682e-07,
          3.31292455e-07, 4.96571673e-08, 7.93137303e-07 ]
      - [ 378245., 11637703., 11363309., 453692320., 348143648.,
          459761408., 1.98612562e+10, 1.37335357e+10, 1.40591063e+10,
          2.10692506e+10, 95627760., -1.47847362e+06, 118382704.,
          17738414., 194602560., 2169336., 144058464., 6.68401772e-04,
          -1.03339698e-05, 8.27450189e-04, 2.01595938e-07,
          2.21164555e-06, 2.46543657e-08, 1.63721529e-06 ]
      - [ 294676., 9300736., 8781590., 342331744., 276173216.,
          353368320., 1.38383483e+10, 1.00930202e+10, 1.10849720e+10,
          1.61546179e+10, 48776488., -9.96457938e+05, 91669616.,
          -45549800., -45849224., -8854679., 160286000., 5.61721448e-04,
          -1.14754430e-05, 1.05568871e-03, -9.66328003e-07,
          -9.72680255e-07, -1.87849878e-07, 3.40042880e-06 ]
      - [ 279967., 9002113., 8306569., 334202784., 267588048.,
          330226080., 1.35577958e+10, 9.88756378e+09, 1.06447862e+10,
          1.49144740e+10, 44747100., 4.97021781e+05, 83771720.,
          -65838748., -60133180., -2.86053075e+06, 145745072.,
          5.70888398e-04, 6.34105800e-06, 1.06876867e-03,
          -1.58750265e-06, -1.44993010e-06, -6.89730655e-08,
          3.51420249e-06 ]
      - [ 496671., 15698675., 15084407., 626848960., 483075360.,
          617449216., 2.80453571e+10, 1.95068969e+10, 1.99056589e+10,
          2.85413622e+10, 130648488., 6.29053250e+06, 159320352.,
          -26977174., 71191200., 7.34997350e+06, 111351608.,
          5.29622892e-04, 2.55005652e-05, 6.45852939e-04,
          -1.55175968e-07, 4.09500387e-07, 4.22779358e-08,
          6.40507892e-07 ]
      - [ 498500., 15866800., 15109914., 636171648., 487288256.,
          618207168., 2.85369897e+10, 1.97534966e+10, 2.00840909e+10,
          2.85722051e+10, 131145920., 6353496., 160214192., -60283732.,
          66197812., 21963030., 121447696., 5.27745404e-04,
          2.55671566e-05, 6.44719286e-04, -3.43587374e-07,
          3.77294725e-07, 1.25178389e-07, 6.92191691e-07 ]
      - [ 493768., 15758691., 15084489., 632706688., 488229696.,
          619489664., 2.84005581e+10, 1.98374810e+10, 2.01991885e+10,
          2.87068877e+10, 129765336., 6.80562550e+06, 158662288.,
          -75350520., 74045680., 12249501., 87446528., 5.32246486e-04,
          2.79140058e-05, 6.50770438e-04, -4.39823992e-07,
          4.32207543e-07, 7.15008213e-08, 5.10428833e-07 ]
      - [ 275853., 8870617., 8208727., 329441280., 263766448.,
          326546560., 1.33890150e+10, 9.71544166e+09, 1.04850862e+10,
          1.47641068e+10, 44188448., -2.01941578e+05, 82274424.,
          -46781920., -74956992., -3.66650250e+06, 150279040.,
          5.80702035e-04, -2.65381300e-06, 1.08120847e-03,
          -1.17053332e-06, -1.87550336e-06, -9.17397784e-08,
          3.76014123e-06 ]
      - [ 363452., 11696623., 10133320., 441963520., 328701408.,
          381538880., 1.84124887e+10, 1.24936980e+10, 1.24060436e+10,
          1.63531100e+10, 65542440., 2.59060150e+06, 99014168.,
          -29371606., 4.67581950e+06, -17107818., 194332496.,
          4.96167690e-04, 1.96113033e-05, 7.49554485e-04,
          -3.68816245e-07, 5.87137876e-08, -2.14821128e-07,
          2.44021317e-06 ]
      - [ 278230., 9104660., 8337903., 342253984., 273272160.,
          333033568., 1.40108913e+10, 1.02169661e+10, 1.09110886e+10,
          1.50968863e+10, 44317624., 4.26760344e+05, 83166088.,
          -89313600., -67516672., -12513610., 132062232., 5.72490855e-04,
          5.51284984e-06, 1.07433158e-03, -2.18729656e-06,
          -1.65348831e-06, -3.06459242e-07, 3.23421409e-06 ]
      - [ 275957., 8874592., 8212708., 329679712., 263834944.,
          326699136., 1.34041917e+10, 9.71734630e+09, 1.04868844e+10,
          1.47703388e+10, 44278800., -2.80234969e+05, 82282160.,
          -46040384., -76170336., -2.86027950e+06, 149932704.,
          5.81450877e-04, -3.67992925e-06, 1.08049531e-03,
          -1.15089415e-06, -1.90406752e-06, -7.14998194e-08,
          3.74794195e-06 ]
      - [ 278736., 8931167., 8275484., 331225152., 264886640.,
          329295264., 1.34447350e+10, 9.75686451e+09, 1.05342269e+10,
          1.48926915e+10, 45055632., -2.73685531e+05, 83601720.,
          -55586604., -59448068., -6.91901812e+05, 151979264.,
          5.79913147e-04, -3.52261918e-06, 1.07604160e-03,
          -1.35515040e-06, -1.44928936e-06, -1.68679311e-08,
          3.70511498e-06 ]
      - [ 323292., 9906018., 9817211., 382146976., 299770048.,
          402012480., 1.65804052e+10, 1.17396920e+10, 1.22296515e+10,
          1.86934620e+10, 78615832., -1.03996031e+06, 103899224.,
          53257904., 198998832., -25287940., 175705904., 7.52177089e-04,
          -9.95008577e-06, 9.94082424e-04, 8.96182939e-07,
          3.34859874e-06, -4.25525940e-07, 2.95664358e-06 ]
      - [ 497941., 15809669., 15070390., 632727040., 484543232.,
          615764992., 2.83485614e+10, 1.95967734e+10, 1.99389061e+10,
          2.84362240e+10, 130768712., 6057076., 159653408., -44410720.,
          62401852., 21676204., 135890592., 5.27409662e-04,
          2.44290877e-05, 6.43905893e-04, -2.53830081e-07,
          3.56658660e-07, 1.23890644e-07, 7.76684601e-07 ]
      - [ 277226., 8981892., 8236950., 335610144., 266930992.,
          327682784., 1.36989522e+10, 9.90519706e+09, 1.06182564e+10,
          1.48124856e+10, 44604292., 6.06646523e+04, 82946208.,
          -64821068., -70395552., -1.99894362e+06, 147359024.,
          5.80375083e-04, 7.89346700e-07, 1.07926631e-03,
          -1.60188472e-06, -1.73964384e-06, -4.93987145e-08,
          3.64159678e-06 ]
      - [ 428498., 13396110., 13211735., 527278752., 416677952.,
          548006976., 2.32690094e+10, 1.66382653e+10, 1.72813742e+10,
          2.56312136e+10, 108476880., 3640190., 140654016., 2108278.,
          153250912., -75413992., 61220880., 5.90798794e-04,
          1.98256057e-05, 7.66045472e-04, 1.75410619e-08, 1.27506132e-06,
          -6.27451186e-07, 5.09363190e-07 ]
      - [ 282501., 9109746., 8349920., 340156096., 268706976.,
          328746112., 1.39194184e+10, 9.97013914e+09, 1.05727293e+10,
          1.46673377e+10, 46396160., -5.51000062e+05, 81946392.,
          -41771328., -48363728., 4.30014950e+06, 106343688.,
          5.81355882e-04, -6.90417301e-06, 1.02680945e-03,
          -9.84755161e-07, -1.14017041e-06, 1.01375640e-07,
          2.50704261e-06 ]
      - [ 449826., 13822482., 13309257., 538498944., 408420640.,
          540940224., 2.35751383e+10, 1.59693619e+10, 1.65663017e+10,
          2.49485046e+10, 113754680., -5.52965938e+05, 147151664.,
          36845520., 70472504., -23261724., 235680208., 5.62186178e-04,
          -2.73280898e-06, 7.27237144e-04, 2.71502159e-07,
          5.19287994e-07, -1.71407763e-07, 1.73664773e-06 ]
      - [ 444299., 13510049., 13069365., 522052000., 395535328.,
          529008288., 2.26992476e+10, 1.53106924e+10, 1.59654963e+10,
          2.43152179e+10, 111244368., -1.87218612e+06, 144563808.,
          59578832., 68025448., -10212356., 249178912., 5.63543406e-04,
          -9.48414890e-06, 7.32333574e-04, 4.52797110e-07,
          5.16991065e-07, -7.76135636e-08, 1.89375123e-06 ]
      - [ 471868., 14836454., 14283487., 589601856., 450345376.,
          581534656., 2.62734459e+10, 1.80211835e+10, 1.83231406e+10,
          2.67363144e+10, 123114672., 1.24458675e+06, 149172240.,
          -6.72391250e+06, 95617280., -36797068., 102292184.,
          5.52928250e-04, 5.58964348e-06, 6.69957080e-04,
          -4.39613181e-08, 6.25151245e-07, -2.40581329e-07,
          6.68792097e-07 ]
      - [ 472392., 14842329., 14310516., 589354752., 451114016.,
          582732288., 2.62470656e+10, 1.80422533e+10, 1.83629537e+10,
          2.67976909e+10, 123015936., 1.48450838e+06, 149213360.,
          -3.79168625e+05, 95214784., -36156252., 104096944.,
          5.51259785e-04, 6.65238804e-06, 6.68655848e-04,
          -2.47215692e-09, 6.20794765e-07, -2.35736636e-07,
          6.78705931e-07 ]
      - [ 282595., 9067174., 8335274., 337186112., 266689328.,
          327884448., 1.37546998e+10, 9.84823398e+09, 1.04799089e+10,
          1.46187397e+10, 46262188., -7.51280812e+05, 82031560.,
          -32733636., -49020828., 3.92414950e+06, 108512320.,
          5.79291605e-04, -9.40748123e-06, 1.02719292e-03,
          -7.71050964e-07, -1.15470073e-06, 9.24345542e-08,
          2.55604118e-06 ]
      - [ 441800., 13397567., 12982619., 516369792., 391912640.,
          524899136., 2.24025375e+10, 1.51349688e+10, 1.58106583e+10,
          2.41083679e+10, 110089128., -1.78473825e+06, 143395312.,
          66747676., 69305800., -1.99571662e+06, 256265232.,
          5.64018032e-04, -9.14372413e-06, 7.34655128e-04,
          5.14483986e-07, 5.34201718e-07, -1.53827724e-08,
          1.97526515e-06 ]
      - [ 379283., 12079698., 12449077., 449843776., 399188352.,
          513439136., 1.84784937e+10, 1.49473556e+10, 1.64833874e+10,
          2.36286034e+10, 65120212., 2.70052525e+06, 104827304.,
          3523793., 10269877., -46295820., -105256480., 4.52677661e-04,
          1.87724727e-05, 7.28698156e-04, 3.97742461e-08, 1.15919576e-07,
          -5.22556604e-07, -1.18806554e-06 ]
      - [ 472518., 14839235., 14312034., 589501568., 450407776.,
          583219776., 2.62673244e+10, 1.80134605e+10, 1.83317668e+10,
          2.68351488e+10, 123481448., 9.44190625e+05, 149724528.,
          -1.50011312e+06, 98824208., -41209940., 100110352.,
          5.53050777e-04, 4.22885660e-06, 6.70588692e-04,
          -9.77412995e-09, 6.43898545e-07, -2.68507307e-07,
          6.52278572e-07 ]
      - [ 283330., 9099219., 8343176., 338735136., 267349664.,
          327983456., 1.38304963e+10, 9.88762522e+09, 1.05021962e+10,
          1.46173911e+10, 46511280., -5.93665688e+05, 82303200.,
          -35518356., -48925624., 3.88265075e+06, 112171536.,
          5.79392887e-04, -7.39531743e-06, 1.02525426e-03,
          -8.31230466e-07, -1.14499858e-06, 9.08650648e-08,
          2.62513277e-06 ]
      - [ 282442., 9062750., 8329207., 337026784., 266624864.,
          327579712., 1.37469020e+10, 9.84958669e+09, 1.04784118e+10,
          1.46029496e+10, 46229236., -6.35398250e+05, 81951632.,
          -34042260., -48547600., 4.79853550e+06, 109129944.,
          5.79506275e-04, -7.96503082e-06, 1.02730410e-03,
          -8.02962404e-07, -1.14510306e-06, 1.13184129e-07,
          2.57407237e-06 ]
      - [ 282533., 9059386., 8330424., 336806208., 266466000.,
          327583616., 1.37369590e+10, 9.83960269e+09, 1.04685824e+10,
          1.46007020e+10, 46318120., -6.48018062e+05, 81962888.,
          -33061002., -49498328., 2.86747450e+06, 108654624.,
          5.80246560e-04, -8.11799418e-06, 1.02678349e-03,
          -7.79189463e-07, -1.16658816e-06, 6.75813112e-08,
          2.56079761e-06 ]
      - [ 368915., 11793879., 10082718., 444150528., 321226208.,
          372806624., 1.84571412e+10, 1.20743045e+10, 1.18428918e+10,
          1.57064653e+10, 67110888., -1.10915625e+06, 97238528.,
          -32899580., 6.26162150e+06, -14771110., 202185264.,
          4.93106083e-04, -8.14967188e-06, 7.14472902e-04,
          -3.97992210e-07, 7.57479768e-08, -1.78688808e-07,
          2.44587181e-06 ]
      - [ 283587., 9081193., 8369518., 337423552., 267350032.,
          329411840., 1.37620623e+10, 9.86714317e+09, 1.05142333e+10,
          1.46947492e+10, 46620148., -6.63686125e+05, 82401816.,
          -28913806., -48749656., 4784535., 108941712., 5.79696905e-04,
          -8.25258758e-06, 1.02462305e-03, -6.75133208e-07,
          -1.13829742e-06, 1.11718201e-07, 2.54377346e-06 ]
      - [ 378556., 11933459., 12400842., 440119872., 392938208.,
          510401376., 1.79169976e+10, 1.45499167e+10, 1.61774223e+10,
          2.34453606e+10, 63933940., 2.01866825e+06, 104171184.,
          11961908., 5.07657550e+06, -44537508., -99446336.,
          4.46140039e-04, 1.40865513e-05, 7.26921193e-04, 1.35667278e-07,
          5.75765320e-08, -5.05126991e-07, -1.12788143e-06 ]
      - [ 472549., 14850044., 14315592., 589878016., 451190080.,
          582939264., 2.62809887e+10, 1.80505661e+10, 1.83625339e+10,
          2.68016353e+10, 123209328., 1.31679675e+06, 149256912.,
          2.65302793e+04, 97800504., -36352632., 98534336.,
          5.51759615e-04, 5.89691717e-06, 6.68406661e-04, 1.72832221e-10,
          6.37124060e-07, -2.36820185e-07, 6.41904535e-07 ]
      - [ 449469., 13842867., 13290351., 539957696., 408344992.,
          539766720., 2.36563640e+10, 1.59753431e+10, 1.65428941e+10,
          2.48785265e+10, 113621336., -9.74820188e+05, 146784256.,
          27920620., 69377248., -23337164., 237633536., 5.62419533e-04,
          -4.82530777e-06, 7.26574217e-04, 2.06146368e-07,
          5.12233214e-07, -1.72305320e-07, 1.75452010e-06 ]
      - [ 472908., 14859068., 14325540., 590381952., 451154368.,
          583835072., 2.63081964e+10, 1.80507832e+10, 1.83683912e+10,
          2.68627866e+10, 123500656., 1.03686569e+06, 149879424.,
          -2.91500650e+06, 101512624., -38894348., 96566800.,
          5.52224868e-04, 4.63627475e-06, 6.70175708e-04,
          -1.89538696e-08, 6.60052365e-07, -2.52897678e-07,
          6.27893769e-07 ]
      - [ 398876., 12301832., 12122477., 482993952., 372250560.,
          493594784., 2.13047665e+10, 1.47960330e+10, 1.51192289e+10,
          2.26316554e+10, 103590136., -1.62170475e+06, 125173400.,
          18936038., 217108192., -5.27630950e+06, 22085924.,
          6.51092385e-04, -1.01928581e-05, 7.86749064e-04,
          1.88449235e-07, 2.16063518e-06, -5.25092112e-08,
          2.19796519e-07 ]
      - [ 503619., 15848604., 15371435., 633182656., 487784672.,
          628162496., 2.83856876e+10, 1.96930540e+10, 2.00301609e+10,
          2.89108398e+10, 134436064., 4.05433075e+06, 158996304.,
          -1.46238938e+06, 111908632., 14751671., 32338920.,
          5.30043559e-04, 1.59850861e-05, 6.26877649e-04,
          -8.12470802e-09, 6.21739275e-07, 8.19569834e-08,
          1.79667808e-07 ]
      - [ 265657., 8633127., 7997091., 323944224., 260419824.,
          316450400., 1.32941476e+10, 9.73149798e+09, 1.02936996e+10,
          1.41586278e+10, 43391180., 5.36208250e+05, 75713424.,
          -53345140., -55068136., -22357068., 74086288., 6.14835473e-04,
          7.59785462e-06, 1.07282866e-03, -1.46653258e-06,
          -1.51390009e-06, -6.14627083e-07, 2.03673562e-06 ]
      - [ 344716., 11077810., 9369541., 420030048., 302598016.,
          342298496., 1.75807468e+10, 1.15213138e+10, 1.10580316e+10,
          1.41819034e+10, 64033020., 1.49800262e+06, 87630008.,
          -32895190., 8421770., -23521256., 114422800., 5.38866385e-04,
          1.26063596e-05, 7.37445545e-04, -4.71496861e-07,
          1.20711817e-07, -3.37137379e-07, 1.64005712e-06 ]
      - [ 499133., 15832111., 15315492., 636731008., 491228192.,
          628304640., 2.86807736e+10, 2.00298578e+10, 2.02468168e+10,
          2.89956147e+10, 134548736., 5432676., 158361184., -51402324.,
          147641328., -15913354., -1.77432125e+06, 5.40066278e-04,
          2.18062614e-05, 6.35647273e-04, -2.92039800e-07,
          8.38816959e-07, -9.04109427e-08, -1.00807194e-08 ]
      - [ 265006., 8639042., 7955079., 325141184., 259857872.,
          314286624., 1.33785047e+10, 9.73981594e+09, 1.02546442e+10,
          1.40439071e+10, 43513420., 5.26903438e+05, 75487208.,
          -57934032., -54783612., -22551678., 77474312., 6.19600585e-04,
          7.50273512e-06, 1.07488479e-03, -1.60248692e-06,
          -1.51534448e-06, -6.23791720e-07, 2.14298188e-06 ]
      - [ 343504., 11037424., 9347540., 418636640., 301799328.,
          342036192., 1.75330222e+10, 1.14954639e+10, 1.10451876e+10,
          1.41948232e+10, 63983636., 1.44542788e+06, 87667960.,
          -30381124., 10501925., -23740328., 115928544., 5.42257214e-04,
          1.22499077e-05, 7.42980337e-04, -4.39313283e-07,
          1.51858600e-07, -3.43286871e-07, 1.67633527e-06 ]
      - [ 504026., 15833633., 15509603., 633969344., 490960032.,
          637454528., 2.85026222e+10, 1.98886154e+10, 2.02342789e+10,
          2.94611558e+10, 136566592., 3.73642975e+06, 160201792.,
          6.61510150e+06, 145713568., -20870532., -13512380.,
          5.37574408e-04, 1.47079090e-05, 6.30610914e-04, 3.66778750e-08,
          8.07918639e-07, -1.15718066e-07, -7.49203011e-08 ]
      - [ 501159., 15621362., 15372171., 621094016., 480490848.,
          630090816., 2.77647094e+10, 1.92573481e+10, 1.97279519e+10,
          2.90466243e+10, 134168832., 1333053., 158576528., 40704476.,
          123276672., 5.94498450e+06, -8416544., 5.34195919e-04,
          5.30757734e-06, 6.31375646e-04, 2.28930332e-07, 6.93333334e-07,
          3.34358141e-08, -4.73363748e-08 ]
      - [ 342340., 11003817., 9326021., 417336384., 301264896.,
          341211264., 1.74709187e+10, 1.14704292e+10, 1.10277448e+10,
          1.41585152e+10, 63641264., 1499085., 87151952., -34739960.,
          4987516., -21467226., 114859200., 5.43029571e-04,
          1.27911908e-05, 7.43638433e-04, -5.06623337e-07,
          7.27344514e-08, -3.13063055e-07, 1.67502640e-06 ]
      - [ 267967., 8799598., 7955919., 332423264., 261497360.,
          313847872., 1.37124495e+10, 9.82924186e+09, 1.02970337e+10,
          1.40099727e+10, 43458856., 2.37997531e+05, 77637280.,
          -58022416., -56009296., -23350080., 81764344., 6.05223351e-04,
          3.31443744e-06, 1.08120416e-03, -1.56096269e-06,
          -1.50680421e-06, -6.28181454e-07, 2.19968592e-06 ]
      - [ 503191., 15868863., 15523643., 637127936., 493822528.,
          639467072., 2.86977659e+10, 2.00819200e+10, 2.04101509e+10,
          2.96092119e+10, 136680160., 4.26177950e+06, 160556496.,
          -15810517., 157466688., -19332190., -25066440., 5.39808534e-04,
          1.68315946e-05, 6.34106400e-04, -8.80265958e-08,
          8.76711169e-07, -1.07633859e-07, -1.39559859e-07 ]
      - [ 263452., 8595420., 7928152., 323794752., 259327008.,
          312977056., 1.33364961e+10, 9.72862669e+09, 1.02291712e+10,
          1.39732234e+10, 43359424., 6.62074125e+05, 74392456.,
          -56974576., -58641764., -21907866., 77260984., 6.24712964e-04,
          9.53901690e-06, 1.07182993e-03, -1.59929050e-06,
          -1.64608889e-06, -6.14959220e-07, 2.16873491e-06 ]
      - [ 265561., 8744312., 7896867., 330783584., 260489744.,
          311435040., 1.36503562e+10, 9.80910182e+09, 1.02565786e+10,
          1.39013571e+10, 42853528., 4.64099438e+05, 76609496.,
          -63721096., -57823212., -25861374., 84150424., 6.07656257e-04,
          6.58085673e-06, 1.08631060e-03, -1.75336561e-06,
          -1.59107799e-06, -7.11608038e-07, 2.31550416e-06 ]
      - [ 265356., 8632374., 7980689., 324278336., 260061984.,
          315596480., 1.33227438e+10, 9.72580147e+09, 1.02724004e+10,
          1.41130414e+10, 43456036., 4.39848344e+05, 75574016.,
          -53812452., -55617664., -20817822., 75511472., 6.17152196e-04,
          6.24662061e-06, 1.07328407e-03, -1.48357844e-06,
          -1.53334713e-06, -5.73935438e-07, 2.08180791e-06 ]
      - [ 504108., 15885287., 15546046., 637344000., 493896704.,
          639900352., 2.86918287e+10, 2.00628367e+10, 2.03952620e+10,
          2.96081101e+10, 136772000., 4.01476425e+06, 160480144.,
          -11775750., 154940416., -16689478., -23602220., 5.38207823e-04,
          1.57983905e-05, 6.31501141e-04, -6.52648851e-08,
          8.58728185e-07, -9.24983112e-08, -1.30810889e-07 ]
      - [ 273314., 8920404., 8243761., 335632256., 270521920.,
          328088288., 1.37698437e+10, 1.01609329e+10, 1.07768074e+10,
          1.47898214e+10, 44488708., 1.46260638e+06, 79438032.,
          -88538760., -57958936., -19547308., 101888168., 5.95560705e-04,
          1.95795965e-05, 1.06341974e-03, -2.26714224e-06,
          -1.48410868e-06, -5.00532451e-07, 2.60896968e-06 ]
      - [ 271134., 8653036., 8135587., 319809024., 259945328.,
          323004256., 1.29483530e+10, 9.56038451e+09, 1.03208755e+10,
          1.45369129e+10, 43653936., 3.04242375e+05, 78889608.,
          -44473736., -55153500., -5.81828250e+06, 110630392.,
          5.93820878e-04, 4.13858379e-06, 1.07312878e-03,
          -1.16183287e-06, -1.44083128e-06, -1.51996943e-07,
          2.89011086e-06 ]
      - [ 501231., 15945454., 15494603., 643394624., 498916256.,
          636646144., 2.90639114e+10, 2.04331438e+10, 2.06127432e+10,
          2.93816955e+10, 136128528., 5.99287550e+06, 157659984.,
          -65335932., 162523792., -11133279., -46526540., 5.41842775e-04,
          2.38539014e-05, 6.27546106e-04, -3.67330728e-07,
          9.13738972e-07, -6.25933652e-08, -2.61580851e-07 ]
      - [ 275038., 8898581., 8093253., 331589632., 262568160.,
          319423936., 1.34869340e+10, 9.75024845e+09, 1.03628585e+10,
          1.43310418e+10, 43684900., 7.19006875e+05, 81272328.,
          -68082264., -53615456., -14100782., 148660688., 5.77491999e-04,
          9.50490175e-06, 1.07437850e-03, -1.71613817e-06,
          -1.35147570e-06, -3.55436043e-07, 3.74726483e-06 ]
      - [ 270157., 8633217., 8125280., 319307552., 260120288.,
          322793856., 1.29296599e+10, 9.57385318e+09, 1.03354767e+10,
          1.45350953e+10, 43421920., 466429., 78416792., -49434536.,
          -59497048., -7.87619350e+06, 109752624., 5.94944693e-04,
          6.39076870e-06, 1.07442634e-03, -1.30313651e-06,
          -1.56839280e-06, -2.07623174e-07, 2.89317245e-06 ]
      - [ 473049., 14694492., 14058202., 576764032., 436240992.,
          572070912., 2.53984092e+10, 1.71768760e+10, 1.77062277e+10,
          2.64059535e+10, 120303688., -4.54002969e+05, 154285344.,
          8106902., 64648852., -37233536., 234801728., 5.37609216e-04,
          -2.02883371e-06, 6.89465320e-04, 5.26731867e-08,
          4.20044671e-07, -2.41918428e-07, 1.52558346e-06 ]
      - [ 271719., 8713594., 8097979., 322968512., 260242896.,
          320841568., 1.30941297e+10, 9.60848486e+09, 1.03159972e+10,
          1.44193300e+10, 43537476., 5.53651688e+05, 79499352.,
          -55308204., -52380672., -5879161., 118760360., 5.89689240e-04,
          7.49888386e-06, 1.07677164e-03, -1.43710849e-06,
          -1.36104052e-06, -1.52761999e-07, 3.08582639e-06 ]
      - [ 503937., 16064104., 15500531., 648792640., 500842400.,
          635936640., 2.93227704e+10, 2.05435310e+10, 2.06863155e+10,
          2.93307474e+10, 136713888., 6.72875550e+06, 159157872.,
          -75040936., 158415584., 4.93422938e+05, -20975008.,
          5.38344320e-04, 2.64961182e-05, 6.26723049e-04,
          -4.16253272e-07, 8.78733715e-07, 2.73702461e-09,
          -1.16348694e-07 ]
   decision_functions:
      -
         sv_count: 12
         rho: -2.9659211200340501e+00
         alpha: [ 6.8521050344764094e-20, 3.6076749048830836e-18,
             1.0209118403411037e-19, 3.6818060000554106e-18,
             -6.8521050344764094e-20, -1.5359950025229328e-20,
             -8.8329146971211489e-19, -8.3715367746422340e-19,
             -2.7906254177414385e-18, -1.3235777082186935e-18,
             -1.4075813885863229e-19, -1.4008057269522775e-18 ]
         index: [ 0, 9, 18, 19, 20, 22, 23, 25, 26, 31, 32, 33 ]
      -
         sv_count: 16
         rho: -3.9856463226190648e+00
         alpha: [ 3.8993674446279234e-19, 6.4756788000167012e-20,
             2.1130451062897517e-20, 3.7678689285171067e-18,
             3.8756405528922568e-19, 9.5949752595631214e-20,
             3.3019787584513044e-18, -3.8993674446279234e-19,
             -2.0747930146983324e-18, -2.7452614623722797e-19,
             -2.6660930344849376e-19, -2.6366923123179553e-18,
             -1.0132279674702926e-18, -2.0032907454808393e-19,
             -7.8465483091851309e-20, -1.0946054321040965e-18 ]
         index: [ 0, 1, 8, 9, 14, 18, 19, 38, 39, 41, 43, 44, 47, 49, 50,
             51 ]
      -
         sv_count: 12
         rho: -3.7476094303851166e+00
         alpha: [ 3.7107353433991538e-20, 4.0982328577136692e-20,
             4.2171087570179195e-19, 3.2977779335477797e-18,
             5.1497939276968759e-19, 1.4117715151599732e-19,
             2.7095674272245138e-18, -3.7107353433991538e-20,
             -3.2054482339478283e-18, -9.2329699599951355e-20,
             -3.4443945522635703e-19, -3.4839777205627692e-18 ]
         index: [ 0, 1, 2, 9, 10, 15, 19, 52, 56, 57, 58, 61 ]
      -
         sv_count: 33
         rho: 3.5508472773426742e+00
         alpha: [ 2.2414597342589911e-17, 4.6343316118058037e-20,
             2.4745501054451074e-20, 6.8111341669919997e-19,
             1.1260620210641702e-18, 3.9134347277106227e-19,
             1.7216879275531117e-19, 1.6237633369833583e-19,
             3.8067149799448257e-18, 9.1506018187472680e-19,
             7.4533488962233095e-19, 1.1401158161596364e-18,
             4.6128634935099975e-20, 1.3931987472912293e-18,
             3.4139454951347641e-19, 3.1979150008117686e-20,
             3.9808632467009303e-19, 1.9233157529765089e-19,
             -2.2414597342589911e-17, -6.8346567743834085e-20,
             -1.7490629196749950e-18, -3.2059415505570594e-18,
             -9.0670493062900433e-19, -3.7612426030920382e-19,
             -5.8436759486238307e-19, -2.3431182875937914e-18,
             -5.5360054143583582e-19, -8.5086806135388181e-19,
             -1.2504537528334954e-20, -1.7032715555929860e-19,
             -4.5412855667754320e-19, -2.6869735493878844e-20,
             -3.1253300405873110e-19 ]
         index: [ 0, 1, 2, 3, 4, 5, 6, 7, 9, 10, 11, 12, 13, 14, 16, 17,
             18, 19, 66, 68, 69, 70, 72, 73, 75, 76, 77, 78, 79, 80, 81,
             83, 84 ]
      -
         sv_count: 20
         rho: -2.9044857704183893e+00
         alpha: [ 8.8048518043606514e-20, 1.0269107201043640e-19,
             3.1167893001583626e-18, 4.3839674887213768e-20,
             1.7636114909834849e-18, 7.0460548666983919e-21,
             1.5948242864407449e-18, -8.8048518043606514e-20,
             -7.9707780976717169e-19, -4.8787127267003426e-20,
             -6.2016578744892844e-20, -1.6929271700531733e-19,
             -3.1082449993709575e-19, -2.0685133226329055e-19,
             -1.6007062174497566e-18, -3.8724239476233960e-19,
             -1.4956108280175491e-19, -1.3600527377350548e-18,
             -8.4037502926824587e-20, -1.4523518786864401e-18 ]
         index: [ 0, 1, 9, 10, 14, 18, 19, 85, 86, 87, 91, 92, 93, 94,
             95, 96, 97, 98, 99, 100 ]
      -
         sv_count: 13
         rho: -4.3345190585613578e+00
         alpha: [ 6.7055518324033748e-21, 3.7703157030932607e-19,
             2.0685156250608959e-20, 3.2038912443475851e-18,
             1.7260996203059386e-18, 1.5314452265294851e-18,
             -6.7055518324033748e-21, -8.7999591258937989e-19,
             -2.6946993753293738e-18, -6.7857948705634490e-21,
             -6.5622358806458760e-19, -7.3780490606038548e-20,
             -2.5476676562829966e-18 ]
         index: [ 0, 1, 2, 9, 14, 19, 101, 102, 104, 105, 106, 107, 108 ]
      -
         sv_count: 12
         rho: 2.5836827368741528e+00
         alpha: [ 1.8875325038787062e-19, 3.7636241355680403e-18,
             1.3395692576267268e-19, 7.8330108562501612e-20,
             2.6339905130585400e-18, 3.9499911272690320e-20,
             1.0042081784778510e-18, -1.8875325038787062e-19,
             -3.4624912501170314e-18, -2.8033125809667454e-18,
             -9.6884303633231846e-19, -4.1896290528620365e-19 ]
         index: [ 20, 27, 31, 32, 33, 35, 36, 38, 39, 44, 47, 48 ]
      -
         sv_count: 16
         rho: -3.5747764626345506e+00
         alpha: [ 3.2921407392860129e-19, 7.5576102890639776e-20,
             2.2507047503190323e-19, 3.9967818314251560e-19,
             2.5171564053781078e-18, 2.7655271406604595e-18,
             9.0025088210506549e-19, 1.4559778007098982e-20,
             4.2635239275915079e-20, 2.1232424200287202e-19,
             -3.2921407392860129e-19, -3.4660972334539208e-18,
             -1.4314446278696187e-20, -7.1644360051188365e-19,
             -4.3927316131311508e-20, -2.9119958521187658e-18 ]
         index: [ 20, 22, 26, 27, 31, 32, 33, 35, 36, 37, 52, 56, 57, 58,
             59, 61 ]
      -
         sv_count: 14
         rho: 3.3984774232291644e+00
         alpha: [ 7.4258529106976040e-20, 2.1898293604033264e-19,
             2.0917526280280708e-18, 1.0812095608227474e-18,
             3.9609550471751474e-18, 1.1516070871996022e-18,
             -7.4258529106976040e-20, -1.2238693656750313e-18,
             -3.1388629569160141e-18, -4.5107168827756454e-20,
             -2.2126727886876720e-18, -5.2441289281244376e-19,
             -1.0652986297776877e-18, -2.9428345656929499e-19 ]
         index: [ 20, 24, 26, 29, 31, 32, 66, 67, 71, 74, 77, 78, 82, 84 ]
      -
         sv_count: 20
         rho: 2.7067280168444219e+00
         alpha: [ 1.6104776422486405e-18, 1.7676365360757394e-19,
             2.3582830923889214e-20, 2.3530761911979769e-20,
             2.7822806784416881e-18, 6.6719611590390049e-20,
             2.5750861865260758e-19, 5.2543819519269829e-20,
             3.3705750603759527e-18, 1.5107705195523510e-19,
             -1.6104776422486405e-18, -6.2488769705843306e-19,
             -2.1779666354562514e-19, -9.0969655547490236e-21,
             -1.5421130668894599e-19, -2.7349982241652012e-20,
             -2.0617756023711338e-18, -7.0523766563352172e-20,
             -1.3248963297276873e-18, -2.4140437732270054e-18 ]
         index: [ 20, 21, 22, 26, 27, 30, 32, 34, 36, 37, 85, 86, 88, 91,
             92, 94, 95, 96, 98, 100 ]
      -
         sv_count: 16
         rho: -2.8807378689753906e+00
         alpha: [ 1.3188581394176588e-20, 1.2159162950270295e-18,
             5.5713102102228629e-20, 1.3292229640903216e-19,
             1.7334157463057728e-18, 1.6458439101741540e-18,
             2.8823274467056886e-19, 1.4877765625004811e-19,
             4.2108093445282969e-19, 1.0714984856739372e-18,
             -1.3188581394176588e-20, -6.9861998773564272e-19,
             -2.5957800089605453e-18, -1.0844351505535568e-20,
             -2.8103373452534826e-19, -3.1271230883385258e-18 ]
         index: [ 20, 21, 22, 26, 27, 28, 31, 33, 34, 36, 101, 102, 104,
             106, 107, 108 ]
      -
         sv_count: 9
         rho: -3.5659408376122759e+00
         alpha: [ 7.6053253958716452e-20, 3.3253564854373994e-18,
             1.1413227787213320e-19, 3.2579992457733872e-18,
             2.2081101744319343e-19, -7.6053253958716452e-20,
             -2.8153423201254255e-19, -3.0905972916329760e-18,
             -3.5461675028805951e-18 ]
         index: [ 38, 43, 44, 47, 50, 52, 56, 57, 58 ]
      -
         sv_count: 17
         rho: 5.7345257298143277e+00
         alpha: [ 4.7196462023254744e-19, 7.7317119847501561e-21,
             2.5840555453518073e-18, 1.8281896889389370e-19,
             8.8641329581720281e-19, 1.8950658090832610e-19,
             1.9341237076192057e-19, 4.4859459454796027e-18,
             4.7095327470745321e-19, -4.7196462023254744e-19,
             -1.1311035658811615e-19, -4.4400912293937868e-20,
             -3.8160386743842213e-18, -3.7657376802205354e-19,
             -4.0080917119211965e-18, -2.1087071102215187e-19,
             -4.3175155967328011e-19 ]
         index: [ 38, 39, 41, 42, 43, 45, 46, 47, 51, 66, 67, 70, 71, 74,
             77, 78, 82 ]
      -
         sv_count: 11
         rho: -2.7076423667567342e+00
         alpha: [ 3.0591240184272624e-19, 3.2291513613637991e-18,
             1.6795547206741978e-18, 1.4954681910019420e-18,
             8.6394548437113646e-20, 8.9758230322986299e-21,
             5.4606876293627219e-20, -3.0591240184272624e-19,
             -7.2398531943822284e-20, -3.1839987347084383e-18,
             -3.2977542541507183e-18 ]
         index: [ 38, 43, 44, 47, 48, 49, 50, 85, 87, 96, 97 ]
      -
         sv_count: 12
         rho: -2.8849497295067414e+00
         alpha: [ 8.8228585305900740e-21, 3.8472048081396488e-19,
             3.3504130917927275e-18, 2.3143600432461426e-18,
             3.8213884444501610e-19, 6.7780460236659461e-21,
             -8.8228585305900740e-21, -1.2121590337001203e-18,
             -7.9239290494693637e-19, -1.3539284910737991e-20,
             -1.3390999142585997e-18, -3.0812193685051235e-18 ]
         index: [ 38, 40, 43, 44, 47, 50, 101, 102, 104, 105, 107, 108 ]
      -
         sv_count: 17
         rho: 3.2136471100901609e+00
         alpha: [ 3.9003092380999705e-20, 1.2884674496916482e-19,
             1.7716542218203666e-18, 1.7474889331499672e-18,
             1.3529278530572675e-19, 4.0447198390162204e-19,
             2.7732904025460972e-18, 7.0697665558360412e-19,
             6.5721397121520509e-19, 4.8316384266108226e-20,
             -3.9003092380999705e-20, -1.3552009342739219e-18,
             -3.7947009778920605e-18, -5.4559312509153386e-19,
             -1.9131358269864296e-18, -4.3441556328181767e-19,
             -3.3050565523210060e-19 ]
         index: [ 52, 53, 55, 56, 57, 58, 61, 62, 63, 64, 66, 67, 71, 74,
             77, 78, 84 ]
      -
         sv_count: 8
         rho: 3.4462530622295313e+00
         alpha: [ 2.9430590057577773e-19, 3.0156135018230132e-18,
             2.9406693565167192e-18, -2.9430590057577773e-19,
             -1.8828871629792489e-18, -2.2324035730679682e-18,
             -1.1327263388437610e-18, -7.0826578344875142e-19 ]
         index: [ 52, 57, 58, 85, 87, 96, 97, 100 ]
      -
         sv_count: 10
         rho: -2.3076526442211103e+00
         alpha: [ 1.9961644924908841e-20, 9.1285666798936172e-19,
             3.0004062514285241e-18, 1.5689545314842482e-18,
             1.1561495141241577e-19, 3.5218205711930966e-19,
             -1.9961644924908841e-20, -3.0004062514285241e-18,
             -7.2296547640450859e-20, -2.8773116603648851e-18 ]
         index: [ 52, 54, 57, 58, 60, 65, 101, 102, 106, 108 ]
      -
         sv_count: 18
         rho: -3.3817847090152267e+00
         alpha: [ 9.5500488664296679e-20, 2.0858181728682380e-18,
             1.9207413468849817e-18, 4.2245119076668053e-19,
             1.1394286453760720e-18, 3.4412079480987707e-19,
             1.5668577378567362e-18, 2.7475820071587834e-19,
             -9.5500488664296679e-20, -1.0351464592932341e-19,
             -9.8981191333825168e-20, -4.5691282022424287e-20,
             -2.5556478511036599e-18, -7.4702783496123218e-19,
             -1.8664137551683274e-19, -4.1653190305715360e-19,
             -2.8187529009427429e-18, -7.8138710441127047e-19 ]
         index: [ 66, 67, 71, 74, 77, 78, 82, 84, 85, 87, 90, 92, 93, 95,
             96, 97, 99, 100 ]
      -
         sv_count: 15
         rho: -2.8876925503893447e+00
         alpha: [ 6.8444584245601598e-21, 2.6646614530338006e-18,
             3.1353828555644957e-18, 7.0894215784851109e-19,
             8.1914206813664104e-19, 2.5871476941223296e-19,
             3.2054688769415689e-19, 2.0828316592356742e-19,
             -6.8444584245601598e-21, -3.9915455143611504e-18,
             -1.3352220799941330e-18, -7.8225421189967253e-21,
             -1.2573835808847672e-18, -3.7378701055058375e-19,
             -1.1499126297037724e-18 ]
         index: [ 66, 67, 71, 74, 77, 78, 82, 84, 101, 102, 103, 105,
             106, 107, 108 ]
      -
         sv_count: 9
         rho: -2.9129312392284814e+00
         alpha: [ 1.2596913024656911e-20, 6.3967520663714843e-19,
             2.2232095738009304e-18, 2.7935439319523251e-18,
             -1.2596913024656911e-20, -1.9347142007960084e-18,
             -5.6955825195923939e-19, -3.5861232768282944e-19,
             -2.7935439319523251e-18 ]
         index: [ 85, 89, 96, 97, 101, 102, 104, 107, 108 ]
